
\data\
ngram 1=21162
ngram 2=114963

\1-grams:
-1.605731	</s>
-99	<s>	-0.3242483
-2.407648	一	-0.4386985
-5.433496	一上
-3.831501	一下	-0.5456065
-5.163539	一下子	-0.210355
-5.163539	一了	-0.2001629
-5.433496	一事
-3.422668	一些	-0.2082471
-5.433496	一人
-5.433496	一代
-5.433496	一任
-5.433496	一份
-5.433496	一併
-4.965303	一來	-0.186203
-5.433496	一來一往
-5.433496	一例
-3.076352	一個	-0.2439205
-5.433496	一共
-5.433496	一兵一卒
-5.433496	一刀
-5.433496	一刀兩斷
-5.433496	一分
-5.433496	一分子
-5.433496	一分耕耘一分收穫
-5.433496	一切
-5.433496	一副
-5.433496	一勞永逸
-4.438441	一半	-0.424917
-5.433496	一口
-4.712932	一口氣	-0.336477
-5.433496	一同
-5.433496	一名
-4.207293	一向	-0.2400343
-5.433496	一呼百應
-5.433496	一哄而散
-5.433496	一回
-5.433496	一回事
-5.433496	一國兩制
-5.433496	一團
-5.433496	一地
-5.163539	一堆	-0.1986974
-5.433496	一塊
-5.433496	一塊兒
-5.433496	一夕
-5.433496	一夥
-5.433496	一大半
-5.433496	一大早
-3.783909	一天	-0.3359621
-4.016882	一套	-0.2474482
-5.433496	一如
-3.783909	一定	-0.3357847
-5.433496	一家
-5.433496	一家人
-5.433496	一對
-5.433496	一屁股
-5.433496	一展身手
-5.433496	一己
-5.433496	一帆風順
-5.433496	一席之地
-4.347039	一帶	-0.1825277
-5.433496	一幕
-5.433496	一幫
-5.433496	一干
-5.433496	一年半載
-5.433496	一度
-5.433496	一廂情願
-5.163539	一律	-0.4648269
-5.433496	一心
-5.433496	一心一意
-5.433496	一成
-5.433496	一成不變
-5.433496	一手
-5.433496	一手包辦
-5.433496	一手遮天
-5.433496	一批
-4.554352	一把	-0.1931117
-5.433496	一把手
-5.433496	一抹
-5.433496	一整天
-5.433496	一方
-4.438441	一方面	-0.2028148
-5.433496	一旁
-5.433496	一日
-3.914374	一旦	-0.2108474
-3.70199	一時	-0.2905385
-5.433496	一時之間
-5.433496	一時間
-5.433496	一曝十寒
-5.433496	一曲
-5.275057	一會兒	-0.1988877
-5.433496	一本
-5.433496	一枝獨秀
-5.433496	一條心
-5.433496	一概
-5.275057	一模一樣	-0.1885137
-4.016882	一步	-0.4593734
-5.433496	一步步
-3.979959	一段	-0.2345965
-5.433496	一毛
-5.433496	一氣之下
-5.433496	一氣呵成
-5.433496	一波
-5.433496	一波三折
-5.433496	一派
-5.433496	一流
-5.433496	一清二楚
-3.884957	一片	-0.2243144
-5.433496	一班
-5.433496	一生
-5.433496	一番
-5.433496	一發
-5.433496	一發不可收拾
-5.433496	一百一
-5.433496	一百分
-5.275057	一目了然	-0.1885137
-5.433496	一目十行
-5.433496	一目瞭然
-3.49742	一直	-0.3103531
-5.275057	一瞬間	-0.1885137
-5.433496	一票難求
-5.433496	一竿子
-5.433496	一筆
-5.433496	一節
-5.433496	一籌莫展
-5.433496	一系列
-5.433496	一絕
-5.433496	一線
-5.433496	一線天
-5.433496	一線曙光
-5.433496	一線生機
-4.207293	一群	-0.1890563
-5.433496	一聲
-5.433496	一聲令下
-5.433496	一股
-5.433496	一脈
-5.433496	一脈相承
-5.433496	一腳
-5.433496	一臂之力
-3.741021	一致	-0.4998877
-5.433496	一致性
-5.433496	一舉
-5.433496	一舉兩得
-5.433496	一舉成擒
-3.453144	一般	-0.3605521
-5.433496	一般性
-5.433496	一般而言
-5.433496	一落千丈
-5.433496	一著
-5.433496	一處
-4.712932	一號	-0.2038167
-4.438441	一行	-0.1999582
-5.433496	一行人
-5.433496	一表人才
-5.433496	一視同仁
-5.433496	一覽無遺
-5.433496	一角
-5.433496	一觸即發
-5.433496	一試
-5.433496	一說
-5.433496	一貫
-5.433496	一貫作業
-3.914374	一起	-0.2337358
-5.433496	一趟
-5.433496	一跤
-3.94593	一路	-0.1846437
-5.433496	一路領先
-5.433496	一蹶不振
-5.433496	一身
-5.433496	一較長短
-5.433496	一輩
-5.275057	一輩子	-0.2001629
-5.433496	一逕
-5.433496	一連
-4.101735	一連串	-0.3712545
-5.433496	一道
-4.965303	一邊	-0.3029774
-5.433496	一部
-5.433496	一部分
-5.433496	一門
-5.433496	一間
-4.016882	一陣	-0.2038042
-4.554352	一陣子	-0.364253
-5.433496	一雙
-4.347039	一面	-0.3424491
-5.433496	一頓
-5.433496	一頭
-5.433496	一頭霧水
-5.433496	一體
-5.433496	一鳴驚人
-3.831501	一點	-0.5253124
-5.163539	一點點	-0.1928283
-5.433496	一齊
-4.347039	丁	-0.2214741
-3.137977	七	-0.4916084
-5.433496	七七
-5.433496	七八
-5.433496	七十二變
-5.433496	七月
-5.433496	七發
-5.433496	丈夫
-5.433496	丈母娘
-2.805679	三	-0.4711994
-5.433496	三七
-5.163539	三二	-0.2108189
-5.433496	三五
-5.433496	三代
-5.433496	三元
-5.433496	三八
-5.433496	三公
-5.433496	三六
-5.433496	三分
-5.433496	三到
-5.433496	三原色
-5.433496	三國
-5.433496	三場
-5.433496	三字經
-5.433496	三季
-5.433496	三學
-5.433496	三家
-5.433496	三峽
-5.433496	三年有成
-5.433496	三度空間
-5.433496	三從四德
-5.433496	三思而行
-5.433496	三振
-5.433496	三星
-5.433496	三時
-5.433496	三民主義
-5.433496	三溫暖
-5.433496	三端
-5.275057	三等
-5.433496	三節
-5.433496	三節棍
-5.433496	三級片
-5.433496	三緘其口
-5.433496	三芝
-5.433496	三角貿易
-5.433496	三讀
-5.433496	三軍
-5.433496	三重
-5.433496	三餐
-2.407648	上	-0.4498059
-5.163539	上上	-0.1975113
-4.101735	上下	-0.1921643
-5.433496	上下其手
-5.433496	上任
-4.712932	上來	-0.1881124
-5.433496	上前
-5.433496	上升
-4.016882	上午	-0.4276344
-5.433496	上半
-4.438441	上去	-0.6137016
-5.433496	上司
-5.433496	上回
-5.433496	上場
-5.433496	上學
-5.433496	上山
-5.433496	上岸
-5.433496	上工
-5.433496	上市
-5.433496	上帝
-5.433496	上床
-5.433496	上揚
-5.433496	上方
-5.433496	上日
-5.433496	上旬
-5.433496	上映
-5.433496	上書
-5.433496	上會
-5.433496	上檔
-5.433496	上次
-5.433496	上游
-5.433496	上演
-5.433496	上漲
-3.807053	上班	-0.5539312
-5.433496	上班族
-5.433496	上畫
-5.433496	上當
-5.433496	上癮
-5.433496	上真
-5.433496	上空
-5.433496	上等
-5.433496	上級
-5.163539	上網	-0.1879954
-5.433496	上線
-5.433496	上臂
-5.433496	上蓋
-5.433496	上街
-5.433496	上衣
-5.433496	上訴
-4.271569	上課	-0.3203884
-4.965303	上路	-0.1992324
-5.433496	上身
-5.433496	上軌道
-5.433496	上述
-5.433496	上進
-5.433496	上達
-5.433496	上都
-5.433496	上鎖
-5.433496	上門
-4.965303	上限	-0.1879525
-5.433496	上陣
-4.151315	上面	-0.2713395
-5.433496	上風
-5.433496	上香
-2.552538	下	-0.5513242
-5.433496	下不為例
-5.433496	下令
-3.721067	下來	-0.8561993
-5.433496	下列
-5.275057	下功夫	-0.1885137
-4.016882	下午	-0.3951394
-5.433496	下半年
-3.914374	下去	-0.7555559
-5.433496	下回
-5.433496	下坡
-5.433496	下堂
-5.433496	下堂妻
-5.433496	下場
-5.433496	下嫁
-5.433496	下學
-5.433496	下定
-5.433496	下山
-5.275057	下工夫	-0.2109338
-5.433496	下巴
-5.433496	下心
-5.433496	下手
-5.433496	下才
-5.433496	下挫
-5.433496	下文
-5.433496	下方
-5.433496	下旬
-5.433496	下檔
-5.433496	下次
-5.433496	下毒
-5.433496	下注
-5.433496	下海
-5.433496	下游
-5.433496	下滑
-5.433496	下班
-5.433496	下的
-5.433496	下第
-5.433496	下落
-5.163539	下課	-0.1975485
-5.433496	下跌
-5.433496	下跪
-5.433496	下車
-5.433496	下達
-5.433496	下部
-5.433496	下都
-5.433496	下鄉
-5.433496	下降
-5.433496	下雨
-5.163539	下面	-0.1980324
-5.433496	下體
-2.253676	不	-0.5120642
-5.433496	不久
-5.433496	不乏
-5.433496	不乏其人
-5.433496	不乾淨
-5.433496	不了
-5.433496	不了了之
-5.433496	不了解
-5.433496	不但
-4.05724	不佳	-0.769828
-5.433496	不來
-5.433496	不便
-5.433496	不便宜
-5.433496	不倫不類
-4.965303	不停	-0.1956887
-5.433496	不備
-5.433496	不僅
-5.275057	不光	-0.1992624
-5.433496	不克
-5.433496	不免
-5.433496	不全
-5.433496	不公
-5.433496	不具
-5.433496	不分
-5.433496	不切實際
-5.433496	不利
-3.70199	不到	-0.2182679
-5.433496	不到的
-5.433496	不到頭
-5.433496	不力
-5.433496	不動產
-5.433496	不去
-5.433496	不及
-3.533867	不可	-0.2575869
-5.433496	不可不
-4.347039	不可以	-0.190591
-5.433496	不可同日而語
-5.433496	不可思議
-4.965303	不可或缺	-0.5203011
-5.433496	不可收拾
-5.433496	不可知
-5.433496	不可磨滅
-3.831501	不可能	-0.2269638
-5.433496	不可開交
-5.433496	不合
-5.433496	不合作
-5.433496	不合時宜
-5.433496	不合格
-5.433496	不合邏輯
-3.432591	不同	-0.5580513
-5.433496	不同意
-5.433496	不名譽
-5.433496	不吝
-5.433496	不含糊
-5.433496	不吭氣
-5.433496	不告而別
-5.433496	不和
-5.433496	不均
-5.433496	不堪
-5.433496	不堪其擾
-5.433496	不堪設想
-5.433496	不堪負荷
-5.433496	不多
-5.433496	不多時
-3.721067	不夠	-0.3300076
-5.433496	不大
-3.857407	不好	-0.4166003
-5.433496	不好意思
-5.433496	不好看
-5.433496	不妙
-5.433496	不妥
-4.438441	不妨	-0.1931686
-5.433496	不定
-5.433496	不客氣
-5.433496	不將
-5.433496	不對
-5.433496	不對勁
-5.433496	不就
-5.433496	不平
-5.433496	不平之鳴
-5.433496	不平等
-5.433496	不平等條約
-5.433496	不幹
-5.433496	不強
-3.422668	不得	-0.3681795
-5.433496	不得不
-5.275057	不得了	-0.1885137
-5.433496	不得其門而入
-5.433496	不得已
-5.433496	不得而知
-5.433496	不得要領
-5.433496	不復
-3.633099	不必	-0.2999478
-5.433496	不惜
-5.433496	不懂
-5.433496	不拘小節
-5.433496	不提
-5.433496	不搭調
-5.433496	不擬
-5.433496	不改
-5.433496	不攻自破
-5.433496	不放心
-5.433496	不敢
-5.433496	不敵
-5.433496	不敷
-5.433496	不料
-3.58777	不斷	-0.3591986
-5.433496	不斷電系統
-5.433496	不方便
-5.433496	不明
-5.433496	不明不白
-5.433496	不明就裡
-5.433496	不景氣
-3.326287	不會	-0.2944056
-5.433496	不服
-5.433496	不服輸
-5.433496	不期
-5.433496	不樂觀
-5.433496	不歡而散
-5.433496	不歸路
-5.433496	不比
-5.433496	不毛之地
-5.433496	不決
-5.433496	不法
-5.433496	不法行為
-5.433496	不淺
-5.433496	不清
-5.433496	不減
-5.433496	不滿
-5.433496	不濟
-5.433496	不獨
-5.433496	不獲
-5.433496	不理
-5.433496	不理會
-5.433496	不甘
-5.433496	不甘寂寞
-5.433496	不甘心
-5.433496	不甘示弱
-5.433496	不當
-5.433496	不疾不徐
-5.433496	不盡
-5.275057	不盡然	-0.1978919
-5.433496	不眠不休
-5.433496	不睦
-5.433496	不確定故意
-5.433496	不禁
-5.433496	不稀奇
-5.433496	不究
-5.433496	不競
-5.433496	不符
-5.433496	不等
-4.207293	不管	-0.2158314
-5.433496	不結盟
-5.433496	不絕
-5.433496	不給
-5.433496	不經心
-5.433496	不經意
-5.433496	不耐
-5.433496	不肯
-3.326287	不能	-0.2315921
-5.163539	不能不	-0.1987939
-5.433496	不脛而走
-5.433496	不良
-5.433496	不良分子
-5.433496	不良少年
-5.433496	不落人後
-5.433496	不表
-5.433496	不見
-4.347039	不見得	-0.2354943
-5.433496	不規則
-5.433496	不覺
-5.433496	不解
-5.163539	不計	-0.2098896
-5.433496	不該
-4.207293	不論	-0.3233614
-5.433496	不諱
-5.433496	不諱言
-4.554352	不變	-0.5692189
-5.433496	不負
-5.433496	不負眾望
-5.433496	不費吹灰之力
-5.433496	不賴
-5.433496	不起
-5.433496	不起眼
-5.433496	不起訴處分
-5.433496	不軌
-5.433496	不通
-3.884957	不過	-0.2931237
-5.433496	不過是
-5.433496	不道德
-5.433496	不還
-5.433496	不開
-5.433496	不關
-5.433496	不關心
-5.433496	不防
-5.433496	不離
-4.554352	不難	-0.2226406
-5.433496	不靈
-5.433496	不領情
-5.433496	不顧
-5.433496	不顧一切
-5.163539	丑	-0.1884747
-3.533867	且	-0.2205615
-5.433496	且是
-5.433496	丕變
-3.533867	世	-0.2703182
-5.433496	世上
-5.433496	世事
-5.163539	世代	-0.197649
-5.433496	世俗
-5.433496	世外桃源
-5.433496	世居
-3.49742	世界	-0.3382424
-5.433496	世界大戰
-5.433496	世界展望會
-5.433496	世界觀
-5.433496	世紀
-5.433496	世紀末
-5.433496	世貿中心
-5.433496	世風日下
-4.965303	丘	-0.3280541
-4.271569	丙	-0.3803135
-3.857407	丟	-0.2967494
-5.433496	丟下
-5.275057	丟掉	-0.2001629
-5.433496	丟棄
-2.758566	並	-0.4830088
-4.101735	並不是	-0.2878729
-5.433496	並且
-5.433496	並列
-5.433496	並存
-5.433496	並未
-5.433496	並無不當
-5.433496	並稱
-5.433496	並肩
-5.433496	並肩作戰
-5.433496	並起
-5.433496	並重
-5.433496	並非
-2.390916	中	-0.4900188
-5.433496	中人
-5.433496	中介
-5.433496	中信局
-5.433496	中傷
-5.433496	中共
-5.433496	中區
-4.438441	中午	-0.1924465
-5.433496	中古
-5.433496	中和
-3.617458	中國	-0.2717663
-5.433496	中國大陸
-5.433496	中國畫
-5.433496	中國銀行
-5.433496	中地
-5.433496	中堅
-5.433496	中場
-5.433496	中大
-3.49742	中央	-0.2392936
-5.433496	中央委員會
-5.433496	中央山脈
-5.433496	中央政府
-5.433496	中央氣象局
-5.433496	中央銀行
-5.433496	中央黨部
-5.433496	中學
-5.433496	中將
-5.433496	中小企業
-5.433496	中山
-5.433496	中常
-5.433496	中常委
-5.433496	中常會
-5.433496	中年
-5.433496	中庭
-5.433496	中彈
-3.573654	中心	-0.5131869
-5.433496	中心思想
-5.275057	中性	-0.1990101
-5.433496	中意
-5.433496	中才
-5.433496	中指
-4.05724	中文	-0.3001785
-5.433496	中斷
-5.433496	中旬
-4.712932	中期	-0.240618
-3.49742	中東	-0.6029903
-5.433496	中樞
-5.433496	中止
-5.433496	中正
-5.433496	中正大學
-5.433496	中正紀念堂
-5.433496	中毒
-5.433496	中氣
-5.433496	中油
-5.433496	中焦
-5.433496	中獎
-5.433496	中用
-5.433496	中的
-5.433496	中盤
-5.433496	中盤商
-5.433496	中看
-5.433496	中秋
-5.433496	中秋節
-4.965303	中立	-0.2984523
-5.433496	中等
-5.433496	中篇小說
-5.433496	中級
-5.433496	中線
-5.433496	中美
-5.433496	中興
-5.433496	中興大學
-5.433496	中船
-3.783909	中華	-0.5237003
-5.433496	中華民國
-5.433496	中葉
-5.433496	中衛
-5.433496	中西
-4.438441	中視	-0.1927801
-5.433496	中誠
-5.433496	中途
-5.433496	中道
-5.433496	中選會
-5.433496	中部
-5.433496	中醫
-5.433496	中鋒
-4.151315	中間	-0.3503403
-5.433496	中間商
-5.433496	中隊
-5.433496	中飯
-5.433496	中飽私囊
-4.712932	串	-0.2347211
-5.433496	串演
-5.163539	串聯	-0.2604355
-5.163539	丸	-0.1979224
-4.554352	丹	-0.1913389
-5.433496	丹佛
-2.682682	主	-0.6755633
-5.433496	主事
-5.433496	主人
-5.433496	主人公
-5.433496	主任
-5.433496	主任委員
-5.433496	主使
-5.433496	主修
-5.433496	主力
-5.433496	主動
-5.433496	主名
-5.433496	主因
-5.433496	主委
-5.433496	主婦
-5.433496	主嫌
-5.433496	主客
-5.433496	主宰
-5.433496	主將
-4.151315	主導	-0.1949042
-5.433496	主席
-5.433496	主席團
-5.433496	主幹
-5.433496	主張
-5.433496	主從架構
-5.433496	主意
-5.433496	主持
-5.433496	主持人
-5.433496	主控
-5.433496	主播
-5.433496	主攻
-5.433496	主政
-5.433496	主教
-5.433496	主文
-5.163539	主旨	-0.1969412
-5.433496	主機
-5.433496	主權
-4.05724	主流	-0.3887057
-5.433496	主演
-5.433496	主祭
-5.433496	主管
-5.433496	主管機關
-5.433496	主義
-3.741021	主要	-0.4057296
-5.433496	主觀
-4.271569	主角	-0.2660493
-5.433496	主計
-5.433496	主軸
-5.433496	主辦
-4.101735	主題	-0.5228137
-5.433496	主題曲
-5.433496	主食
-5.433496	主體
-3.761936	乃	-0.2325452
-5.433496	乃是
-5.433496	乃父
-3.485921	久	-0.4537313
-5.433496	久久
-5.433496	久候
-5.433496	久旱不雨
-5.433496	久旱逢甘霖
-5.433496	久而久之
-2.431009	之	-0.2941055
-3.60236	之前	-0.689006
-3.485921	之外	-1.000578
-3.175178	之後	-0.9021875
-5.433496	之無
-5.433496	乍看
-4.347039	乎	-0.2936638
-3.94593	乏	-0.2941657
-5.433496	乏人
-5.433496	乏人問津
-5.433496	乏味
-5.433496	乖乖
-5.433496	乖離
-5.433496	乖離率
-4.016882	乘	-0.2021184
-5.433496	乘勝追擊
-5.433496	乘勢
-5.433496	乘坐
-4.438441	乘客	-0.1865236
-5.433496	乘機
-5.433496	乘車
-4.438441	乙	-0.2543867
-5.433496	乙炔
-5.433496	乙烯
-3.247458	九	-0.4317815
-5.433496	九七大限
-5.433496	九九
-5.433496	九五
-5.433496	九分
-5.433496	九孔
-5.433496	九層塔
-5.433496	九成
-5.433496	九族
-5.433496	九日
-5.433496	九泉
-5.433496	九牛一毛
-5.433496	九牛二虎之力
-5.433496	九百
-5.433496	九芎
-5.433496	九鼎
-5.433496	九龍
-5.433496	乞丐
-2.530611	也	-0.3945092
-5.433496	也不見得
-5.433496	也可
-4.712932	也好	-0.3111264
-3.521375	也是	-0.1864736
-5.433496	也曾
-5.433496	也行
-4.554352	也許	-0.3121597
-5.433496	也須
-5.433496	乩童
-4.438441	乳	-0.3868947
-5.433496	乳牛
-5.433496	乳白
-5.433496	乳製品
-5.433496	乳豬
-4.151315	乾	-0.1975435
-5.433496	乾涸
-4.438441	乾淨	-0.403156
-5.433496	乾燥
-5.433496	乾瞪眼
-4.347039	乾脆	-0.1817461
-5.433496	乾隆
-3.683716	亂	-0.4704138
-5.433496	亂來
-5.433496	亂叫
-5.433496	亂成一團
-5.433496	亂竄
-5.433496	亂罵
-2.467503	了	-0.3976601
-5.163539	了不起	-0.5203011
-5.433496	了事
-5.433496	了手
-5.433496	了收
-5.433496	了斷
-5.433496	了無
-5.433496	了無新意
-5.433496	了無生機
-5.433496	了結
-3.533867	了解	-0.3290016
-3.260767	予	-0.4053805
-5.433496	予以
-5.433496	予取予求
-2.886157	事	-0.4559423
-3.474718	事件	-0.4426152
-3.807053	事先	-0.2142505
-5.433496	事前
-5.433496	事務
-5.433496	事務所
-5.433496	事半功倍
-5.433496	事宜
-3.94593	事實	-0.3506392
-5.433496	事後
-5.433496	事必躬親
-4.207293	事情	-0.2363648
-5.433496	事態
-5.433496	事故
-3.721067	事業	-0.2554524
-5.433496	事權
-5.433496	事物
-5.433496	事端
-5.433496	事變
-5.433496	事蹟
-5.433496	事關重大
-5.433496	事項
-2.748063	二	-0.5905824
-5.433496	二二八事件
-5.433496	二五八
-5.433496	二八
-5.433496	二分
-5.433496	二則
-4.347039	二十四	-0.2312528
-5.275057	二四
-5.433496	二天
-5.433496	二手
-5.433496	二月二
-5.433496	二極體
-5.433496	二次大戰
-5.433496	二次方程式
-5.433496	二百二
-5.433496	二百五
-5.433496	二部制
-4.554352	于	-0.2025848
-5.433496	于右任
-3.721067	互	-0.3138947
-5.433496	互信
-5.433496	互勉
-4.712932	互動	-0.1944928
-5.433496	互惠
-5.275057	互換	-0.1989322
-5.433496	互毆
-5.433496	互異
-4.151315	互相	-0.2699435
-5.433496	互通
-3.063292	五	-0.442444
-5.433496	五七
-5.433496	五代
-5.433496	五官
-5.433496	五常
-5.433496	五彩
-5.433496	五折
-5.433496	五根
-3.831501	五百	-0.2499904
-5.433496	五種
-5.433496	五股
-5.433496	五花八門
-5.433496	五花大綁
-5.433496	五輕
-5.433496	五院
-5.433496	五鬼
-3.914374	井	-0.2398359
-5.433496	井井有條
-5.433496	井然有序
-3.831501	些	-0.3141855
-5.433496	些小
-5.433496	些微
-3.432591	亞	-0.4090656
-5.433496	亞東
-5.433496	亞東關係協會
-5.433496	亞洲
-5.433496	亞洲四小龍
-5.433496	亞熱帶
-5.433496	亞運
-4.438441	亟	-0.2634649
-5.433496	亟待
-5.433496	亟思
-5.433496	亟欲
-5.433496	亟需
-3.979959	亡	-0.3730792
-5.433496	亡命
-5.433496	亡羊補牢
-5.433496	亡魂
-2.960646	交	-0.5750141
-5.433496	交付
-5.433496	交代
-5.433496	交保
-5.433496	交出
-5.433496	交割
-5.275057	交叉	-0.2001629
-5.275057	交友	-0.2110302
-5.433496	交往
-5.433496	交情
-5.433496	交戰
-5.433496	交接
-4.151315	交換	-0.2645418
-5.433496	交易
-5.433496	交易所
-5.433496	交替
-5.433496	交會
-5.433496	交流
-5.433496	交流道
-5.433496	交流電
-5.433496	交涉
-5.433496	交界
-5.433496	交相
-4.271569	交給	-0.2051641
-5.433496	交織
-5.433496	交與
-5.433496	交融
-5.433496	交誼
-5.433496	交談
-5.433496	交貨
-3.350524	交通	-0.2749069
-5.433496	交通事故
-5.433496	交通大學
-5.433496	交通安全
-5.433496	交通工具
-5.433496	交通流量
-5.433496	交通號誌
-5.433496	交通部
-5.433496	交通量
-5.433496	交運
-5.433496	交還
-5.433496	交錯
-5.275057	交集	-0.1981448
-5.433496	交響樂團
-3.01084	亦	-0.3636804
-5.433496	亦然
-4.965303	亨	-0.3750588
-3.783909	享	-0.4104948
-5.433496	享受
-5.433496	享有
-5.433496	享樂
-5.433496	享用
-5.433496	享福
-4.016882	京	-0.3064218
-5.433496	京兆
-5.433496	京劇
-5.433496	京城
-5.433496	京華
-5.433496	京都
-4.207293	亭	-0.1825568
-5.433496	亭亭玉立
-3.683716	亮	-0.291569
-5.433496	亮光
-5.433496	亮光漆
-5.433496	亮度
-5.433496	亮相
-5.433496	亮票
-5.433496	亮麗
-2.440104	人	-0.3119416
-5.433496	人中
-5.433496	人主
-5.433496	人之常情
-3.683716	人事	-0.2459137
-5.433496	人事行政
-4.712932	人人	-0.2328074
-5.433496	人人自危
-4.101735	人們	-0.2736303
-5.433496	人傑
-5.433496	人像
-5.433496	人力
-5.433496	人力資源
-5.433496	人口
-5.433496	人口販子
-4.965303	人名	-0.2036159
-5.433496	人命
-5.433496	人和
-3.108445	人員	-0.273623
-5.433496	人地
-3.394192	人士	-0.3859542
-5.433496	人壽
-5.433496	人壽保險
-4.101735	人家	-0.2227764
-5.433496	人山人海
-5.433496	人工
-5.433496	人工智慧
-5.433496	人工色素
-5.433496	人工閱卷
-5.433496	人形
-5.433496	人從
-5.433496	人心
-5.433496	人心惶惶
-5.433496	人性
-5.433496	人情
-5.433496	人情味
-5.433496	人手
-5.433496	人才
-3.94593	人數	-0.1778517
-5.433496	人文
-5.433496	人時
-5.433496	人格
-5.433496	人機介面
-5.433496	人權
-5.433496	人次
-5.433496	人欲
-5.433496	人民
-5.433496	人民幣
-5.433496	人氣
-5.433496	人海戰術
-5.433496	人滿為患
-5.433496	人潮
-5.433496	人為
-5.433496	人煙稀少
-3.914374	人物	-0.3913529
-5.433496	人物畫
-5.433496	人犯
-5.433496	人瑞
-5.433496	人生
-5.433496	人生觀
-5.433496	人群
-5.163539	人聲	-0.1992465
-5.433496	人肉市場
-5.433496	人行道
-5.433496	人言可畏
-5.433496	人謀不臧
-5.433496	人質
-5.433496	人贓俱獲
-5.433496	人身
-5.433496	人造衛星
-5.433496	人道
-5.433496	人選
-5.433496	人間
-5.433496	人間仙境
-5.433496	人際
-5.433496	人頭
-5.433496	人頭戶
-4.207293	人類	-0.2672665
-5.433496	人類學
-5.433496	人馬
-5.433496	人體
-5.433496	人體彩繪
-5.275057	什	-0.1992883
-3.546728	什麼	-0.2754672
-3.649324	仁	-0.2661974
-5.433496	仁德
-5.433496	仁愛
-5.433496	仁智互見
-5.433496	仁義道德
-4.438441	仇	-0.2287189
-5.433496	仇人
-5.433496	仇恨
-3.807053	今	-0.3350552
-5.433496	今世
-5.433496	今人
-3.66618	今天	-0.199569
-3.432591	今年	-0.2739884
-5.433496	今後
-3.884957	今日	-0.2139275
-5.433496	今晚
-3.509233	介	-0.7147817
-5.433496	介入
-5.275057	介意	-0.1885137
-5.433496	介石
-3.741021	介紹	-0.4032524
-5.433496	介質
-5.433496	介面卡
-2.835089	仍	-0.5019721
-5.433496	仍是
-3.633099	仍然	-0.2413179
-5.433496	仍舊
-4.271569	仔	-0.2032258
-4.347039	仔細	-0.1918941
-4.271569	仕	-0.2459487
-5.433496	仕女
-5.433496	仕紳
-5.433496	仕途
-2.784859	他	-0.282831
-5.433496	他人
-3.303331	他們	-0.2177604
-5.433496	他國
-5.433496	他家
-5.433496	他時
-5.433496	他殺
-5.433496	他生
-5.433496	他處
-5.433496	他說
-4.554352	仗	-0.1896272
-5.433496	仗勢
-5.433496	仗義執言
-3.394192	付	-0.2879773
-5.433496	付之闕如
-5.433496	付出
-5.433496	付梓
-5.433496	付款
-5.433496	付清
-5.433496	付給
-5.433496	付諸實施
-5.433496	付費
-4.347039	仙	-0.1986238
-5.433496	仙人掌
-5.433496	仙女
-5.275057	仝	-0.1992809
-5.275057	仞	-0.1928519
-5.163539	仟	-0.1987419
-3.358913	代	-0.3530911
-5.433496	代代
-5.433496	代價
-5.433496	代工
-5.433496	代打
-5.433496	代書
-5.433496	代替
-5.433496	代理
-5.433496	代理人
-5.433496	代理商
-5.433496	代碼
-5.433496	代管
-3.209816	代表	-0.2945815
-5.433496	代表作
-5.433496	代表團
-5.433496	代言人
-4.712932	代課	-0.2030426
-5.433496	代辦
-5.433496	代銷
-3.192152	令	-0.4629858
-5.433496	令人
-5.433496	令人心寒
-5.433496	令人意外
-5.433496	令人激賞
-2.619646	以	-0.1676436
-3.509233	以上	-0.5758501
-3.94593	以下	-0.3702856
-5.433496	以來
-5.433496	以便
-5.433496	以偏概全
-4.965303	以免	-0.2551135
-4.712932	以內	-0.2500481
-3.761936	以前	-0.3267083
-4.05724	以及	-0.2261745
-4.347039	以外	-0.2798123
-5.433496	以太
-4.016882	以往	-0.290583
-3.683716	以後	-0.4533824
-5.163539	以是	-0.3401409
-5.433496	以暴制暴
-5.433496	以次
-5.433496	以此
-3.783909	以為	-0.2598255
-5.433496	以牙還牙
-5.433496	以禮相待
-5.433496	以至
-5.433496	以致
-4.05724	以色列	-0.1932019
-5.433496	以身試法
-5.433496	以還
-5.433496	以鄰為壑
-5.433496	以防萬一
-4.438441	仰	-0.2910843
-5.433496	仰天
-5.433496	仰慕
-5.433496	仰臥
-5.433496	仰賴
-4.151315	仲	-0.1917994
-5.433496	仲介
-5.433496	仲裁
-3.559983	件	-0.4550693
-5.433496	件數
-3.132913	任	-0.3455098
-5.433496	任事
-3.376194	任何	-0.2665565
-5.433496	任內
-5.433496	任務
-5.433496	任命
-5.433496	任性
-4.438441	任意	-0.2029177
-5.433496	任憑
-5.433496	任所
-5.433496	任教
-5.433496	任期
-5.433496	任用
-5.433496	任由
-5.433496	任職
-3.633099	份	-0.3496086
-4.101735	仿	-0.3360218
-5.433496	仿冒
-5.433496	仿冒品
-5.433496	仿古
-5.433496	仿效
-5.433496	仿照
-5.433496	仿製品
-3.342294	企	-0.9864686
-5.433496	企劃
-5.433496	企圖
-5.433496	企望
-5.433496	企業
-5.433496	企業化
-5.433496	企業家
-5.433496	企盼
-5.433496	伉儷
-3.979959	伊	-0.2268047
-5.433496	伊凡諾夫
-3.649324	伊拉克	-0.2431868
-5.433496	伊斯蘭教
-5.275057	伊朗	-0.1978286
-5.433496	伊洛
-4.438441	伍	-0.3329374
-5.433496	伎倆
-4.271569	伏	-0.3325706
-4.712932	伐	-0.1912243
-5.433496	伐木
-3.807053	休	-0.4394559
-5.433496	休假
-5.433496	休市
-3.761936	休息	-0.4500139
-5.433496	休憩
-5.433496	休會
-5.433496	休止符
-5.433496	休耕
-4.016882	休閒	-0.1832657
-5.433496	休閒活動
-5.433496	休養
-5.433496	伙食
-5.433496	伙食團
-3.979959	伯	-0.1866564
-5.433496	伯仲之間
-5.433496	伯勞鳥
-5.433496	伯父
-5.433496	伯納
-5.275057	估算	-0.1976463
-4.347039	估計	-0.2698987
-5.433496	估量
-3.979959	伴	-0.2377796
-5.433496	伴侶
-5.433496	伴唱帶
-5.433496	伴奏
-5.433496	伴隨
-4.965303	伶	-0.1873698
-4.347039	伸	-0.3967083
-5.433496	伸出援手
-5.433496	伸張
-5.433496	伸手
-4.151315	伺	-0.5440356
-5.433496	伺機
-3.884957	似	-0.2693013
-3.633099	似乎	-0.289701
-5.163539	似的	-0.2984523
-4.151315	但	-0.2968232
-5.433496	但使
-5.433496	但得
-5.163539	但是	-0.2948
-5.433496	但有
-5.433496	但民
-5.433496	但願
-5.433496	佇立
-5.433496	佇足
-3.783909	佈	-0.3138065
-3.267577	位	-0.3415113
-5.433496	位址
-5.275057	位子	-0.1992809
-5.433496	位於
-4.207293	位置	-0.5268245
-5.433496	位階
-3.192152	低	-0.5198939
-5.433496	低估
-5.433496	低價
-5.433496	低利率
-5.433496	低微
-5.433496	低收入戶
-5.433496	低檔
-5.433496	低溫
-5.433496	低潮
-5.433496	低胸
-5.433496	低落
-5.433496	低迷
-5.433496	低迷不振
-5.433496	低階
-5.433496	低音
-5.433496	低頭
-5.433496	低點
-3.127908	住	-0.4450847
-5.433496	住址
-5.433496	住宅
-5.433496	住宅區
-5.433496	住家
-5.433496	住宿
-5.433496	住屋
-5.433496	住戶
-5.433496	住所
-5.433496	住持
-5.433496	住民
-5.433496	住處
-5.433496	住院
-4.438441	佐	-0.2199737
-5.433496	佐料
-5.433496	佐證
-4.965303	佑	-0.3170491
-3.394192	佔	-0.4150469
-3.422668	何	-0.4114268
-5.163539	何不	-0.2018033
-5.433496	何事
-5.433496	何人
-5.433496	何以
-5.433496	何其
-5.433496	何去何從
-5.433496	何嘗
-5.433496	何在
-5.433496	何妨
-4.712932	何必	-0.2240792
-5.433496	何方
-5.433496	何時
-5.433496	何有
-5.433496	何況
-5.433496	何種
-5.433496	何等
-5.433496	何苦
-4.271569	何處	-0.2884781
-5.433496	何許人
-3.979959	余	-0.401486
-3.914374	佛	-0.2654778
-5.433496	佛像
-5.433496	佛教
-5.433496	佛朗哥
-5.433496	佛法
-5.433496	佛門
-2.845353	作	-0.3671764
-5.433496	作主
-5.433496	作價
-3.683716	作品	-0.3963892
-5.433496	作嘔
-5.433496	作夢
-5.433496	作如是觀
-5.433496	作媒
-5.433496	作家
-5.433496	作弊
-5.433496	作怪
-5.433496	作息
-5.433496	作成
-5.433496	作戰
-5.433496	作文章
-5.433496	作曲
-5.433496	作東
-5.433496	作梗
-3.342294	作業	-0.5721455
-5.433496	作業系統
-3.979959	作法	-0.4544415
-3.741021	作為	-0.203541
-5.433496	作物
-5.433496	作用
-5.433496	作畫
-5.433496	作祟
-5.433496	作答
-5.433496	作罷
-4.271569	作者	-0.3470374
-5.433496	作證
-5.433496	作陪
-5.433496	作風
-3.180763	你	-0.3409008
-5.433496	你丟我撿
-4.347039	你們	-0.2031807
-4.347039	佩	-0.2791441
-5.433496	佩帶
-5.163539	佯	-0.2106806
-5.433496	佯裝
-5.275057	佰	-0.1992068
-3.649324	佳	-0.4893037
-5.433496	佳人
-5.433496	佳作
-5.433496	佳節
-5.433496	佳績
-5.433496	佳話
-5.433496	佳音
-4.016882	併	-0.2481391
-5.433496	併入
-5.433496	併吞
-5.433496	併案
-5.433496	併發
-5.433496	併發症
-5.433496	併購
-3.158843	使	-0.2238674
-5.433496	使命感
-5.433496	使喚
-4.101735	使得	-0.2215969
-5.433496	使性子
-5.433496	使然
-3.007056	使用	-0.6209989
-5.433496	使用權
-5.433496	使館
-5.433496	侃侃而談
-5.275057	侄	-0.1990658
-2.764991	來	-0.3279812
-4.965303	來不及	-0.2048234
-5.433496	來人
-5.433496	來使
-5.163539	來信	-0.1877556
-5.433496	來函
-5.433496	來勢
-5.433496	來勢洶洶
-5.433496	來回
-5.433496	來因
-5.433496	來年
-4.05724	來往	-0.3316845
-5.163539	來得	-0.2083914
-5.433496	來日
-5.433496	來歷不明
-3.914374	來源	-0.3041084
-5.433496	來的
-5.433496	來臨
-5.433496	來襲
-5.433496	來訪
-5.433496	來電
-3.70199	例	-0.5582967
-5.433496	例假日
-5.433496	例外
-5.275057	例如	-0.2019413
-4.347039	例子	-0.4408353
-5.433496	例行
-5.433496	例證
-5.433496	侍女
-3.209816	供	-0.4640894
-5.433496	供不應求
-5.433496	供佛
-5.433496	供品
-5.433496	供奉
-5.433496	供應
-5.433496	供應商
-5.433496	供桌
-5.433496	供水
-5.433496	供稱
-5.433496	供給
-5.433496	供詞
-5.433496	供述
-5.433496	供過於求
-5.433496	供銷
-5.433496	供電
-5.433496	供需
-5.433496	供需失衡
-3.089817	依	-0.4524687
-5.433496	依依不捨
-5.433496	依原
-5.433496	依序
-5.433496	依據
-5.433496	依法
-5.433496	依然
-5.433496	依然如故
-5.433496	依照
-5.433496	依約
-5.433496	依舊
-5.433496	依賴
-5.433496	依賴性
-5.433496	依附
-5.433496	依靠
-5.433496	侮辱
-5.163539	侯	-0.4164713
-3.617458	侵	-0.4767101
-5.433496	侵入
-5.433496	侵占
-5.433496	侵吞
-5.433496	侵害
-5.433496	侵犯
-5.433496	侵略
-5.433496	侵襲
-5.163539	侶	-0.1866059
-5.433496	侷限
-3.197961	便	-0.373725
-5.433496	便不
-5.433496	便利
-5.433496	便可
-5.433496	便宜
-5.433496	便宜貨
-5.433496	便應
-5.433496	便捷
-5.433496	便是
-5.433496	便會
-5.433496	便服
-5.433496	便民
-5.433496	便當
-5.433496	便衣
-3.432591	係	-0.2434542
-3.633099	促	-0.509726
-5.433496	促使
-5.433496	促成
-5.433496	促狹
-5.433496	促請
-5.433496	促進
-5.433496	促銷
-4.151315	俄	-0.3678047
-5.433496	俄國
-5.433496	俄羅斯
-4.151315	俊	-0.2798115
-5.433496	俊德
-5.433496	俊民
-3.914374	俗	-0.2147917
-5.433496	俗事
-5.433496	俗話
-2.992241	保	-0.4836061
-5.433496	保住
-5.433496	保健
-5.433496	保全
-5.433496	保全業
-5.433496	保加利亞
-5.433496	保固
-5.433496	保存
-5.433496	保守
-5.433496	保守派
-5.433496	保安
-5.433496	保安處分
-5.433496	保安警察
-5.433496	保密
-5.433496	保持
-5.433496	保有
-5.433496	保母
-5.433496	保溫
-3.884957	保留	-0.321688
-5.433496	保管
-5.433496	保羅
-5.433496	保育
-5.433496	保衛
-3.914374	保證	-0.297959
-5.433496	保證人
-5.433496	保證書
-5.433496	保證金
-5.433496	保警
-3.633099	保護	-0.2928346
-5.433496	保護人
-5.433496	保護區
-5.433496	保護管束
-5.433496	保費
-5.433496	保送
-5.433496	保鏢
-5.433496	保鑣
-5.433496	保障
-5.433496	保險
-5.433496	保險公司
-5.433496	保險櫃
-5.433496	保險經紀人
-5.433496	保險費
-5.433496	保險金
-5.433496	保養
-5.433496	保鮮
-5.433496	保齡球
-4.965303	俞	-0.2089323
-5.163539	俟	-0.2242358
-5.433496	俠
-3.247458	信	-0.4261789
-5.433496	信以為真
-4.438441	信仰	-0.2329554
-4.965303	信件	-0.7755736
-5.433496	信任
-5.433496	信奉
-5.433496	信封
-5.433496	信徒
-3.914374	信心	-0.320433
-5.433496	信心十足
-5.433496	信念
-5.433496	信手
-5.433496	信服
-5.433496	信用
-5.433496	信用交易
-5.433496	信用卡
-4.965303	信箱	-0.6664292
-5.433496	信義
-5.275057	信號	-0.1817821
-4.554352	信託	-0.2045437
-5.433496	信託資金
-5.433496	信誓旦旦
-5.433496	信譽
-3.274496	修	-0.440792
-5.433496	修史
-5.433496	修女
-5.433496	修建
-5.433496	修復
-3.94593	修憲	-0.2003337
-3.914374	修改	-0.2780582
-5.433496	修業
-5.433496	修正
-4.438441	修理	-0.1855373
-5.433496	修築
-5.433496	修繕
-5.433496	修補
-5.433496	修訂
-5.433496	修護
-5.433496	修長
-5.433496	修飾
-5.433496	俯拾皆是
-5.433496	俯首認罪
-5.433496	俱樂部
-5.275057	俾	-0.3090526
-4.271569	倆	-0.3462704
-5.433496	倉庫
-3.175178	個	-0.3609511
-5.275057	個中	-0.2105851
-5.433496	個事
-3.509233	個人	-0.2074653
-5.433496	個人資料
-5.275057	個人電腦	-0.1928519
-5.433496	個個
-5.433496	個別
-5.163539	個展	-0.1884253
-4.438441	個性	-0.2194501
-5.433496	個案
-5.433496	個頭
-5.433496	個體
-5.275057	倌	-0.1993662
-3.807053	倍	-0.6056411
-5.433496	倍增
-5.433496	倍感親切
-5.433496	倍數
-5.433496	倍覺
-5.275057	倏	-0.1992735
-3.463797	們	-0.3101266
-3.442746	倒	-0.3399654
-5.433496	倒下
-5.433496	倒不如
-5.433496	倒不是
-5.433496	倒地
-5.433496	倒坍
-5.433496	倒塌
-5.433496	倒影
-5.433496	倒打一耙
-5.163539	倒數	-0.3092232
-4.347039	倒是	-0.2383966
-5.433496	倒楣
-5.433496	倒臥
-5.433496	倒車
-5.433496	倒閉
-4.554352	倖	-0.2408603
-5.433496	倖免
-5.433496	倖存
-5.275057	倘	-0.4545182
-5.433496	倘若
-3.831501	候	-0.2585654
-5.433496	候審
-5.433496	候補
-5.433496	候診
-5.433496	候車
-5.433496	候選人
-5.433496	候鳥
-5.433496	倚重
-3.58777	借	-0.2706142
-5.433496	借提
-5.433496	借款
-5.433496	借用
-5.433496	借調
-5.433496	借貸
-5.433496	借貸無門
-5.433496	借酒澆愁
-5.433496	借重
-5.433496	借錢
-5.433496	借鏡
-5.433496	借鑑
-5.433496	倡導
-5.433496	倡議
-4.151315	倫	-0.3097912
-5.433496	倫敦
-5.433496	倫比
-5.433496	倫理
-5.275057	倬	-0.3085256
-3.573654	值	-0.340253
-5.433496	值勤
-5.433496	值回票價
-3.546728	值得	-0.2922721
-5.433496	值班
-5.433496	偃旗息鼓
-3.412967	假	-0.3680035
-5.433496	假使
-5.433496	假冒
-5.433496	假如
-5.433496	假性
-5.433496	假扣押
-5.433496	假日
-5.433496	假日花市
-5.433496	假期
-5.433496	假若
-5.433496	假裝
-5.163539	假設	-0.3081144
-5.433496	假象
-5.433496	假釋
-3.979959	偉	-0.3802368
-5.433496	偉大
-3.521375	偏	-0.3418312
-5.433496	偏低
-5.433496	偏偏
-5.433496	偏僻
-5.433496	偏向
-5.433496	偏好
-5.433496	偏差
-5.433496	偏廢
-5.433496	偏心
-5.433496	偏袒
-5.433496	偏要
-5.433496	偏遠
-5.433496	偏重
-5.163539	偏離	-0.2070594
-5.433496	偏高
-4.712932	偕	-0.1972289
-5.433496	偕同
-3.076352	做	-0.3091696
-5.163539	做下	-0.2782301
-5.433496	做主
-5.433496	做事
-5.433496	做人
-5.433496	做人情
-4.554352	做到	-0.3676895
-5.433496	做夢
-5.433496	做大
-5.433496	做得
-4.438441	做法	-0.2301329
-4.438441	做生意	-0.3423382
-5.433496	做頭
-3.222004	停	-0.4233048
-5.433496	停住
-5.433496	停工
-5.433496	停息
-5.433496	停擺
-5.433496	停放
-5.433496	停格
-5.433496	停業
-3.914374	停止	-0.2484467
-5.433496	停水
-5.433496	停泊
-5.433496	停火
-5.433496	停產
-4.151315	停留	-0.2895934
-5.433496	停罷
-5.433496	停職
-5.275057	停課	-0.1885137
-5.433496	停車
-5.433496	停車位
-5.433496	停車場
-5.433496	停車費
-5.433496	停辦
-5.433496	停電
-5.433496	停靠
-5.433496	停頓
-5.433496	停駛
-3.683716	健	-0.4170855
-5.433496	健全
-4.101735	健康	-0.3567251
-5.433496	健康保險
-5.433496	健康檢查
-5.433496	健忘症
-5.433496	健美
-5.433496	健行
-5.433496	健身
-4.101735	側	-0.3319201
-5.433496	側門
-5.275057	側面	-0.1993291
-3.376194	偵	-0.8860021
-5.433496	偵察機
-5.433496	偵查
-5.433496	偵查終結
-5.433496	偵測
-5.433496	偵破
-5.433496	偵訊
-5.433496	偵辦
-5.433496	偵錯
-5.433496	偵防
-4.05724	偶	-0.3371917
-5.433496	偶像
-5.163539	偶爾	-0.1971601
-5.433496	偶發
-5.433496	偶而
-3.807053	偷	-0.4979673
-4.965303	偷偷	-0.1989691
-5.433496	偷取
-5.433496	偷工減料
-5.433496	偷渡
-5.433496	偷渡客
-5.433496	偷竊
-5.433496	偷腥
-5.433496	偷襲
-4.05724	偽	-0.4894305
-5.433496	偽品
-5.433496	偽造
-5.433496	偽造文書
-5.433496	偽鈔
-5.433496	傀儡戲
-4.438441	傅	-0.2628756
-5.433496	傅抱石
-5.433496	傍晚
-3.979959	傑	-0.6767952
-5.433496	傑作
-5.433496	傑出
-4.965303	傘	-0.2542493
-3.422668	備	-0.3167879
-5.433496	備份
-5.433496	備受威脅
-5.433496	備受矚目
-5.433496	備受禮遇
-5.433496	備妥
-5.433496	備忘錄
-5.433496	備查
-5.433496	備註
-5.433496	傢俱
-4.438441	催	-0.1978534
-5.433496	催化劑
-5.433496	催討
-5.433496	催逼
-5.163539	傲	-0.1954961
-3.050613	傳	-0.5779684
-5.433496	傳喚
-5.433496	傳單
-5.433496	傳奇
-5.433496	傳媒
-5.433496	傳導
-5.433496	傳授
-5.433496	傳播
-5.433496	傳播媒體
-5.433496	傳染
-5.433496	傳染病
-5.433496	傳真
-5.433496	傳真機
-5.433496	傳神
-5.433496	傳票
-3.884957	傳統	-0.1954404
-5.433496	傳統文化
-5.433496	傳聞
-5.433496	傳言
-5.433496	傳訊
-5.433496	傳說
-4.347039	傳輸	-0.2499181
-4.712932	傳送	-0.1939361
-5.433496	傳達
-4.347039	傳遞	-0.4321705
-5.433496	傳閱
-5.433496	傳頌
-3.70199	債	-0.4614049
-5.433496	債券
-5.433496	債務
-5.433496	債權
-5.433496	債權人
-3.254061	傷	-0.4704694
-5.433496	傷亡
-5.433496	傷勢
-5.433496	傷天害理
-5.433496	傷害
-5.433496	傷害罪
-5.433496	傷心
-5.433496	傷患
-5.433496	傷感
-5.433496	傷殘
-5.433496	傷腦筋
-5.433496	傷風
-5.433496	傻勁
-5.433496	傻瓜
-5.433496	傻眼
-5.433496	傻笑
-3.831501	傾	-0.6131741
-5.433496	傾倒
-5.433496	傾向
-5.433496	傾訴
-5.433496	傾銷
-3.334216	僅	-0.3185702
-5.433496	僅僅
-5.433496	僅有
-3.66618	像	-0.2843297
-4.965303	像是	-0.300821
-5.433496	像樣
-3.914374	僑	-0.2418747
-5.433496	僑務
-5.433496	僑委會
-5.433496	僑民
-5.433496	僑生
-5.433496	僑社
-5.433496	僑選代表
-5.433496	僥倖
-4.554352	僧	-0.1841935
-5.433496	僧尼
-4.271569	僱	-0.2670239
-5.433496	僱用
-5.433496	僱請
-5.433496	僱車
-4.554352	僵	-0.2436393
-5.433496	僵局
-5.433496	僵持不下
-3.018508	價	-0.4350985
-5.433496	價位
-5.433496	價值
-5.433496	價值觀
-5.433496	價格
-5.433496	價碼
-5.433496	價錢
-5.433496	僻地
-5.433496	僻巷
-5.433496	僻處
-3.884957	儀	-0.4358347
-5.433496	儀器
-5.433496	儀容
-5.433496	儀式
-5.433496	儀表板
-5.433496	儀隊
-5.275057	儂	-0.1980183
-3.66618	億	-0.6221095
-5.433496	億萬
-4.965303	儒	-0.1921079
-3.884957	儘	-0.9550865
-5.433496	儘快
-5.433496	儘早
-5.433496	儘管
-4.151315	儘量	-0.1947617
-4.016882	償	-0.2979103
-5.433496	償債
-5.433496	償還
-3.394192	優	-0.60256
-3.979959	優先	-0.2389971
-5.433496	優先權
-5.433496	優劣
-5.433496	優勝
-5.433496	優勢
-5.433496	優厚
-5.433496	優待
-5.433496	優惠
-5.433496	優惠關稅
-5.433496	優渥
-5.433496	優異
-5.433496	優秀
-5.433496	優美
-5.433496	優良
-5.433496	優越感
-5.433496	優酪乳
-5.433496	優雅
-5.433496	優點
-3.857407	儲	-0.4099051
-5.433496	儲備
-5.433496	儲存
-5.433496	儲藏
-5.163539	儷	-0.1884861
-5.433496	儼然
-4.151315	允	-0.2374655
-5.433496	允准
-4.438441	允許	-0.4082361
-5.433496	允諾
-3.94593	元	-0.6571523
-5.433496	元日
-3.831501	兄	-0.5183089
-5.433496	兄嫂
-5.433496	兄弟
-5.433496	兄長
-3.683716	充	-0.4289052
-5.433496	充公
-5.433496	充其量
-4.151315	充分	-0.209784
-5.433496	充分就業
-5.433496	充塞
-5.433496	充實
-4.271569	充斥	-0.2830313
-5.433496	充沛
-4.347039	充滿	-0.2314054
-5.433496	充當
-5.433496	充裕
-5.433496	充足
-5.433496	充電
-4.347039	兆	-0.2838902
-3.914374	兇	-0.30867
-3.042361	先	-0.3857971
-5.433496	先例
-5.433496	先前
-5.433496	先天
-5.433496	先天不足
-5.433496	先天性
-5.433496	先導
-4.438441	先後	-0.1963075
-5.433496	先德
-5.433496	先斬後奏
-5.433496	先時
-5.433496	先期
-5.433496	先機
-5.433496	先民
-5.433496	先決條件
-5.433496	先生
-5.433496	先發
-5.433496	先知
-5.433496	先行
-5.433496	先進
-5.433496	先進國家
-5.433496	先鋒
-3.16422	光	-0.3339683
-5.433496	光圈
-5.433496	光國
-5.433496	光彩
-5.433496	光復
-5.433496	光復節
-5.433496	光明
-5.433496	光明正大
-5.433496	光景
-5.433496	光源
-5.433496	光澤
-5.433496	光照
-4.101735	光碟	-0.708515
-5.433496	光碟機
-5.433496	光線
-5.163539	光纖	-0.3648403
-5.433496	光纖電纜
-5.433496	光耀
-5.433496	光臨
-5.433496	光芒
-5.433496	光華
-5.433496	光譜
-5.433496	光采
-5.433496	光電
-5.433496	光頭
-5.433496	光顧
-3.617458	克	-0.2616369
-5.433496	克敵制勝
-4.151315	克服	-0.2092527
-5.433496	克里姆林宮
-4.05724	兌	-0.4094073
-5.433496	兌換
-5.433496	兌換券
-5.433496	兌現
-3.559983	免	-0.3989095
-4.965303	免不了	-0.1990861
-5.433496	免得
-5.433496	免疫力
-5.433496	免稅
-5.433496	免稅額
-5.433496	免談
-5.433496	免費
-5.433496	免除
-3.617458	兒	-0.3712752
-5.433496	兒女
-5.433496	兒媳
-5.433496	兒子
-5.433496	兒時
-3.914374	兒童	-0.1731918
-5.433496	兒童福利
-5.433496	兜售
-2.988615	入	-0.2590137
-5.433496	入伍
-5.433496	入侵
-5.433496	入圍
-5.433496	入場
-5.433496	入場券
-5.433496	入境
-5.433496	入夜
-5.433496	入學
-5.433496	入山
-5.433496	入山證
-5.433496	入己
-5.433496	入會
-5.433496	入流
-5.433496	入港
-5.433496	入獄
-5.433496	入睡
-5.433496	入網
-5.433496	入罪
-5.433496	入耳
-5.433496	入迷
-5.433496	入選
-5.433496	入門
-5.433496	入院
-2.820135	內	-0.3933658
-5.433496	內主
-5.433496	內亂
-5.433496	內亂罪
-5.433496	內人
-5.433496	內勤
-5.433496	內向
-5.433496	內含
-5.433496	內在
-5.433496	內外
-5.433496	內子
-3.683716	內容	-0.4516755
-5.433496	內幕
-5.433496	內心
-5.433496	內心深處
-5.433496	內急
-5.433496	內情
-5.433496	內憂外患
-5.433496	內政
-5.433496	內政部
-5.433496	內河
-5.163539	內涵	-0.1868866
-5.433496	內爭
-5.433496	內線交易
-5.433496	內臟
-5.433496	內衣
-5.433496	內訌
-5.433496	內部
-5.433496	內野
-5.433496	內銷
-5.433496	內閣
-5.433496	內陸
-2.891899	全	-0.4686997
-5.433496	全世界
-5.433496	全副
-5.433496	全力
-5.433496	全力以赴
-5.433496	全勤
-3.884957	全國	-0.200993
-5.433496	全國性
-5.433496	全壘打
-5.433496	全天候
-5.433496	全家
-5.433496	全年
-5.433496	全數
-5.275057	全新	-0.1928519
-5.433496	全權
-5.433496	全武行
-5.433496	全民
-5.433496	全民保險
-5.433496	全民健保
-5.433496	全民健康保險
-5.433496	全然
-4.101735	全球	-0.1980367
-5.433496	全盛
-5.433496	全盤
-5.433496	全神貫注
-5.433496	全程
-5.433496	全等
-5.433496	全能
-5.433496	全身
-5.433496	全速
-3.807053	全部	-0.1976266
-5.433496	全錄
-5.433496	全長
-3.831501	全面	-0.1991452
-5.433496	全額
-5.433496	全體
-2.805679	兩	-0.5169109
-5.433496	兩伊戰爭
-5.433496	兩回事
-5.433496	兩岸
-5.433496	兩性關係
-5.433496	兩情相悅
-5.433496	兩手
-5.433496	兩旁
-5.433496	兩棲
-5.433496	兩極化
-5.163539	兩樣	-0.6664292
-5.433496	兩用
-5.433496	兩端
-5.163539	兩邊	-0.2723847
-5.433496	兩面
-3.192152	八	-0.4362206
-5.163539	八九	-0.1986491
-5.433496	八元
-5.433496	八刀
-5.433496	八分
-5.433496	八卦山
-5.433496	八字
-5.433496	八年抗戰
-5.433496	八德
-5.275057	八成	-0.1993996
-5.433496	八斗子
-5.433496	八里
-5.433496	八面玲瓏
-5.433496	八音
-5.433496	八點檔
-2.686267	公	-0.7012941
-5.433496	公主
-5.433496	公事
-5.433496	公事公辦
-5.433496	公保
-5.433496	公信力
-5.433496	公假
-5.433496	公債
-5.433496	公克
-5.433496	公共
-5.433496	公共場所
-5.433496	公共安全
-5.433496	公共建設
-5.433496	公共汽車
-5.433496	公共給水
-5.433496	公共衛生
-5.433496	公共設施
-5.433496	公共設施用地
-5.433496	公共關係
-5.433496	公共電話
-4.554352	公分	-0.3186012
-5.433496	公務
-5.433496	公務人員
-5.433496	公務員
-3.026315	公司	-0.319546
-5.433496	公司債
-5.433496	公司行號
-3.884957	公告	-0.222763
-5.433496	公噸
-5.433496	公園
-5.433496	公地
-5.433496	公報
-5.433496	公墓
-5.433496	公婆
-5.433496	公子
-5.433496	公安
-5.433496	公室
-5.433496	公害
-5.433496	公家
-5.433496	公家機關
-5.433496	公寓
-5.433496	公尺
-5.433496	公布
-5.433496	公帑
-5.433496	公平
-5.433496	公平交易
-5.433496	公平交易法
-5.275057	公式	-0.1885137
-5.433496	公德心
-5.433496	公忠體國
-5.433496	公所
-5.433496	公教人員
-5.433496	公敵
-5.433496	公文
-5.433496	公斤
-5.433496	公斷
-5.433496	公會
-5.433496	公有
-5.433496	公權力
-5.433496	公款
-5.433496	公正
-5.433496	公民
-5.433496	公民投票
-5.433496	公決
-5.433496	公演
-5.433496	公然
-5.433496	公營
-5.433496	公營事業
-5.433496	公物
-5.433496	公產
-5.433496	公用
-5.433496	公用事業費率
-5.433496	公用程式
-5.433496	公益
-5.433496	公眾人物
-5.433496	公石
-5.433496	公私
-5.433496	公秉
-5.433496	公義
-5.433496	公職
-5.433496	公職人員
-5.433496	公聽會
-5.163539	公視	-0.2067776
-5.433496	公評
-5.433496	公論
-5.433496	公諸於世
-5.433496	公證
-5.433496	公費
-5.433496	公賣局
-3.831501	公路	-0.3268685
-5.433496	公路局
-3.649324	公車	-0.3070301
-5.433496	公車專用道
-5.433496	公車票
-5.433496	公車處
-5.433496	公道
-5.433496	公里
-5.433496	公門
-5.433496	公開
-5.433496	公開場合
-5.433496	公開市場操作
-5.433496	公開賽
-5.433496	公關
-5.433496	公頃
-2.964046	六	-0.5594777
-5.433496	六位
-5.433496	六合彩
-5.433496	六四天安門事件
-5.433496	六家
-5.433496	六月
-5.433496	六甲
-5.433496	六輕
-5.433496	六龜
-3.132913	共	-0.354592
-5.433496	共乘
-5.433496	共事
-5.433496	共享
-5.433496	共分
-3.60236	共同	-0.222124
-5.433496	共同努力
-5.433496	共同管道
-5.433496	共同運銷
-5.433496	共同體
-5.433496	共同點
-5.433496	共和
-5.433496	共和國
-5.433496	共存
-5.433496	共度
-4.151315	共有	-0.2017475
-5.433496	共犯
-5.433496	共產主義
-5.433496	共產集團
-5.433496	共產黨
-5.163539	共用	-0.206759
-5.433496	共相
-5.433496	共總
-5.433496	共舞
-5.433496	共處
-5.433496	共計
-5.433496	共識
-5.433496	共通
-5.433496	共體時艱
-3.442746	兵	-0.2580418
-5.433496	兵力
-5.433496	兵器
-5.433496	兵團
-5.433496	兵家
-5.433496	兵工廠
-5.433496	兵役
-5.433496	兵役課
-5.433496	兵戎
-5.433496	兵法家
-5.433496	兵變
-2.815263	其	-0.2291619
-3.761936	其中	-0.3207313
-3.326287	其他	-0.2250018
-5.433496	其內
-4.151315	其實	-0.2599517
-5.433496	其後
-5.275057	其次	-0.6758073
-5.433496	其間
-5.433496	其餘
-3.432591	具	-0.2404086
-4.271569	具備	-0.2218203
-5.433496	具名
-3.70199	具有	-0.2178553
-5.433496	具狀
-5.433496	具結
-5.433496	具象
-3.94593	具體	-0.2558969
-3.884957	典	-0.413182
-5.433496	典型
-5.433496	典獄長
-5.433496	典當
-5.433496	典禮
-5.433496	典範
-5.163539	典藏	-0.2984523
-3.807053	兼	-0.582113
-5.433496	兼之
-5.433496	兼任
-5.433496	兼具
-5.433496	兼容並蓄
-5.433496	兼差
-5.433496	兼營
-4.438441	兼顧	-0.1930629
-4.101735	冊	-0.3867801
-2.903616	再	-0.287719
-5.433496	再三
-5.433496	再不
-5.433496	再世
-4.712932	再來	-0.2679531
-5.433496	再娶
-3.546728	再度	-0.2224894
-5.433496	再接再厲
-5.433496	再犯
-5.433496	再犯率
-5.433496	再現
-5.433496	再生
-4.554352	再說	-0.3644261
-5.433496	再議
-5.433496	再起
-3.831501	冒	-0.3244564
-5.433496	冒充
-5.433496	冒領
-5.433496	冗繁
-5.433496	冗長
-3.649324	冠	-0.4427168
-5.433496	冠蓋雲集
-5.433496	冠軍
-5.433496	冤仇
-5.433496	冤大頭
-5.433496	冤屈
-5.433496	冤枉
-5.433496	冤魂
-5.433496	冥紙
-3.979959	冬	-0.3935111
-5.433496	冬天
-5.433496	冬季
-5.433496	冬暖夏涼
-5.433496	冬眠
-4.207293	冰	-0.2017619
-5.433496	冰上曲棍球
-5.433496	冰凍三尺非一日之寒
-5.433496	冰品
-5.433496	冰天雪地
-5.433496	冰山
-5.433496	冰箱
-5.433496	冰雪
-5.433496	冰雹
-5.433496	冶蕩
-3.683716	冷	-0.2188416
-5.433496	冷凍
-5.433496	冷卻
-5.433496	冷感症
-5.433496	冷戰
-5.433496	冷汗
-5.433496	冷泉
-5.433496	冷淡
-5.433496	冷清
-5.433496	冷眼
-5.433496	冷硬
-5.433496	冷落
-5.433496	冷酷
-5.433496	冷靜
-5.433496	冷風
-5.275057	冽	-0.1928519
-4.05724	准	-0.247805
-5.433496	准予
-5.433496	准許
-5.275057	凋	-0.1994033
-3.807053	凌	-0.86998
-5.433496	凌亂
-5.433496	凌厲
-5.433496	凌晨
-5.433496	凌辱
-5.433496	凌雲
-5.433496	凌駕
-5.433496	凍結
-5.433496	凝重
-4.554352	凡	-0.2394211
-4.965303	凡事	-0.1983583
-5.163539	凡是	-0.197783
-4.438441	凱	-0.1803451
-4.554352	凶	-0.3145113
-5.433496	凶多吉少
-5.433496	凶嫌
-5.433496	凶案
-5.433496	凸顯
-5.433496	凹凸有致
-2.534401	出	-0.3468456
-5.433496	出世
-5.433496	出事
-5.433496	出事情
-5.433496	出人
-5.433496	出人意料
-5.433496	出人頭地
-5.433496	出任
-5.433496	出使
-3.633099	出來	-0.7287433
-5.433496	出借
-5.433496	出價
-5.433496	出入
-5.433496	出兵
-5.433496	出其不意
-5.433496	出列
-5.433496	出動
-5.433496	出勤
-4.554352	出去	-0.3111188
-5.433496	出口
-5.433496	出口貿易
-5.433496	出售
-5.433496	出問題
-3.914374	出國	-0.2434658
-5.433496	出土
-5.433496	出場
-5.433496	出境
-5.433496	出外
-5.275057	出奇	-0.3027906
-5.433496	出局
-5.433496	出巡
-5.433496	出差
-5.433496	出差費
-5.433496	出席
-5.433496	出店
-5.433496	出庭
-5.433496	出廠
-5.433496	出戰
-5.433496	出手
-5.433496	出招
-5.433496	出擊
-5.433496	出書
-5.433496	出此下策
-5.433496	出殯
-5.433496	出氣
-5.433496	出沒
-5.433496	出海
-5.433496	出清
-5.433496	出港
-5.433496	出爐
-5.433496	出爾反爾
-5.433496	出版
-5.433496	出版品
-5.433496	出版法
-5.433496	出狀況
-5.433496	出獄
-3.240953	出現	-0.41637
-5.433496	出生
-5.433496	出產
-4.016882	出發	-0.4137125
-5.433496	出發點
-5.433496	出的
-5.433496	出監
-5.433496	出眾
-5.433496	出示
-5.433496	出神入化
-5.433496	出租
-5.433496	出租汽車
-5.433496	出籠
-5.433496	出納
-5.433496	出納員
-5.433496	出缺
-5.433496	出脫
-5.433496	出色
-5.433496	出血
-5.433496	出言
-5.433496	出貨
-5.433496	出資
-5.433496	出賣
-5.433496	出賽
-5.433496	出走
-5.433496	出路
-5.433496	出身
-5.433496	出車
-5.433496	出軌
-5.433496	出道
-5.433496	出金
-5.433496	出錢
-5.433496	出錯
-4.712932	出門	-0.2069869
-5.433496	出面
-5.275057	出頭	-0.1928519
-5.433496	出馬
-3.741021	函	-0.2833326
-5.433496	函件
-5.433496	函請
-3.649324	刀	-0.3180812
-5.433496	刀傷
-5.433496	刀削麵
-5.433496	刀械
-5.433496	刁民
-5.433496	刁鑽
-5.433496	刁難
-5.163539	刃	-0.2783142
-2.909595	分	-0.5139676
-5.433496	分享
-4.554352	分公司	-0.1870742
-3.914374	分別	-0.214302
-5.433496	分割
-5.433496	分力
-5.433496	分區
-5.433496	分合
-4.554352	分子	-0.3287642
-5.433496	分家
-5.433496	分局
-5.433496	分崩離析
-5.433496	分工
-5.433496	分店
-5.275057	分得	-0.1977133
-5.433496	分批
-5.433496	分擔
-5.433496	分攤
-5.433496	分支
-4.101735	分散	-0.2033055
-5.433496	分散式網路
-4.554352	分數	-0.2657226
-4.965303	分明	-0.1951327
-5.433496	分時
-5.433496	分曉
-3.633099	分析	-0.4592772
-5.433496	分校
-5.433496	分機
-5.433496	分歧
-5.275057	分段	-0.199229
-5.433496	分界
-5.433496	分發
-5.433496	分組
-5.163539	分行	-0.2984523
-5.433496	分裂
-5.433496	分贓
-5.433496	分身乏術
-5.163539	分辨	-0.1961718
-5.433496	分道揚鑣
-3.721067	分配	-0.2604378
-5.433496	分銷
-5.433496	分錢
-4.016882	分鐘	-0.5724381
-4.712932	分開	-0.3584292
-5.433496	分隊
-5.433496	分際
-5.433496	分離
-5.433496	分頭
-4.438441	分類	-0.5435217
-5.433496	分駐所
-3.60236	切	-0.3311689
-5.433496	切入
-5.275057	切割	-0.197877
-5.433496	切勿
-5.433496	切實
-5.433496	切忌
-5.433496	切換
-5.433496	切斷
-5.433496	切片檢查
-5.433496	切磋
-5.433496	切莫
-5.433496	切除
-3.94593	刊	-0.2547049
-5.433496	刊出
-5.433496	刊物
-5.433496	刊登
-3.412967	刑	-0.5152777
-5.433496	刑事
-5.433496	刑事局
-5.433496	刑事訴訟
-5.433496	刑事警察局
-5.433496	刑期
-5.433496	刑案
-5.433496	刑求
-5.433496	刑法
-5.433496	刑罰
-5.433496	刑警
-5.433496	刑警隊
-5.433496	刑責
-4.712932	划	-0.2790577
-5.433496	划算
-3.192152	列	-0.5512659
-5.433496	列入
-5.433496	列冊
-5.433496	列印
-5.433496	列席
-5.433496	列強
-5.433496	列管
-5.433496	列舉
-5.433496	列車
-5.433496	列隊
-3.633099	初	-0.2448888
-5.433496	初一十五
-5.433496	初始
-5.433496	初學
-5.433496	初審
-5.433496	初度
-4.347039	初期	-0.2556366
-5.433496	初次
-3.94593	初步	-0.2708262
-5.433496	初犯
-5.433496	初稿
-5.433496	初級
-5.433496	初階
-3.546728	判	-0.3581517
-5.433496	判事
-5.433496	判例
-5.433496	判刑
-5.433496	判定
-4.271569	判斷	-0.3150719
-5.433496	判斷力
-5.433496	判明
-5.433496	判決
-5.433496	判決書
-5.433496	判若兩人
-5.433496	判處
-3.649324	別	-0.2892429
-3.831501	別人	-0.395109
-5.433496	別來
-5.433496	別傳
-5.433496	別具一格
-5.433496	別名
-5.433496	別墅
-5.433496	別室
-5.433496	別將
-5.433496	別提
-5.433496	別緻
-5.433496	別致
-5.433496	別說
-5.433496	別開生面
-5.275057	刨	-0.1988617
-3.034264	利	-0.4351235
-5.433496	利器
-5.433496	利多
-5.433496	利多於弊
-5.433496	利害得失
-5.433496	利巴
-5.433496	利市
-5.433496	利弊
-5.433496	利息
-5.433496	利息收入
-5.433496	利慾薰心
-5.433496	利潤
-5.433496	利率
-3.521375	利用	-0.2859101
-5.433496	利益
-5.433496	利益團體
-5.433496	利益輸送
-5.433496	利空
-5.433496	利空出盡
-5.433496	利誘
-5.433496	利雅德
-3.857407	刪	-0.9232478
-5.433496	刪減
-5.433496	刪除
-3.979959	刮	-0.2594815
-5.433496	刮刮
-5.433496	刮刮樂
-5.433496	刮目相看
-5.433496	刮鬍子
-2.716067	到	-0.2088742
-5.433496	到任
-5.433496	到場
-5.433496	到家
-5.433496	到差
-3.979959	到底	-0.2900685
-5.433496	到手
-5.433496	到時
-5.433496	到期
-5.433496	到案
-5.433496	到眼
-5.433496	到職
-4.05724	到處	-0.2015289
-5.433496	到達
-5.433496	到頭
-3.203848	制	-0.395692
-5.433496	制定
-5.433496	制度
-5.433496	制度化
-5.433496	制式
-5.433496	制憲
-5.433496	制服
-5.433496	制止
-5.433496	制海
-5.433496	制衡
-5.433496	制裁
-5.433496	制訂
-4.554352	刷	-0.1900964
-5.433496	刷洗
-3.70199	券	-0.3684345
-5.433496	券商
-3.761936	刺	-0.5867493
-5.433496	刺刀
-5.433496	刺殺
-5.433496	刺激
-5.433496	刺骨
-3.617458	刻	-0.4080601
-5.433496	刻不容緩
-5.433496	刻意
-5.433496	刻板
-5.433496	刻苦
-5.433496	刻薄
-5.433496	剃刀
-2.817692	則	-0.3084377
-5.433496	則不
-5.433496	則是
-5.433496	則甚
-5.433496	削減
-5.433496	削髮
-2.665186	前	-0.4961217
-5.433496	前任
-5.433496	前來
-5.433496	前例
-5.433496	前前後後
-5.433496	前功盡棄
-5.433496	前卻
-5.433496	前去
-5.433496	前和
-5.433496	前因
-5.433496	前夕
-5.433496	前夜
-5.433496	前天
-5.433496	前夫
-5.433496	前妻
-5.433496	前導
-5.433496	前年
-5.433496	前往
-4.347039	前後	-0.1854598
-5.433496	前所未有
-5.433496	前提
-5.433496	前方
-5.433496	前日
-5.433496	前晚
-5.433496	前景
-5.433496	前月
-5.433496	前期
-5.433496	前此
-5.433496	前瞻性
-4.712932	前科	-0.364943
-5.433496	前程
-4.965303	前端	-0.1983638
-5.433496	前線
-5.433496	前者
-5.433496	前行
-5.433496	前身
-5.433496	前述
-5.433496	前途
-5.433496	前進
-5.433496	前鋒
-4.712932	前面	-0.1996481
-5.433496	前項
-5.433496	前頭
-5.433496	剎車
-5.433496	剎那
-4.712932	剖	-0.203481
-5.433496	剖析
-5.433496	剖腹
-3.831501	剛	-0.2154614
-4.712932	剛剛	-0.1975204
-4.438441	剛好	-0.2302734
-5.163539	剛才	-0.1989693
-5.433496	剛烈
-4.438441	剝	-0.1986714
-5.433496	剝削
-4.151315	剩	-0.3265282
-4.438441	剩下	-0.2048595
-5.433496	剩餘
-4.016882	剪	-0.2036159
-5.433496	剪刀
-5.433496	剪紙
-5.433496	剪綵
-5.433496	剪裁
-5.433496	剪輯
-3.633099	副	-0.4168231
-5.433496	副作用
-5.433496	副教授
-5.433496	副理
-4.965303	副總統	-0.1870191
-5.433496	副總裁
-5.433496	副署
-5.433496	副議長
-4.05724	割	-0.1908288
-5.433496	割傷
-5.433496	割捨
-3.367468	創	-0.5241543
-5.433496	創下
-5.433496	創作
-5.433496	創傷
-5.433496	創口
-5.433496	創始
-5.433496	創意
-5.433496	創新
-5.433496	創校
-5.433496	創業
-5.433496	創業維艱
-5.433496	創痕
-5.433496	創立
-5.433496	創紀錄
-5.433496	創見
-5.433496	創設
-5.433496	創辦人
-4.712932	創造	-0.3394535
-5.433496	創造力
-5.163539	剷	-0.2107001
-5.433496	剽悍
-3.807053	劃	-0.4225474
-4.554352	劃分	-0.190354
-5.433496	劃定
-5.433496	劃歸
-5.433496	劃清
-5.433496	劃清界線
-3.546728	劇	-0.2915863
-5.433496	劇作家
-5.433496	劇團
-5.433496	劇場
-5.433496	劇情
-5.433496	劇本
-5.433496	劇校
-5.433496	劇烈
-5.433496	劇院
-4.965303	劈	-0.1960744
-5.433496	劈開
-3.533867	劉	-0.3390333
-5.433496	劉邦
-5.433496	劉銘傳
-4.347039	劍	-0.5216164
-5.433496	劍及履及
-5.433496	劍拔弩張
-5.433496	劍潭
-4.151315	劑	-0.1995524
-5.433496	劑量
-2.94731	力	-0.3757516
-5.433496	力作
-5.433496	力克
-5.433496	力勸
-5.433496	力圖
-5.433496	力平衡
-5.433496	力挽狂瀾
-5.433496	力有未逮
-5.433496	力氣
-5.433496	力求
-5.433496	力爭
-5.433496	力道
-5.433496	力邀
-5.433496	力量
-3.546728	功	-0.3905182
-5.433496	功不可沒
-5.433496	功利
-5.433496	功力
-5.433496	功名
-5.163539	功夫	-0.1961528
-4.438441	功效	-1.05178
-5.433496	功業彪炳
-5.433496	功用
-3.367468	功能	-0.7916933
-5.433496	功課
-5.433496	功過
-2.912616	加	-0.5696084
-5.433496	加一
-3.559983	加以	-0.2011731
-5.433496	加倍
-5.433496	加值網路
-5.433496	加價
-5.433496	加入
-5.433496	加劇
-5.433496	加害
-5.433496	加封
-4.965303	加州	-0.1974758
-5.433496	加工
-5.433496	加工區
-5.433496	加工業
-5.433496	加強
-5.275057	加快	-0.1885137
-4.712932	加成	-0.4338355
-5.433496	加拿大
-5.433496	加權指數
-5.433496	加油
-5.433496	加油站
-5.433496	加派
-5.433496	加深
-5.433496	加班
-5.433496	加盟
-5.433496	加盟店
-5.433496	加碼
-5.433496	加緊
-5.433496	加裝
-5.433496	加速
-5.433496	加速度
-5.433496	加重
-4.207293	劣	-0.2687211
-5.433496	劣勢
-5.433496	劣貨
-5.433496	劣質
-3.533867	助	-0.339315
-5.433496	助人
-5.433496	助手
-5.433496	助攻
-5.433496	助燃
-5.433496	助理
-5.433496	助益
-5.433496	助興
-5.433496	助選
-5.433496	助長
-5.433496	助陣
-5.163539	努	-0.1969803
-3.783909	努力	-0.4653439
-4.271569	劫	-0.3211097
-5.433496	劫囚
-4.101735	勁	-0.3865204
-5.433496	勁旅
-4.554352	勃	-0.2685165
-5.433496	勃然大怒
-3.94593	勇	-0.3836647
-5.433496	勇冠三軍
-5.433496	勇敢
-5.433496	勇氣
-4.05724	勉	-0.3248366
-5.433496	勉力
-5.433496	勉勵
-5.433496	勉強
-5.433496	勉為其難
-4.101735	勒	-0.317814
-5.433496	勒令
-5.433496	勒戒
-5.433496	勒斃
-4.05724	勒索	-0.1863245
-5.433496	勒贖
-2.934371	動	-0.4336503
-5.163539	動不動	-0.210355
-5.433496	動亂
-5.433496	動人
-3.66618	動作	-0.4880372
-5.433496	動力
-5.433496	動向
-5.433496	動員
-5.433496	動員令
-5.433496	動員戡亂
-5.433496	動員戡亂時期
-5.433496	動土
-5.433496	動工
-5.433496	動彈
-5.433496	動彈不得
-5.433496	動怒
-5.433496	動感
-5.433496	動態
-5.433496	動手
-5.433496	動搖
-5.433496	動植物
-5.433496	動機
-5.433496	動武
-5.433496	動物
-5.433496	動物園
-5.433496	動用
-5.433496	動畫
-5.433496	動盪
-5.433496	動盪不安
-5.433496	動聽
-5.433496	動能
-5.433496	動腦
-5.433496	動腦筋
-5.433496	動詞
-5.433496	動議
-5.433496	動輒
-5.433496	動靜
-4.05724	勘	-0.4212441
-5.433496	勘察
-5.433496	勘查
-5.433496	勘測
-5.433496	勘驗
-3.358913	務	-0.4227924
-5.433496	務實
-5.433496	務必
-5.433496	務期
-5.433496	務農
-5.163539	勛	-0.1984076
-3.422668	勝	-0.3014641
-5.433496	勝之不武
-5.433496	勝任
-5.433496	勝利
-5.433496	勝地
-5.433496	勝景
-5.433496	勝算
-5.433496	勝負
-3.422668	勞	-0.4907564
-5.433496	勞作
-5.433496	勞保局
-5.433496	勞力
-5.433496	勞動
-5.433496	勞基法
-5.433496	勞委會
-5.433496	勞工
-5.433496	勞工問題
-5.433496	勞工政策
-5.433496	勞工教育
-5.433496	勞役
-5.433496	勞改
-5.433496	勞斯萊斯
-5.433496	勞方
-5.433496	勞民傷財
-5.433496	勞累
-5.433496	勞苦
-5.433496	勞資爭議
-5.433496	勞資關係
-5.433496	勞逸不均
-5.433496	勞頓
-5.433496	勞駕
-3.94593	募	-0.3537045
-5.433496	募捐
-5.433496	募款
-5.433496	募集
-3.254061	勢	-0.4781982
-5.433496	勢利眼
-5.433496	勢力
-5.433496	勢單力薄
-5.433496	勢在必行
-5.433496	勢均力敵
-5.433496	勢必
-5.433496	勢能
-5.433496	勢要
-3.533867	勤	-0.317813
-5.433496	勤務
-5.433496	勤勞
-5.433496	勤奮
-5.433496	勤快
-5.433496	勤政愛民
-5.163539	勳	-0.1982245
-4.438441	勵	-0.2860445
-3.66618	勸	-0.2701026
-5.433496	勸募
-5.433496	勸告
-5.433496	勸導
-5.433496	勸架
-5.433496	勸止
-5.433496	勸解
-5.433496	勸誘
-5.433496	勸阻
-4.101735	勾	-0.3773456
-5.433496	勾串
-5.433496	勾引
-5.433496	勾結
-4.347039	勿	-0.1955827
-3.394192	包	-0.4654599
-4.347039	包含	-0.5026565
-5.433496	包商
-4.712932	包圍	-0.1874841
-5.433496	包子
-5.433496	包容
-5.433496	包庇
-3.649324	包括	-0.1769969
-5.433496	包月
-5.433496	包羅
-5.433496	包羅萬象
-5.433496	包袱
-5.433496	包裝
-5.433496	包裹
-5.433496	包車
-5.433496	包辦
-5.433496	包銷
-5.433496	匆促
-5.433496	匆匆
-5.163539	匈	-0.1992725
-5.433496	匈牙利
-3.071954	化	-0.423689
-5.433496	化去
-5.433496	化名
-5.433496	化妝
-5.433496	化妝品
-5.433496	化學
-5.433496	化學武器
-5.433496	化工
-5.433496	化干戈為玉帛
-5.433496	化武
-5.433496	化民
-5.433496	化緣
-5.433496	化解
-5.433496	化身
-5.433496	化驗
-3.260767	北	-0.4915165
-5.433496	北上
-5.275057	北二高	-0.1991474
-5.433496	北京
-5.433496	北人
-5.433496	北區
-5.433496	北大
-5.433496	北宜公路
-5.433496	北投
-5.433496	北方
-5.433496	北歐
-5.433496	北港鎮
-5.433496	北管
-5.433496	北管戲
-5.433496	北辰
-4.438441	北部	-0.180834
-5.433496	北門
-5.433496	北韓
-5.433496	北風
-4.965303	匣	-0.3021988
-4.712932	匪	-0.2001208
-5.433496	匪夷所思
-5.275057	匭	-0.19914
-3.94593	匯	-0.2593922
-5.433496	匯兌
-5.433496	匯市
-5.433496	匯款
-5.433496	匯率
-5.433496	匯聚
-5.433496	匯集
-5.433496	匱乏
-5.163539	匹	-0.206759
-5.275057	匾	-0.2107484
-3.034264	區	-0.3740827
-5.433496	區公所
-5.433496	區分
-5.163539	區別	-0.2001629
-5.433496	區劃
-3.741021	區域	-0.3250987
-5.433496	區域網路
-5.433496	區域計畫
-5.433496	區段
-5.433496	區段徵收
-5.433496	區運
-5.433496	區運會
-5.433496	區間
-5.275057	區隔	-0.1987355
-3.118068	十	-0.6343146
-5.275057	十一號	-0.1885137
-5.433496	十三點
-5.433496	十之八九
-5.433496	十二指腸潰瘍
-5.433496	十二支
-5.433496	十二時
-5.433496	十二次
-3.509233	十分	-0.2191367
-5.433496	十字
-5.433496	十字架
-5.433496	十字路口
-5.433496	十家
-5.433496	十成
-5.433496	十萬八千里
-5.433496	十足
-3.807053	千	-0.423033
-5.433496	千仞
-5.433496	千億
-5.433496	千古
-5.433496	千島群島
-5.433496	千年
-5.433496	千戶
-5.433496	千斤
-5.433496	千瘡百孔
-5.433496	千秋萬世
-3.94593	千萬	-0.4069861
-5.433496	千言萬語
-5.433496	千載難逢
-5.433496	千里
-5.433496	千面人
-3.412967	升	-0.4613774
-5.433496	升值
-5.433496	升學
-5.433496	升格
-5.433496	升級
-5.433496	升遷
-5.433496	升降機
-4.438441	升高	-0.3942017
-4.151315	午	-0.3959929
-5.433496	午前
-5.433496	午夜
-5.433496	午夜牛郎
-5.433496	午宴
-5.433496	午餐
-3.303331	半	-0.4313014
-5.433496	半信半疑
-5.433496	半個
-5.433496	半個人
-5.433496	半價
-5.433496	半夜
-5.433496	半夜三更
-5.433496	半大不小
-5.433496	半天
-5.433496	半導體
-5.275057	半徑	-0.1988172
-5.433496	半成品
-5.433496	半截
-5.433496	半數
-5.433496	半月
-5.433496	半死
-5.433496	半球
-5.433496	半票
-5.433496	半空中
-5.433496	半點
-4.712932	卑	-0.1982891
-5.433496	卑南鄉
-4.965303	卒	-0.5203011
-4.965303	卓	-0.1985515
-5.433496	卓別林
-5.433496	卓立
-3.030271	協	-0.9059487
-5.433496	協助
-5.433496	協同
-5.433496	協商
-5.433496	協定
-5.433496	協會
-5.433496	協調
-5.433496	協議
-5.433496	協議書
-5.433496	協辦
-3.222004	南	-0.3543709
-5.433496	南下
-5.433496	南亞
-5.433496	南京
-5.433496	南來北往
-5.433496	南北
-5.433496	南國
-5.433496	南宮
-5.433496	南投縣
-5.433496	南斯拉夫
-5.433496	南方
-5.433496	南榮
-5.433496	南橫
-5.433496	南端
-5.433496	南管
-5.433496	南美
-5.433496	南美洲
-5.433496	南轅北轍
-5.433496	南迴
-5.433496	南部
-5.433496	南部地方
-5.433496	南門
-5.433496	南非
-5.433496	南韓
-4.207293	博	-0.3443104
-5.433496	博取
-4.271569	博士	-0.2319843
-5.433496	博士學位
-5.433496	博得
-5.433496	博愛
-5.163539	博物館	-0.2001629
-4.554352	卜	-0.2307196
-5.433496	卜卦
-4.271569	占	-0.2098804
-5.433496	占卜
-5.433496	占地
-5.433496	占據
-5.433496	占星術
-5.433496	占有
-3.442746	卡	-0.435473
-5.433496	卡司
-5.433496	卡片
-5.433496	卡紙
-5.433496	卡車
-5.275057	卡達	-0.1984384
-5.163539	卦	-0.2984523
-4.712932	卯	-0.3463462
-5.433496	卯勁
-5.433496	卯足全力
-3.334216	印	-0.5829629
-5.433496	印刷機
-5.433496	印尼
-5.433496	印度
-5.433496	印泥
-5.433496	印章
-5.433496	印花稅
-5.433496	印表機
-5.433496	印製
-5.433496	印記
-5.433496	印證
-5.433496	印象
-3.559983	危	-0.7411937
-5.433496	危及
-5.433496	危害
-5.433496	危急
-5.433496	危機
-5.433496	危言聳聽
-3.807053	危險	-0.4479918
-5.433496	危險性
-5.433496	危險物
-5.433496	危難
-3.01084	即	-0.3248437
-4.207293	即使	-0.2282317
-5.433496	即便
-5.433496	即刻
-5.433496	即可
-5.433496	即將
-5.433496	即日
-5.433496	即是
-5.163539	即時	-0.206566
-5.433496	即興
-4.207293	卷	-0.187896
-5.433496	卷子
-5.433496	卷宗
-5.433496	卷曲
-4.016882	卸	-0.3084082
-5.433496	卸下
-5.433496	卸任
-5.433496	卸貨
-2.903616	卻	-0.3485633
-5.433496	卻不
-5.433496	卻又
-5.433496	卻少
-5.433496	卻是
-5.433496	卻步
-5.433496	卻說
-4.965303	卿	-0.1980201
-5.275057	厘	-0.1885137
-3.783909	厚	-0.3613142
-5.433496	厚利
-5.433496	厚實
-5.433496	厚度
-5.433496	厚待
-5.433496	厚望
-5.433496	厚道
-5.433496	厚重
-5.433496	厚顏
-4.554352	厝	-0.2017214
-3.180763	原	-0.3223874
-5.433496	原主
-4.554352	原住民	-0.1776012
-5.433496	原作
-4.554352	原來	-0.3195002
-5.433496	原價
-4.438441	原先	-0.2565646
-3.857407	原則	-0.6646348
-5.433496	原名
-3.761936	原因	-0.5399012
-5.433496	原地踏步
-4.554352	原始	-0.2030285
-5.433496	原始林
-5.433496	原始社會
-5.433496	原委
-5.433496	原子彈
-5.433496	原定
-5.433496	原審
-5.433496	原意
-5.433496	原擬
-5.433496	原故
-5.433496	原文書
-5.433496	原料
-5.433496	原是
-5.433496	原有
-5.433496	原木
-3.979959	原本	-0.2176558
-5.433496	原油
-5.433496	原狀
-4.965303	原理	-0.1944996
-5.433496	原由
-5.433496	原稿
-5.433496	原罪
-5.433496	原處
-5.433496	原諒
-5.433496	原貌
-5.275057	原點	-0.1885137
-5.163539	厥	-0.1967361
-5.275057	厭	-0.1987503
-4.712932	厲害	-0.2984523
-5.433496	厲行
-2.988615	去	-0.300319
-5.433496	去世
-5.433496	去住
-5.433496	去函
-5.163539	去向	-0.1868866
-3.649324	去年	-0.2310784
-5.433496	去後
-5.433496	去處
-5.433496	去路
-5.163539	去除	-0.1992735
-3.254061	參	-0.7712121
-3.334216	參加	-0.3823265
-5.433496	參展
-5.433496	參差
-5.433496	參差不齊
-5.433496	參戰
-5.433496	參拜
-5.433496	參政
-5.433496	參數
-5.433496	參照
-3.761936	參考	-0.3871948
-5.433496	參與
-4.05724	參觀	-0.2899118
-5.433496	參謀
-5.433496	參賽
-5.433496	參選
-5.433496	參閱
-2.850577	又	-0.2924839
-4.438441	又是	-0.1952338
-5.433496	又要
-5.163539	叉	-0.2064955
-2.49327	及	-0.1256819
-5.433496	及今
-5.433496	及早
-5.433496	及時
-4.712932	及格	-0.2073143
-3.559983	友	-0.3682842
-5.433496	友人
-5.433496	友善
-5.433496	友好
-5.433496	友誼
-5.433496	友軍
-3.042361	反	-0.5109581
-5.433496	反光
-5.433496	反共
-5.433496	反其道而行
-5.433496	反制
-5.433496	反動
-5.433496	反向
-5.433496	反咬
-5.433496	反問
-5.433496	反壓
-4.554352	反射	-0.3406077
-5.433496	反將
-3.463797	反對	-0.3349848
-5.433496	反對黨
-5.433496	反常
-5.433496	反彈
-5.433496	反感
-3.783909	反應	-0.4277491
-5.433496	反戰
-5.433496	反手
-5.433496	反托拉斯
-5.433496	反抗
-5.433496	反撲
-5.433496	反擊
-5.433496	反攻
-5.433496	反效果
-3.649324	反映	-0.3457986
-5.433496	反核
-5.275057	反正	-0.196472
-5.433496	反毒
-5.433496	反白
-3.914374	反而	-0.2004984
-5.433496	反芻
-4.712932	反覆	-0.2041104
-5.433496	反覆無常
-5.433496	反觀
-5.433496	反轉
-5.433496	反鎖
-5.433496	反面
-5.433496	反駁
-3.085282	取	-0.3595225
-4.347039	取代	-0.2195075
-5.433496	取勝
-5.433496	取名
-5.433496	取向
-3.442746	取得	-0.2038919
-5.433496	取捨
-5.433496	取景
-5.433496	取材
-5.433496	取款
-5.433496	取水
-5.433496	取決
-5.433496	取消
-5.433496	取用
-5.433496	取經
-5.433496	取締
-5.433496	取而代之
-2.94731	受	-0.3217175
-4.554352	受不了	-0.3685894
-3.761936	受傷	-0.4503918
-5.433496	受刑人
-5.433496	受制
-5.433496	受創
-5.433496	受困
-5.433496	受孕
-5.433496	受害
-5.433496	受審
-5.433496	受惠
-5.433496	受挫
-5.433496	受損
-5.433496	受業
-5.433496	受潮
-5.433496	受理
-5.433496	受益
-5.433496	受益費
-5.433496	受罰
-5.433496	受聘
-5.433496	受苦
-5.433496	受虐
-5.433496	受訓
-5.433496	受託
-5.433496	受訪
-5.433496	受賄
-5.433496	受邀
-5.433496	受阻
-5.433496	受限
-5.433496	受難
-5.433496	受騙
-4.151315	叛	-0.4388493
-5.433496	叛亂
-5.433496	叛亂罪
-5.433496	叛國
-5.433496	叛變
-5.433496	叛軍
-5.433496	叢林
-5.433496	叢生
-3.169665	口	-0.3447259
-5.433496	口口聲聲
-5.433496	口吻
-5.433496	口味
-5.433496	口哨
-5.433496	口外
-5.433496	口實
-5.433496	口徑
-5.433496	口惠
-5.433496	口才
-5.433496	口技
-5.433496	口氣
-5.433496	口碑
-5.433496	口紅
-5.433496	口號
-5.163539	口袋	-0.198114
-5.433496	口角
-5.275057	口音	-0.1885137
-5.433496	口頭
-5.433496	口風
-5.433496	口香糖
-3.521375	古	-0.2910136
-5.433496	古人
-4.965303	古代	-0.1924865
-5.433496	古剎
-5.433496	古坑鄉
-5.433496	古城
-5.433496	古寺
-5.433496	古廟
-5.433496	古意
-5.433496	古法
-4.554352	古老	-0.190564
-5.433496	古董
-5.433496	古董商
-5.433496	古裝
-5.433496	古蹟
-4.712932	句	-0.1873193
-3.403478	另	-0.4072944
-4.207293	另外	-0.2646387
-5.433496	另有
-5.433496	另結新歡
-5.433496	另行
-5.433496	另起爐灶
-3.295941	只	-0.2682636
-4.554352	只在	-0.2346605
-3.979959	只好	-0.2046053
-5.433496	只待
-5.433496	只得
-5.433496	只怕
-5.433496	只教
-3.453144	只是	-0.3122978
-4.712932	只會	-0.2048271
-3.521375	只有	-0.2186701
-5.433496	只消
-3.857407	只能	-0.1911573
-3.914374	只要	-0.3024359
-5.433496	只見
-5.433496	只顧
-3.432591	叫	-0.3496688
-5.433496	叫做
-5.433496	叫停
-5.433496	叫喊
-5.433496	叫囂
-5.433496	叫好
-5.433496	叫屈
-5.433496	叫罵
-5.433496	叫聲
-5.433496	叫苦
-5.433496	叫苦連天
-5.433496	叫車
-5.433496	叫醒
-3.432591	召	-0.8584813
-5.433496	召募
-5.433496	召回
-5.433496	召見
-5.433496	召開
-5.433496	召集
-5.433496	召集人
-5.433496	召集令
-5.433496	叮噹
-2.748063	可	-0.3320946
-5.433496	可不
-5.433496	可不是
-5.433496	可也
-3.137977	可以	-0.2244167
-5.433496	可作
-5.433496	可信
-5.433496	可加
-5.433496	可取
-5.275057	可可	-0.1993773
-5.433496	可否
-5.433496	可喜可賀
-5.433496	可圈可點
-5.433496	可塑性
-5.433496	可好
-5.163539	可就	-0.198831
-5.433496	可怕
-4.965303	可惜	-0.1939784
-4.965303	可想而知	-0.1860235
-5.433496	可愛
-5.433496	可感
-5.433496	可憐
-4.712932	可是	-0.1973312
-5.433496	可有可無
-5.433496	可望
-5.433496	可樂
-5.433496	可疑
-5.433496	可知
-5.433496	可知道
-5.433496	可笑
-3.197961	可能	-0.2885388
-4.347039	可能性	-0.3613293
-4.554352	可行	-0.2173208
-5.433496	可見
-5.433496	可見一斑
-5.433496	可觀
-5.433496	可言
-5.433496	可謂
-5.433496	可議
-5.433496	可貴
-4.347039	可靠	-0.4645116
-2.835089	台	-0.6319618
-3.741021	史	-0.2101973
-5.433496	史不絕書
-5.433496	史奴比
-5.433496	史密斯
-5.433496	史料
-5.433496	史詩
-5.433496	史達林
-3.649324	右	-0.3178206
-5.433496	右側
-5.433496	右手
-5.433496	右方
-5.433496	右派
-5.275057	右邊	-0.1990843
-3.376194	司	-0.5522457
-5.433496	司令
-5.433496	司成
-5.433496	司機
-5.433496	司法
-5.433496	司法機關
-5.433496	司法獨立
-5.433496	司法警察
-5.433496	司法院
-5.433496	司空見慣
-5.433496	司長
-5.433496	司馬光
-3.350524	吃	-0.3355264
-5.433496	吃不了兜著走
-5.433496	吃不完兜著走
-5.433496	吃不消
-5.433496	吃力
-5.433496	吃力不討好
-5.433496	吃吃喝喝
-5.433496	吃得
-5.433496	吃火鍋
-5.433496	吃緊
-5.433496	吃貨
-5.433496	吃重
-5.433496	吃閉門羹
-5.433496	吃飯
-5.433496	吃驚
-2.825063	各	-0.4907538
-5.433496	各人
-4.554352	各位	-0.2036505
-5.433496	各個
-5.433496	各國
-5.433496	各執一詞
-5.433496	各式
-5.433496	各式各樣
-5.433496	各持己見
-5.433496	各界
-5.433496	各界人士
-5.433496	各省
-3.741021	各種	-0.2105012
-4.347039	各自	-0.1945086
-5.433496	各自為政
-5.433496	各處
-5.433496	各行各業
-5.433496	各說各話
-5.433496	各路
-5.433496	各項
-5.433496	各類
-3.254061	合	-0.4333676
-3.617458	合作	-0.5688678
-5.433496	合作社
-5.433496	合作金庫
-5.433496	合併
-5.433496	合力
-5.433496	合唱
-5.433496	合唱團
-5.433496	合夥
-5.433496	合夥人
-5.433496	合宜
-5.433496	合影
-5.163539	合成	-0.5719182
-5.433496	合抱
-5.433496	合時宜
-5.433496	合格
-5.433496	合歡
-3.94593	合法	-0.2450981
-4.965303	合法化	-0.2563893
-5.433496	合流
-3.914374	合理	-0.4132666
-5.433496	合理化
-5.433496	合約
-5.433496	合纖
-5.433496	合聲
-5.433496	合計
-5.433496	合議制
-5.433496	合議庭
-5.433496	合資
-4.554352	合適	-0.3107738
-3.521375	吉	-0.3064488
-5.433496	吉他
-5.433496	吉安鄉
-5.433496	吉時
-5.433496	吉普賽
-5.433496	吉林
-5.433496	吉祥
-5.433496	吉祥如意
-5.433496	吉達
-5.433496	吉隆坡
-4.101735	吊	-0.2625732
-5.433496	吊扇
-5.433496	吊車
-5.433496	吊銷
-4.712932	吋	-0.3584292
-2.960646	同	-0.4700624
-3.979959	同一	-0.3236189
-5.433496	同事
-5.433496	同仁
-5.433496	同伴
-5.433496	同僚
-5.433496	同參
-5.433496	同名之累
-5.433496	同夥
-4.207293	同學	-0.4227429
-5.433496	同居
-5.433496	同年
-5.433496	同心
-5.433496	同心協力
-5.433496	同志
-5.433496	同性戀
-5.433496	同情
-5.433496	同情心
-5.433496	同意
-5.433496	同意書
-5.433496	同感
-5.433496	同文
-3.509233	同時	-0.3644877
-5.433496	同期
-5.433496	同案
-5.433496	同業
-5.433496	同樂
-4.151315	同樣	-0.2727187
-4.151315	同步	-0.2117085
-5.433496	同治
-5.433496	同班
-5.433496	同種
-5.433496	同窗
-5.433496	同級
-5.433496	同義詞
-5.433496	同胞
-5.433496	同行
-5.433496	同袍
-5.433496	同軸電纜
-5.433496	同鄉
-5.433496	同鄉會
-5.433496	同類
-2.94731	名	-0.3600986
-5.433496	名下
-5.433496	名主
-5.433496	名人
-5.433496	名兒
-5.433496	名冊
-5.433496	名列前茅
-5.433496	名利
-5.433496	名副其實
-5.433496	名勝
-5.433496	名勝古跡
-5.433496	名單
-5.433496	名堂
-5.433496	名妓
-4.712932	名字	-0.1860934
-5.433496	名存實亡
-5.433496	名家
-5.433496	名將
-5.433496	名山
-5.433496	名師
-5.433496	名次
-5.433496	名氣
-5.433496	名片
-5.433496	名目
-5.433496	名稱
-5.433496	名義
-5.433496	名聲
-4.554352	名詞	-0.2183806
-5.433496	名譽
-5.433496	名醫
-5.433496	名額
-5.433496	后座
-5.433496	后里
-4.207293	吐	-0.3051997
-5.433496	吐氣
-5.433496	吐露
-2.808055	向	-0.2480365
-5.433496	向上
-5.433496	向來
-5.163539	向前	-0.1982218
-5.433496	向化
-4.965303	向外	-0.2053597
-5.433496	向後
-5.433496	向心力
-5.275057	向量	-0.1885137
-4.05724	君	-0.2546086
-5.433496	君子
-5.433496	君山
-5.163539	吝	-0.3748763
-4.347039	吞	-0.1924652
-5.433496	吞噬
-5.433496	吞嚥
-5.163539	吟	-0.1991242
-5.433496	吟詠
-5.275057	吠	-0.1885137
-3.60236	否	-0.5990143
-5.275057	否則	-0.2751648
-5.433496	否定
-5.433496	否決
-5.433496	否決權
-5.433496	否認
-3.94593	吧	-1.122361
-4.05724	含	-0.1912036
-5.433496	含冤
-5.433496	含意
-5.433496	含括
-4.347039	含有	-0.2007355
-5.433496	含糊
-5.433496	含量
-5.275057	吱	-0.1994107
-3.318499	吳	-0.3707556
-5.433496	吳下阿蒙
-5.433496	吳國
-5.433496	吳昌碩
-4.271569	吵	-0.3503326
-5.433496	吵吵鬧鬧
-5.433496	吵嘴
-5.163539	吵架	-0.2001629
-5.275057	吵雜	-0.1885137
-5.433496	吵鬧
-3.342294	吸	-0.9533975
-5.433496	吸引
-5.433496	吸引力
-4.151315	吸收	-0.1991851
-5.433496	吸毒
-5.433496	吸膠
-5.433496	吸食
-4.347039	吹	-0.1877471
-5.433496	吹噓
-5.433496	吹拂
-5.433496	吹牛
-5.433496	吹襲
-4.438441	吻	-0.2190177
-5.433496	吻合
-4.554352	吼	-0.1956194
-5.433496	吼叫
-4.554352	吾	-0.197734
-5.433496	吾愛
-5.433496	吾輩
-4.712932	呀	-0.4233911
-4.207293	呂	-0.2877082
-5.163539	呆	-0.1880449
-3.559983	呈	-0.2390667
-5.433496	呈上
-5.433496	呈報
-3.60236	呈現	-0.2108514
-3.288674	告	-0.326822
-5.433496	告一段落
-5.433496	告人
-5.433496	告別
-5.433496	告急
-5.433496	告狀
-5.433496	告發
-5.433496	告知
-5.433496	告示
-5.433496	告罄
-3.70199	告訴	-0.4139087
-5.433496	告貸無門
-4.965303	呎	-0.2260906
-3.442746	呢	-1.672589
-3.521375	周	-0.3014511
-5.433496	周全
-5.433496	周密
-5.433496	周年
-5.433496	周延
-5.433496	周旋
-5.433496	周旋到底
-5.433496	周書
-5.433496	周轉
-5.433496	周遊
-5.433496	周遭
-5.433496	周邊
-3.66618	味	-0.4676805
-5.433496	味蕾
-4.712932	味道	-0.3651065
-5.433496	呵呵大笑
-5.275057	呻	-0.1994124
-3.979959	呼	-0.3413101
-5.433496	呼之欲出
-5.433496	呼叫
-5.433496	呼叫器
-5.433496	呼吸
-5.275057	呼呼	-0.1989693
-5.433496	呼嘯
-5.163539	呼應	-0.1817821
-5.433496	呼救
-3.979959	呼籲	-0.2720595
-5.433496	呼聲
-3.267577	命	-0.4919774
-5.433496	命中
-5.433496	命中率
-5.433496	命令
-5.433496	命名
-5.433496	命案
-5.433496	命脈
-5.433496	命運
-5.275057	命題	-0.19914
-5.433496	咄咄逼人
-5.433496	咆哮
-2.602985	和	-0.1839087
-5.433496	和一
-5.433496	和事佬
-5.433496	和南
-5.433496	和同
-5.433496	和善
-5.433496	和好
-5.433496	和尚
-3.741021	和平	-0.1857804
-5.433496	和平主義
-5.433496	和平日
-5.433496	和文
-5.433496	和林
-5.433496	和樂
-5.433496	和氣
-5.433496	和約
-5.433496	和緩
-5.433496	和解
-5.433496	和談
-5.433496	和諧
-5.433496	咒罵
-5.433496	咖啡
-5.433496	咖啡因
-5.433496	咖啡店
-5.163539	咩	-0.199252
-4.271569	咬	-0.19779
-5.433496	咬住
-5.433496	咬文嚼字
-5.433496	咬緊
-5.433496	咬耳朵
-5.275057	咱	-0.1976463
-4.712932	咸	-0.239902
-5.433496	咸豐
-4.207293	哀	-0.2580839
-5.433496	哀傷
-5.433496	哀怨
-5.433496	哀悼
-5.433496	哀戚
-5.433496	哀求
-5.433496	哀痛
-5.433496	哀的美敦書
-3.197961	品	-0.5505705
-5.433496	品名
-5.433496	品味
-5.433496	品嘗
-5.433496	品嚐
-5.433496	品德
-5.433496	品格
-5.433496	品牌
-5.433496	品種
-5.433496	品管
-5.433496	品質
-4.965303	哄	-0.1980079
-5.433496	哄抬
-4.554352	哈	-0.2032433
-5.433496	哈維
-5.433496	哉
-2.999585	員	-0.4111465
-5.433496	員工
-5.433496	員林鎮
-5.433496	員警
-5.433496	員額
-3.979959	哥	-0.341538
-5.433496	哥倫比亞
-5.433496	哥哥
-4.712932	哨	-0.3646995
-4.965303	哩	-0.2001629
-4.271569	哪	-0.2914478
-4.271569	哭	-0.1847175
-5.433496	哭笑不得
-5.433496	哭訴
-5.433496	哭鬧
-4.151315	哲	-0.2947932
-5.433496	哲夫
-5.433496	哲學
-5.275057	哳	-0.3090712
-5.433496	哼唱
-5.433496	哽咽
-5.433496	唆使
-5.163539	唇	-0.1885051
-5.275057	唏	-0.2110616
-4.438441	唐	-0.283122
-5.433496	唐山
-3.66618	售	-0.3550317
-5.433496	售價
-5.433496	售出
-5.433496	售後服務
-5.433496	售票
-4.151315	唯	-0.292027
-4.151315	唯一	-0.2533072
-5.433496	唯恐
-4.438441	唯有	-0.2693632
-5.433496	唯獨
-5.433496	唯讀記憶體
-3.463797	唱	-0.3300853
-5.433496	唱作俱佳
-5.433496	唱歌
-5.433496	唱片
-5.433496	唱的
-5.433496	唱盤
-5.433496	唱高調
-4.347039	唸	-0.2236403
-5.433496	唸唸有詞
-4.965303	唸書	-0.1817821
-5.275057	啁啾	-0.1988617
-5.433496	啄食
-3.108445	商	-0.349255
-5.433496	商事
-5.433496	商人
-5.433496	商務
-5.433496	商務仲裁
-5.433496	商品
-5.433496	商品檢驗
-5.433496	商圈
-5.433496	商場
-5.433496	商家
-5.433496	商店
-5.433496	商會
-4.05724	商業	-0.2684839
-5.433496	商業區
-5.433496	商業設計
-5.433496	商業銀行
-5.433496	商榷
-5.433496	商港
-5.433496	商船
-5.433496	商號
-5.433496	商討
-5.433496	商談
-5.433496	商議
-5.433496	商販
-5.433496	商隊
-4.965303	啊	-0.2984523
-3.546728	問	-0.3563664
-5.433496	問世
-5.433496	問候
-5.433496	問卷
-5.433496	問卷調查
-5.433496	問好
-5.433496	問心無愧
-5.433496	問政
-5.433496	問答
-5.433496	問話
-2.957274	問題	-0.7044289
-5.163539	啞	-0.2402691
-3.633099	啟	-0.34445
-5.433496	啟動
-5.433496	啟動程式
-5.433496	啟封
-5.433496	啟智
-5.433496	啟用
-5.433496	啟蒙
-5.433496	啟蒙運動
-5.163539	啤	-0.2109042
-5.433496	啤酒
-4.438441	啦	-0.4284179
-5.275057	喀	-0.1993254
-3.559983	善	-0.3201683
-5.433496	善人
-5.433496	善後
-5.433496	善意
-5.433496	善於
-5.433496	善用
-5.433496	善男信女
-5.433496	善罷干休
-5.433496	善良
-4.554352	喇叭	-0.7074912
-4.712932	喉	-0.2441518
-5.433496	喉嚨
-5.433496	喉結
-3.979959	喊	-0.2106029
-5.433496	喊聲
-5.433496	喊話
-5.163539	喋	-0.2109486
-5.275057	喔	-0.2984523
-4.965303	喘	-0.2005258
-5.433496	喘不過氣來
-4.347039	喚	-0.2505578
-5.433496	喚起
-3.573654	喜	-0.3316645
-5.433496	喜出望外
-5.433496	喜劇
-5.433496	喜好
-5.433496	喜孜孜
-5.433496	喜宴
-5.433496	喜悅
-5.433496	喜愛
-5.433496	喜慶
-3.94593	喜歡	-0.239837
-5.433496	喜氣
-5.433496	喜訊
-3.721067	喝	-0.4519762
-5.433496	喝令
-5.433496	喝茶
-5.433496	喟嘆
-4.965303	喧	-0.1993086
-5.433496	喧囂
-5.433496	喧擾
-3.683716	喪	-0.4055994
-5.433496	喪事
-5.433496	喪失
-5.433496	喪家
-5.433496	喪生
-5.433496	喪禮
-4.554352	喬	-0.3207594
-5.433496	喬木
-5.433496	喬裝
-3.367468	單	-0.2985752
-4.712932	單一	-0.3159558
-3.274496	單位	-0.234127
-5.433496	單向
-5.433496	單單
-5.433496	單打
-5.433496	單挑
-5.433496	單方面
-5.433496	單日
-5.433496	單槍匹馬
-4.347039	單獨	-0.2316239
-4.101735	單純	-0.347837
-5.433496	單線
-5.433496	單色
-5.433496	單薄
-5.433496	單行本
-5.433496	單行道
-5.433496	單身
-5.433496	單身貴族
-5.433496	單車
-5.433496	單項
-4.712932	喻	-0.1924841
-5.163539	嗅	-0.1980545
-3.49742	嗎	-1.577206
-5.433496	嗎啡
-4.965303	嗜	-0.2066069
-5.433496	嗜好
-5.163539	嗯	-0.1994077
-4.347039	嘆	-0.5235671
-5.433496	嘆息
-5.433496	嘆為觀止
-3.521375	嘉	-0.38283
-5.433496	嘉勉
-5.433496	嘉南平原
-5.433496	嘉惠
-5.433496	嘉慶
-5.433496	嘉獎
-5.433496	嘉義
-5.433496	嘉義市
-5.433496	嘉義縣
-5.433496	嘉興
-5.433496	嘉許
-4.965303	嘎	-0.2070669
-5.433496	嘎啦
-5.433496	嘔吐
-5.433496	嘔啞
-4.438441	嘗	-0.2704169
-5.433496	嘗試
-4.438441	嘛	-0.1917457
-5.433496	嘩啦
-5.433496	嘮叨
-5.275057	嘰	-0.1994107
-5.433496	嘲諷
-5.433496	嘲謔
-4.438441	嘴	-0.1949201
-5.275057	嘴巴	-0.1885137
-5.433496	嘴臉
-5.163539	噁	-0.2104032
-5.163539	噓	-0.1967538
-3.342294	器	-0.5252839
-5.433496	器具
-5.433496	器官
-5.433496	器材
-5.433496	器質
-5.433496	器重
-5.433496	噩夢
-5.433496	噩運
-5.433496	噪音
-5.433496	噱頭
-3.979959	噴	-0.4306198
-5.433496	噴射
-5.433496	噴霧器
-4.554352	噸	-0.3440799
-5.433496	噸位
-4.438441	嚇	-0.3558238
-5.275057	嚎	-0.1991326
-4.271569	嚐	-0.1990675
-5.433496	嚮往
-3.442746	嚴	-0.5313429
-5.433496	嚴厲
-5.433496	嚴守
-5.433496	嚴密
-5.433496	嚴格
-5.433496	嚴正
-5.433496	嚴肅
-5.163539	嚴謹	-0.2001629
-5.433496	嚴辦
-3.350524	嚴重	-0.4074559
-5.433496	嚴防
-4.554352	囂	-0.250486
-5.433496	囂張
-5.433496	囊括
-5.163539	囑	-0.1978016
-5.433496	囑託
-2.861217	四	-0.4368753
-5.433496	四七
-5.433496	四健會
-5.433496	四六
-5.433496	四周
-5.433496	四大
-5.433496	四季
-5.433496	四平八穩
-5.433496	四強
-5.433496	四星
-5.433496	四時
-3.979959	四月	-0.2846093
-5.433496	四海一家
-5.433496	四節
-5.433496	四至
-5.433496	四處
-5.433496	四起
-5.433496	四部
-5.433496	四面
-5.433496	四面八方
-5.275057	囝	-0.1993921
-2.967471	回	-0.3647196
-5.433496	回事
-3.857407	回來	-0.3468858
-5.433496	回函
-5.433496	回升
-4.712932	回去	-0.2326076
-5.433496	回合
-5.433496	回國
-5.433496	回報
-5.433496	回天
-5.433496	回天乏術
-5.433496	回娘家
-5.433496	回家
-5.433496	回復
-5.275057	回想	-0.1987429
-4.712932	回憶	-0.1885432
-4.438441	回應	-0.3958286
-5.433496	回擊
-5.433496	回收
-5.433496	回教
-5.433496	回教徒
-5.433496	回曆
-5.433496	回檔
-5.433496	回歸
-5.433496	回生乏術
-5.433496	回程
-4.712932	回答	-0.1977033
-5.433496	回籠
-5.433496	回覆
-5.433496	回跌
-5.433496	回部
-5.433496	回電
-5.433496	回音
-5.433496	回響
-4.554352	回頭	-0.1876345
-5.433496	回頭是岸
-5.433496	回饋
-5.275057	囟	-0.1991326
-2.909595	因	-0.2045508
-5.433496	因人
-5.433496	因公殉職
-5.433496	因子
-3.914374	因應	-0.2542385
-5.433496	因應措施
-5.433496	因材施教
-5.433496	因果關係
-3.617458	因此	-0.2068737
-3.70199	因為	-0.2596503
-3.741021	因素	-0.5950488
-5.433496	因緣際會
-5.433496	因而
-5.433496	因頭
-4.438441	囤	-0.3167073
-5.433496	囤積
-5.433496	囤聚
-5.163539	囪	-0.1884291
-5.275057	囫圇	-0.211045
-3.649324	困	-0.6020867
-5.433496	困境
-5.433496	困局
-5.433496	困擾
-5.433496	困苦
-3.761936	困難	-0.8131444
-5.433496	困頓
-5.433496	囹圄
-3.914374	固	-0.5137491
-5.433496	固執
-5.433496	固守
-3.979959	固定	-0.2062789
-5.433496	固態
-5.433496	固有
-5.433496	固然
-5.163539	囿	-0.2101953
-3.761936	圈	-0.4098006
-5.433496	圈內
-5.433496	圈圈
-5.433496	圈套
-2.68447	國	-0.4238244
-5.433496	國中
-5.433496	國主
-5.433496	國事
-3.633099	國人	-0.3621911
-5.433496	國代
-5.433496	國信
-5.433496	國光
-5.433496	國光號
-3.281527	國內	-0.2165466
-5.433496	國別
-5.433496	國劇
-5.433496	國力
-5.433496	國務卿
-5.433496	國務院
-5.433496	國土
-3.94593	國外	-0.1951379
-5.433496	國大
-5.433496	國大代表
-5.433496	國太
-5.433496	國宅
-5.433496	國安局
-5.433496	國安法
-5.433496	國定假日
-3.350524	國家	-0.3483696
-5.433496	國家公園
-5.433496	國家劇院
-5.433496	國家安全局
-5.433496	國家安全會議
-5.433496	國家建設
-5.433496	國家考試
-5.433496	國家資訊基礎建設
-5.433496	國家賠償
-5.433496	國寶
-5.433496	國小
-5.433496	國度
-5.433496	國庫
-5.433496	國庫券
-5.433496	國建
-5.433496	國建六年計畫
-5.433496	國慶日
-5.433496	國手
-5.433496	國教
-5.433496	國文
-5.433496	國旗
-5.433496	國是
-5.433496	國會
-5.433496	國有
-5.433496	國有財產
-5.433496	國格
-5.433496	國樂
-5.433496	國民
-5.433496	國民大會
-5.433496	國民所得
-5.433496	國民生產毛額
-5.433496	國泰民安
-5.433496	國營
-5.433496	國營事業
-5.433496	國片
-5.433496	國王
-5.433496	國產
-5.433496	國產車
-5.433496	國科會
-5.433496	國稅局
-4.554352	國立	-0.204443
-5.433496	國立編譯館
-5.433496	國策
-5.433496	國策顧問
-5.433496	國籍
-5.433496	國粹
-5.433496	國統會
-5.433496	國統綱領
-5.433496	國聯
-5.433496	國能
-5.433496	國華
-4.438441	國語	-0.3123645
-5.433496	國貿局
-5.433496	國賓
-5.433496	國軍
-5.433496	國道
-5.433496	國都
-5.433496	國防
-5.433496	國防部
-3.288674	國際	-0.2353385
-5.433496	國際人
-5.433496	國際勞工組織
-5.433496	國際化
-5.433496	國際性
-5.433496	國際標
-5.433496	國際法
-5.433496	國際法庭
-5.433496	國際法院
-5.433496	國際貨幣基金
-5.433496	國體
-3.66618	圍	-0.4002288
-5.433496	圍剿
-5.433496	圍堵
-5.433496	圍巾
-5.433496	圍捕
-4.347039	圍牆	-0.1967227
-5.433496	圍獵
-5.433496	圍籬
-5.433496	圍觀
-3.649324	園	-0.3025627
-5.433496	園區
-5.433496	園地
-3.66618	圓	-0.4264486
-5.433496	圓寂
-5.433496	圓山
-5.433496	圓形
-5.433496	圓滿
-5.433496	圓熟
-5.433496	圓環
-5.433496	圓融
-5.433496	圓通
-5.433496	圓雕
-3.267577	圖	-0.4994105
-5.433496	圖像
-5.433496	圖利
-5.433496	圖形
-5.433496	圖形加速卡
-5.433496	圖文
-5.433496	圖文並茂
-4.712932	圖書館	-0.3895067
-5.433496	圖案
-5.433496	圖片
-5.275057	圖畫	-0.1992957
-5.433496	圖示
-5.433496	圖紋
-5.433496	圖表
-5.433496	圖解
-5.433496	圖謀
-5.433496	圖騰
-3.358913	團	-0.3588232
-5.433496	團員
-5.433496	團拜
-5.433496	團管區
-5.433496	團結
-5.433496	團聚
-5.433496	團長
-5.275057	團隊	-0.2109598
-5.433496	團隊精神
-3.649324	團體	-0.2875182
-3.521375	土	-0.300154
-5.433496	土丘
-3.521375	土地	-0.3866468
-4.965303	土地公	-0.1919949
-5.433496	土地增值稅
-5.433496	土地所有權
-5.433496	土地所有權狀
-5.433496	土城
-5.433496	土堆
-5.433496	土壤
-5.433496	土庫
-5.433496	土庫鎮
-5.433496	土木工程
-5.433496	土狗
-5.433496	土石
-4.965303	土耳其	-0.1976775
-5.433496	土著
-5.433496	土製
-5.433496	土雞
-2.253012	在	-0.157826
-4.151315	在下	-0.1894448
-5.433496	在世
-5.433496	在乎
-5.433496	在任
-5.433496	在先
-5.433496	在內
-5.433496	在劫難逃
-5.433496	在即
-4.965303	在在	-0.1963386
-5.433496	在城
-5.433496	在場
-5.433496	在外
-5.433496	在家
-5.433496	在心
-5.433496	在意
-5.433496	在押
-4.101735	在於	-0.1996717
-5.433496	在日
-5.433496	在望
-5.433496	在朝
-5.433496	在案
-5.433496	在職
-5.433496	在行
-5.433496	在逃
-5.433496	在野
-5.433496	在野黨
-5.433496	在陳
-5.275057	圭	-0.1982739
-2.602985	地	-0.4061579
-4.151315	地上	-0.3299902
-5.433496	地上物
-5.433496	地下
-5.433496	地下停車場
-5.433496	地下化
-5.433496	地下室
-5.433496	地下有知
-5.433496	地下水
-5.433496	地下的
-5.433496	地下經濟
-5.433496	地下舞廳
-5.433496	地下道
-5.433496	地主
-5.433496	地主之誼
-5.433496	地位
-5.433496	地價
-5.433496	地價稅
-5.433496	地分
-5.433496	地利
-5.433496	地利之便
-5.433496	地動
-5.433496	地勢
-5.433496	地勤
-3.318499	地區	-0.2815475
-5.433496	地址
-5.433496	地域
-5.433496	地域性
-5.433496	地大物博
-5.433496	地層下陷
-5.433496	地帶
-5.433496	地形
-5.433496	地心引力
-5.433496	地政
-3.295941	地方	-0.3635281
-5.433496	地方上
-5.433496	地方人士
-5.433496	地方政府
-5.433496	地方法院
-5.433496	地方稅
-5.433496	地方自治
-5.433496	地方議會
-5.433496	地板
-5.433496	地檢署
-5.433496	地權
-5.433496	地步
-5.433496	地段
-5.433496	地殼
-5.433496	地毯
-5.433496	地獄
-5.433496	地球
-5.433496	地球村
-5.433496	地理
-5.433496	地理環境
-5.433496	地產
-5.433496	地盤
-5.433496	地目
-5.433496	地籍
-5.433496	地緣
-5.433496	地質
-5.433496	地震
-5.433496	地震帶
-5.433496	地面
-3.559983	地點	-0.3466486
-4.271569	圳	-0.1893929
-4.151315	址	-0.35912
-2.924914	均	-0.3899203
-5.433496	均一
-5.433496	均分
-5.433496	均勻
-5.433496	均可
-5.433496	均富
-5.433496	均攤
-5.433496	均衡
-4.271569	坊	-0.285392
-5.433496	坊間
-4.271569	坍	-0.2202803
-5.433496	坍方
-5.433496	坍毀
-5.433496	坎坷
-5.433496	坎培拉
-3.509233	坐	-0.3522104
-5.433496	坐下
-5.433496	坐享其成
-5.433496	坐位
-5.433496	坐地
-5.433496	坐地分贓
-5.433496	坐大
-5.433496	坐收漁利
-5.433496	坐月子
-5.433496	坐牢
-5.433496	坐立不安
-5.433496	坐落
-5.433496	坐視
-5.433496	坐鎮
-4.438441	坑	-0.2106425
-5.433496	坑洞
-4.347039	坡	-0.211047
-5.433496	坡度
-4.207293	坤	-0.2191277
-3.633099	坦	-0.6591988
-5.433496	坦克
-5.433496	坦承
-5.433496	坦然
-5.433496	坦率
-5.433496	坦白
-5.433496	坦誠
-3.979959	坪	-0.3280081
-5.433496	坪林
-5.163539	垂	-0.2069222
-5.163539	垂直	-0.4847978
-3.463797	垃圾	-0.4126725
-5.433496	垃圾場
-5.433496	垃圾桶
-5.433496	垃圾焚化爐
-5.433496	垃圾車
-5.433496	垃圾量
-3.442746	型	-0.4285536
-5.433496	型式
-3.831501	型態	-0.4276536
-5.433496	型鋼
-5.275057	垓	-0.1981968
-5.275057	垢	-0.1992401
-5.163539	垣	-0.1878622
-5.163539	垮	-0.1863396
-5.275057	埃及	-0.1885137
-3.831501	埋	-0.4853444
-5.433496	埋伏
-5.433496	埋名
-5.433496	埋怨
-5.433496	埋設
-5.433496	埋首
-3.58777	城	-0.2117428
-5.433496	城中
-5.433496	城堡
-4.271569	城市	-0.2115567
-5.433496	城鄉
-5.433496	城鎮
-5.433496	城隍廟
-4.101735	埔	-0.1915725
-5.433496	埔心鄉
-5.433496	埔里鎮
-4.151315	域	-0.2001036
-4.554352	埠	-0.197551
-5.163539	埤	-0.1987753
-5.433496	埤頭鄉
-5.275057	埧	-0.1990621
-3.358913	執	-0.601737
-5.433496	執勤
-5.433496	執導
-5.433496	執意
-5.433496	執掌
-5.433496	執政
-5.433496	執政黨
-5.433496	執業
-5.433496	執法
-5.433496	執照
-5.433496	執筆
-5.433496	執著
-3.247458	執行	-0.3657863
-5.433496	執行機關
-4.016882	培	-0.2972288
-5.433496	培育
-5.433496	培訓
-4.101735	培養	-0.2617287
-5.433496	培養土
-3.180763	基	-0.8516946
-5.433496	基地
-5.433496	基層
-5.433496	基層建設
-5.433496	基座
-5.433496	基於
-4.016882	基本	-0.4168851
-5.163539	基本上	-0.2900256
-5.433496	基準
-5.433496	基督
-5.433496	基督教
-5.433496	基督教兒童基金會
-5.433496	基石
-3.914374	基礎	-0.5774713
-5.433496	基調
-5.433496	基金
-5.433496	基金會
-5.433496	基隆市
-5.433496	基隆河
-5.163539	堀	-0.1987122
-3.649324	堂	-0.3110133
-5.433496	堂上
-5.433496	堂兄
-5.433496	堂堂
-3.376194	堅	-0.5783849
-5.433496	堅信
-5.433496	堅固
-5.433496	堅守
-5.433496	堅定
-5.433496	堅實
-5.433496	堅強
-5.433496	堅持
-5.433496	堅決
-5.433496	堅硬
-5.433496	堅稱
-5.433496	堅請
-5.433496	堅韌
-4.101735	堆	-0.191843
-5.433496	堆滿
-5.433496	堆積
-5.433496	堆置
-5.433496	堆肥
-4.438441	堤	-0.2603572
-5.433496	堤岸
-5.433496	堤防
-3.979959	堪	-0.3356537
-5.433496	堪稱
-5.433496	堪虞
-5.163539	堯	-0.1884899
-5.275057	堰	-0.1882503
-3.003304	報	-0.4702368
-5.433496	報人
-5.433496	報仇
-5.433496	報備
-5.433496	報償
-5.433496	報刊
-5.433496	報到
-5.433496	報名
-3.49742	報告	-0.3777166
-5.433496	報告書
-3.70199	報導	-0.5843603
-5.433496	報導攝影
-5.433496	報廢
-5.433496	報復
-5.433496	報案
-5.433496	報社
-5.433496	報稱
-5.433496	報紙
-5.433496	報考
-5.433496	報表
-5.433496	報請
-5.433496	報警
-5.433496	報酬
-5.433496	報銷
-2.970925	場	-0.370105
-5.433496	場內
-5.433496	場合
-5.433496	場地
-5.433496	場外交易
-5.433496	場所
-5.433496	場景
-5.433496	場面
-4.438441	堵	-0.239014
-4.05724	塊	-0.2220888
-4.965303	塌	-0.2869138
-3.914374	塑	-0.3117827
-5.433496	塑膠
-5.433496	塑膠布
-5.433496	塑膠袋
-5.433496	塑造
-4.05724	塔	-0.2481282
-5.433496	塔斯社
-3.979959	塗	-0.2700225
-5.433496	塗抹
-5.433496	塗改
-3.884957	塞	-0.2512488
-5.433496	塞滿
-5.433496	塞車
-3.761936	填	-0.3671099
-5.433496	填充
-5.433496	填寫
-5.275057	填滿	-0.1992883
-5.433496	填補
-5.163539	塭	-0.1931439
-5.433496	塵埃落定
-5.433496	塵封
-3.559983	境	-0.5062888
-5.433496	境內
-5.433496	境地
-5.433496	境界
-4.101735	墊	-0.3138194
-5.433496	墊付
-5.433496	墊檔
-5.433496	墊款
-4.271569	墓	-0.2114679
-5.433496	墓園
-5.433496	墓地
-3.254061	增	-0.5117651
-5.433496	增值
-5.433496	增列
-3.281527	增加	-0.3176867
-5.433496	增多
-5.433496	增建
-5.433496	增強
-5.433496	增添
-5.433496	增益
-5.433496	增聘
-5.433496	增訂
-5.433496	增設
-5.433496	增資
-5.433496	增進
-5.433496	增長
-5.433496	增闢
-5.433496	增額國代
-5.433496	增高
-5.275057	墟	-0.3089265
-4.101735	墨	-0.3484883
-5.433496	墨客
-5.433496	墨水
-5.433496	墨水匣
-5.433496	墨跡
-5.433496	墨黑
-5.163539	墩	-0.2068332
-4.016882	墬	-0.2249823
-5.433496	墮落
-4.438441	墾	-0.2732863
-5.433496	墾丁國家公園
-5.433496	墾殖
-4.438441	壁	-0.1941424
-5.433496	壁報
-4.712932	壅	-0.2790928
-5.433496	壅塞
-4.271569	壇	-0.2435572
-3.326287	壓	-0.5846623
-5.163539	壓低	-0.2001629
-5.433496	壓倒性
-5.433496	壓制
-5.433496	壓力
-5.433496	壓抑
-5.433496	壓縮
-5.433496	壓花
-5.433496	壓迫
-5.433496	壓迫感
-5.433496	壓陣
-3.741021	壞	-0.3060005
-5.433496	壞了
-5.433496	壞事
-5.433496	壞人
-5.433496	壟斷
-5.275057	壢	-0.2594709
-5.163539	壤	-0.1875473
-3.509233	士	-0.3918834
-5.433496	士兵
-5.433496	士林
-5.433496	士民
-5.433496	士氣
-5.163539	壬	-0.1993973
-3.979959	壯	-0.3036487
-5.433496	壯大
-5.433496	壯年
-5.433496	壯志未酬
-5.433496	壯烈
-5.433496	壯碩
-5.433496	壯觀
-5.433496	壯麗
-4.438441	壺	-0.2302637
-3.914374	壽	-0.2909575
-5.433496	壽命
-5.433496	壽險
-3.979959	夏	-0.2535781
-5.433496	夏天
-5.433496	夏日
-5.433496	夔紋
-2.648369	外	-0.5631591
-3.70199	外交	-0.2803283
-5.433496	外交官
-5.433496	外交詞令
-4.207293	外交部	-0.2751218
-5.433496	外人
-5.433496	外來
-5.433496	外傳
-5.433496	外傷
-5.433496	外僑
-5.433496	外公
-5.433496	外出
-5.433496	外力
-5.433496	外加
-5.433496	外務
-5.433496	外勞
-5.433496	外勤
-5.433496	外包
-5.433496	外匯
-5.433496	外匯存底
-5.433496	外匯市場
-5.433496	外向
-5.433496	外商
-5.433496	外國
-4.965303	外國人	-0.1960235
-4.712932	外圍	-0.2021054
-5.433496	外在
-5.433496	外地
-5.433496	外型
-5.433496	外套
-5.433496	外幣
-5.433496	外役監獄
-5.433496	外快
-5.433496	外掛
-5.433496	外放
-5.433496	外星人
-5.433496	外殼
-5.433496	外洩
-5.275057	外流	-0.1885137
-5.433496	外海
-5.433496	外用藥
-5.433496	外界
-5.433496	外省
-5.433496	外祖父
-5.433496	外科
-5.433496	外籍
-5.433496	外籍勞工
-5.433496	外線
-5.433496	外縣
-5.433496	外蒙
-5.433496	外號
-5.433496	外表
-5.433496	外觀
-5.433496	外角
-5.433496	外貌
-5.433496	外資
-5.433496	外賓
-5.433496	外遇
-5.433496	外野
-5.433496	外野手
-5.433496	外銷
-5.433496	外電
-4.151315	外面	-0.3108217
-5.433496	外頭
-2.750144	多	-0.3970772
-5.433496	多久
-5.433496	多事
-5.433496	多元化
-5.433496	多分
-4.347039	多半	-0.2677249
-5.433496	多可
-5.433496	多因
-4.712932	多多	-0.3485469
-5.433496	多多少少
-5.433496	多多益善
-5.433496	多大
-4.438441	多媒體	-0.2544003
-5.433496	多寡
-3.761936	多少	-0.314843
-5.433496	多年
-5.433496	多得
-5.433496	多情
-5.433496	多慮
-3.884957	多數	-0.1919337
-5.433496	多方
-5.433496	多是
-5.433496	多時
-5.433496	多樣化
-5.275057	多此一舉	-0.1928519
-5.433496	多疑
-5.433496	多管
-5.433496	多管閒事
-5.433496	多花
-5.433496	多角化
-5.433496	多變
-5.433496	多邊貿易
-5.433496	多采多姿
-5.433496	多重
-5.433496	多量
-5.433496	多頭
-5.163539	多餘	-0.1817821
-5.275057	多麼
-3.509233	夜	-0.2806954
-5.433496	夜夜
-5.433496	夜市場
-5.433496	夜戰
-5.433496	夜晚
-5.433496	夜曲
-5.433496	夜班
-5.433496	夜總會
-5.433496	夜色
-5.433496	夜裡
-5.433496	夜遊
-5.433496	夜長夢多
-5.433496	夜間
-4.554352	夠	-0.1891668
-3.807053	夢	-0.3696809
-5.433496	夢境
-5.433496	夢想
-5.433496	夢見
-5.433496	夢鄉
-5.433496	夢魘
-3.979959	夥	-0.2805104
-5.433496	夥伴
-5.433496	夥同
-2.441127	大	-0.3626238
-5.433496	大不相同
-5.433496	大亂
-5.433496	大亨
-5.433496	大令
-5.433496	大便
-5.433496	大修
-5.433496	大內
-5.433496	大公
-5.433496	大公國
-5.433496	大刀闊斧
-5.433496	大力
-5.433496	大功
-5.433496	大功告成
-5.433496	大動干戈
-5.433496	大北
-5.433496	大半
-5.433496	大半天
-5.433496	大半輩子
-5.433496	大卡
-5.433496	大口
-5.433496	大可
-5.433496	大可不必
-5.433496	大同
-5.433496	大吼
-5.433496	大呼
-5.433496	大哥
-5.433496	大哥大
-5.433496	大喊
-5.433496	大喜過望
-5.433496	大國
-5.433496	大地
-5.433496	大地主
-3.70199	大型	-0.3196971
-5.433496	大型企業
-5.433496	大型工業區
-5.433496	大堆
-4.101735	大多	-0.215745
-4.347039	大多數	-0.3890637
-5.433496	大夢
-5.433496	大夥
-5.275057	大大小小	-0.1928519
-5.433496	大夫
-5.433496	大好
-5.433496	大媽
-3.683716	大學	-0.2156257
-5.433496	大學問
-5.433496	大學生
-5.433496	大學聯考
-5.275057	大學部	-0.1984384
-5.433496	大官
-3.485921	大家	-0.2975383
-5.433496	大家長
-5.433496	大寶
-4.965303	大將	-0.202364
-5.433496	大將軍
-5.433496	大對決
-4.207293	大小	-0.2079507
-5.433496	大尖山
-5.433496	大局
-5.433496	大幅度
-5.433496	大年初一
-5.433496	大幸
-5.433496	大底
-5.433496	大廳
-5.433496	大德
-5.433496	大悲
-5.433496	大戈壁
-5.433496	大戶
-5.433496	大房
-5.433496	大打出手
-5.433496	大批
-5.433496	大把
-5.433496	大抵
-5.433496	大拜拜
-5.433496	大排行
-5.433496	大方
-3.783909	大會	-0.3014622
-5.433496	大本營
-4.05724	大概	-0.2735678
-5.433496	大樓
-5.433496	大殿
-5.433496	大氣
-5.433496	大河
-5.433496	大法官
-5.433496	大法官會議
-5.275057	大海	-0.2001629
-5.433496	大清早
-5.433496	大減價
-5.433496	大溪鎮
-5.433496	大漢
-5.433496	大火
-5.433496	大炮
-5.433496	大牌
-5.433496	大獎
-5.433496	大理石
-5.433496	大環境
-5.433496	大甲
-5.433496	大發
-5.433496	大白
-5.433496	大白天
-5.433496	大盤
-5.433496	大禍
-5.433496	大禮堂
-5.433496	大突破
-5.433496	大筆
-5.433496	大紅大紫
-5.433496	大罵
-5.433496	大老
-5.433496	大老爺
-5.433496	大肚
-5.433496	大肚溪
-5.433496	大股東
-5.433496	大膽
-5.433496	大舅
-5.433496	大舅子
-5.433496	大興土木
-5.433496	大舉
-5.433496	大號
-5.433496	大行其道
-5.433496	大行政區
-5.433496	大袖
-5.433496	大西洋
-5.433496	大規模
-5.433496	大覺
-5.433496	大變
-5.433496	大貨車
-5.433496	大賓
-5.433496	大起大落
-5.433496	大軍
-5.433496	大進
-5.433496	大過
-5.433496	大道
-5.433496	大道理
-5.433496	大部
-4.151315	大部分	-0.2329003
-4.05724	大都	-0.3076005
-5.433496	大都會
-3.617458	大量	-0.2602908
-5.433496	大錢
-4.05724	大門	-0.267728
-5.433496	大開
-5.433496	大開眼界
-5.433496	大關
-3.260767	大陸	-0.2704723
-5.433496	大陸同胞
-5.433496	大陸國
-5.433496	大陸地區
-5.433496	大陸客
-5.433496	大陸市場
-5.433496	大陸政策
-5.433496	大陸海
-5.433496	大陸貨
-5.433496	大隊
-5.433496	大頭
-5.433496	大風暴
-5.433496	大飯店
-5.433496	大馬士革
-5.433496	大驚失色
-5.433496	大驚小怪
-5.433496	大體
-5.433496	大體上
-5.433496	大鵬
-4.965303	大麻	-0.1867749
-5.433496	大麻煙
-5.433496	大鼓陣
-3.007056	天	-0.3330542
-5.433496	天上
-5.433496	天上人間
-5.433496	天上聖母
-4.101735	天下	-0.4467755
-5.433496	天下沒有白吃的午餐
-5.433496	天下無不是的父母
-5.433496	天下無敵
-5.433496	天下蒼生
-5.433496	天中
-5.433496	天主堂
-5.433496	天主教
-5.433496	天亮
-5.433496	天使
-4.712932	天候	-0.3027765
-5.433496	天價
-5.433496	天全
-5.433496	天分
-5.433496	天台
-5.433496	天后
-5.433496	天國
-5.433496	天地
-5.433496	天堂
-5.433496	天報
-4.965303	天大	-0.1985562
-5.433496	天天
-5.433496	天安門
-5.433496	天宮
-5.433496	天寒地凍
-5.433496	天寶
-5.433496	天將
-5.433496	天府
-5.433496	天意
-5.433496	天才
-5.433496	天數
-4.965303	天文	-0.2039171
-5.433496	天時
-5.433496	天晴
-5.433496	天橋
-5.433496	天殺的
-4.438441	天氣	-0.1902764
-5.433496	天河
-5.433496	天津
-5.433496	天然
-5.433496	天然氣
-5.433496	天然災害
-5.433496	天王星
-5.433496	天生
-5.433496	天真
-5.433496	天神
-5.433496	天祥
-5.433496	天祿
-5.433496	天空
-5.433496	天線
-5.433496	天羅地網
-5.433496	天職
-5.433496	天色
-5.433496	天花板
-5.433496	天衣無縫
-5.433496	天譴
-5.433496	天資
-5.433496	天賦
-5.433496	天趣
-5.433496	天道
-5.275057	天都	-0.3069256
-5.433496	天馬
-5.433496	天體
-5.433496	天高
-5.433496	天鵝絨
-3.197961	太	-0.3978873
-5.433496	太上
-5.433496	太保
-3.857407	太太	-0.1799518
-5.433496	太子
-5.433496	太平
-5.433496	太平洋
-5.433496	太極
-5.433496	太空
-4.554352	太過	-0.2020072
-5.433496	太重
-5.433496	太陽
-5.433496	太陽旗
-5.433496	太陽眼鏡
-5.433496	太魯閣國家公園
-3.442746	夫	-0.4104363
-4.554352	夫人	-0.1773836
-5.433496	夫妻
-5.433496	夫妻相
-5.433496	夫妻關係
-5.433496	夫婦
-5.433496	夭折
-4.207293	央	-0.7500802
-5.433496	央及
-5.433496	央求
-5.433496	央託
-5.433496	央請
-3.042361	失	-0.4777091
-5.433496	失主
-5.433496	失信
-5.433496	失傳
-5.433496	失利
-5.433496	失去
-5.433496	失和
-5.433496	失地
-5.433496	失察
-5.433496	失常
-5.433496	失意
-5.433496	失態
-5.433496	失所
-5.275057	失掉	-0.1990361
-5.433496	失控
-5.433496	失敗
-5.433496	失明
-5.433496	失望
-5.433496	失業
-5.433496	失業人口
-5.433496	失業保險
-5.433496	失業率
-5.433496	失火
-5.433496	失當
-4.712932	失真	-0.2681851
-5.433496	失禮
-5.433496	失竊
-5.433496	失算
-5.433496	失職
-5.433496	失落
-5.433496	失血
-5.433496	失衡
-5.433496	失誤
-5.433496	失調
-5.433496	失足
-5.433496	失蹤
-5.433496	失陷
-5.163539	夷	-0.2025841
-4.271569	夾	-0.2012513
-5.433496	夾克
-5.433496	夾帶
-5.433496	夾攻
-3.633099	奇	-0.2981017
-4.554352	奇怪	-0.23757
-5.433496	奇招
-5.433496	奇景
-5.433496	奇特
-5.433496	奇異
-5.433496	奇觀
-5.433496	奇蹟
-5.433496	奇遇
-5.433496	奇風異俗
-4.712932	奈	-0.3561707
-3.857407	奉	-0.299287
-5.433496	奉勸
-5.433496	奉命
-5.433496	奉安
-5.433496	奉承
-5.433496	奉獻
-5.433496	奉祀
-5.433496	奉調
-5.433496	奉送
-5.433496	奉養
-5.275057	奎	-0.1992735
-4.207293	奏	-0.2262306
-5.433496	奏效
-5.433496	奏鳴曲
-3.914374	契	-0.6165397
-5.433496	契合
-5.433496	契機
-5.433496	契約
-3.94593	奔	-0.3421658
-5.433496	奔喪
-5.433496	奔波
-5.433496	奔走
-5.433496	奔跑
-5.433496	奔馳
-5.433496	奔騰
-4.712932	奕	-0.1884613
-3.683716	套	-0.4359526
-5.433496	套利
-5.433496	套房
-5.433496	套牢
-5.275057	套用	-0.2106222
-5.433496	套裝
-5.433496	套裝軟體
-5.433496	奚落
-5.433496	奠定
-5.433496	奢望
-5.433496	奢靡
-4.101735	奧	-0.2782537
-3.94593	奪	-0.2621148
-5.433496	奪取
-5.433496	奪權
-5.433496	奮力
-5.433496	奮勇
-5.433496	奮起
-5.433496	奮鬥
-3.034264	女	-0.3287287
-5.433496	女丈夫
-5.433496	女中
-5.433496	女主角
-5.433496	女事
-5.433496	女人
-5.433496	女傭
-5.433496	女優
-5.433496	女先
-5.433496	女兒
-5.433496	女兒家
-5.433496	女兵
-5.433496	女友
-5.433496	女口
-5.433496	女士
-5.433496	女婿
-5.433496	女子
-5.433496	女孩子
-5.433496	女將
-5.433496	女性
-5.433496	女星
-5.433496	女權
-5.433496	女流
-4.101735	女生	-0.2937046
-5.433496	女童
-5.433496	女警
-5.433496	女鞋
-4.438441	奶	-0.1979814
-5.433496	奶粉
-5.433496	奶頭
-3.103712	她	-0.2521635
-3.884957	她們	-0.1878623
-3.063292	好	-0.3902619
-5.433496	好一陣
-5.433496	好不好
-5.433496	好不容易
-5.433496	好久
-5.275057	好事	-0.1977133
-5.275057	好些
-5.433496	好人
-5.433496	好似
-4.101735	好像	-0.1932903
-5.433496	好友
-5.433496	好吃
-5.433496	好吃懶做
-5.433496	好在
-5.163539	好壞	-0.2067627
-5.163539	好多	-0.2065475
-5.433496	好奇
-4.554352	好好	-0.1948649
-5.433496	好心
-5.433496	好惹
-5.433496	好意
-5.433496	好感
-5.433496	好戲
-5.433496	好手
-5.433496	好日子
-5.433496	好是
-5.433496	好書
-5.433496	好歹
-5.433496	好消息
-5.433496	好漢
-5.433496	好玩
-5.433496	好生
-4.712932	好看	-0.4233911
-5.433496	好笑
-5.433496	好聽
-5.433496	好萊塢
-4.712932	好處	-0.255754
-5.433496	好言相勸
-5.433496	好評
-5.433496	好轉
-3.085282	如	-0.3247939
-5.433496	如一
-5.433496	如今
-3.3851	如何	-0.2875697
-5.433496	如何是好
-5.433496	如同
-5.433496	如常
-5.433496	如意
-5.433496	如數
-5.433496	如是
-5.433496	如期
-3.60236	如果	-0.3138283
-3.573654	如此	-0.3720308
-5.433496	如法泡製
-5.433496	如法炮製
-5.433496	如泣如訴
-5.433496	如火如荼
-5.433496	如臨大敵
-5.433496	如虎添翼
-5.433496	如許
-5.433496	如釋重負
-5.433496	如願
-5.163539	妃	-0.1817821
-4.554352	妄	-0.247035
-5.275057	妒	-0.1990398
-5.433496	妓女
-4.151315	妙	-0.3421924
-5.433496	妙法
-5.433496	妙齡女郎
-5.433496	妝點
-3.617458	妥	-0.5357052
-5.433496	妥協
-5.433496	妥善
-5.433496	妥當
-5.433496	妨害
-5.433496	妨害自由
-5.433496	妨害風化
-5.433496	妨礙
-5.163539	妮	-0.1817309
-3.807053	妳	-0.2242726
-4.347039	妹	-0.1845352
-4.151315	妺	-0.3001874
-3.60236	妻	-0.3794516
-5.433496	妻子
-5.433496	妻室
-5.433496	妾身未明
-5.163539	姆	-0.1957458
-4.438441	姊	-0.2032779
-5.433496	姊夫
-5.433496	姊妹
-5.433496	姊妹市
-5.433496	姊姊
-3.831501	始	-0.3243691
-5.433496	始創
-5.433496	始料不及
-5.433496	始料未及
-5.433496	始末
-5.433496	始祖
-4.016882	始終	-0.2325311
-5.275057	姍	-0.1989164
-4.347039	姐	-0.215857
-5.433496	姐夫
-5.433496	姐妹
-5.433496	姐姐
-4.712932	姑	-0.1971937
-5.275057	姑且	-0.196987
-5.433496	姑娘
-5.433496	姑息
-3.412967	姓	-0.3854912
-5.433496	姓名
-3.108445	委	-0.61983
-5.433496	委任狀
-5.433496	委員
-5.433496	委員會
-5.433496	委屈
-5.433496	委曲求全
-5.433496	委託
-5.275057	姚	-0.2102659
-4.438441	姜	-0.204629
-4.151315	姦	-0.2383402
-5.433496	姦夫
-5.433496	姦情
-5.433496	姦淫
-5.433496	姪子
-4.05724	姿	-0.3478971
-5.433496	姿勢
-5.433496	姿態
-3.521375	威	-0.4656239
-5.433496	威信
-5.433496	威力
-5.433496	威尼斯
-5.433496	威望
-5.433496	威權
-5.433496	威武
-5.433496	威脅
-5.433496	威風八面
-5.433496	娃娃
-5.433496	娓娓道來
-5.433496	娘家
-4.965303	娛	-0.1801373
-4.271569	娛樂	-0.2509577
-5.433496	娛樂場所
-4.554352	娜	-0.2751059
-4.712932	娶	-0.2536264
-4.347039	娼	-0.1905029
-5.433496	娼妓
-5.433496	娼婦
-5.163539	婀	-0.4342806
-5.275057	婁	-0.1990101
-4.151315	婆	-0.2941663
-5.433496	婆婆
-5.433496	婆婆媽媽
-5.433496	婆家
-4.271569	婉	-0.2711158
-5.433496	婉容
-5.433496	婉拒
-5.433496	婉言
-5.433496	婉謝
-3.633099	婚	-0.3547292
-5.433496	婚事
-5.433496	婚姻
-5.433496	婚禮
-5.433496	婚變
-3.463797	婦	-0.4560673
-5.433496	婦人
-5.433496	婦女
-5.433496	婦女會
-5.433496	婦孺
-5.433496	婦產科
-5.433496	婦科
-5.163539	婷	-0.1990044
-5.163539	婿	-0.1868287
-4.271569	媒	-0.2447544
-5.433496	媒人
-5.433496	媒介
-3.914374	媒體	-0.2547035
-4.965303	媚	-0.2110117
-5.275057	媛	-0.1985275
-5.275057	媲	-0.5307641
-5.433496	媲美
-4.438441	媳	-0.3344539
-5.433496	媳婦
-3.94593	媽	-0.4505067
-5.433496	媽媽
-5.433496	媽媽教室
-5.433496	媽祖
-4.271569	嫁	-0.1937422
-5.433496	嫁禍
-3.222004	嫌	-0.3316318
-5.433496	嫌犯
-5.433496	嫌疑
-5.433496	嫌隙
-5.433496	嫖客
-5.275057	嫚	-0.1992809
-4.712932	嫩	-0.2758795
-5.433496	嫩江省
-5.433496	嫩葉
-5.163539	嫻	-0.1927568
-5.433496	嫻雅
-5.433496	嬉笑
-5.433496	嬉鬧
-4.207293	嬌	-0.2624796
-5.433496	嬌妻
-5.433496	嬌嫩
-4.207293	嬰	-0.2522522
-5.433496	嬰兒
-5.433496	嬰兒車
-5.433496	嬰孩
-5.275057	孀	-0.2096628
-2.977914	子	-0.347239
-5.433496	子來
-5.433496	子女
-5.433496	子孫
-5.433496	子弟
-5.433496	子弟兵
-5.433496	子彈
-5.433496	子民
-5.433496	子都
-4.207293	孔	-0.2431546
-5.433496	孔子
-5.433496	孔廟
-5.433496	孔德
-5.433496	孔武有力
-5.433496	孔雀
-4.438441	孕	-0.2033922
-5.433496	孕婦
-3.559983	字	-0.4630001
-5.433496	字元
-5.433496	字幕
-5.433496	字樣
-5.433496	字正腔圓
-5.433496	字母
-5.433496	字畫
-5.433496	字眼
-5.433496	字跡
-5.275057	字音	-0.1990658
-5.433496	字體
-3.403478	存	-0.3142287
-5.433496	存亡
-3.683716	存在	-0.5039177
-5.433496	存廢
-5.433496	存心
-5.433496	存摺
-5.433496	存放
-5.433496	存查
-5.433496	存款
-5.433496	存疑
-5.433496	存量
-5.433496	孚眾望
-4.151315	孝	-0.2953625
-5.433496	孝子
-4.554352	孟	-0.4103394
-3.617458	季	-0.3419287
-5.433496	季節
-5.433496	季節性
-5.433496	季軍
-5.433496	季風
-4.101735	孤	-0.2677845
-5.433496	孤兒院
-5.433496	孤島
-5.433496	孤挺花
-5.433496	孤注
-5.433496	孤注一擲
-5.433496	孤獨
-5.433496	孤立
-5.433496	孤立主義
-5.433496	孤行
-5.433496	孤軍
-3.721067	孩	-0.6123224
-5.433496	孩兒們
-5.433496	孩子
-5.433496	孩子氣
-5.433496	孩童
-3.66618	孫	-0.336985
-5.433496	孫中山
-5.433496	孫女
-5.433496	孫子
-5.433496	孫子兵法
-5.433496	孫悟空
-5.163539	孰	-0.4544365
-5.433496	孰料
-5.433496	孳息
-5.275057	孵	-0.1993921
-3.209816	學	-0.4013702
-5.275057	學人	-0.1885137
-5.163539	學位	-0.1884823
-5.433496	學區
-5.433496	學友
-5.433496	學員
-5.275057	學問	-0.1877594
-5.433496	學子
-5.433496	學府
-5.433496	學成
-4.965303	學會	-0.2373644
-5.275057	學期	-0.1991956
-3.60236	學校	-0.2310651
-5.433496	學業
-5.433496	學歷
-5.433496	學派
-5.433496	學潮
-3.334216	學生	-0.2694267
-5.433496	學界
-5.433496	學科
-5.433496	學童
-3.914374	學習	-0.2835673
-5.433496	學者
-4.101735	學術	-0.27246
-5.433496	學術研究
-5.433496	學術自由
-5.433496	學費
-5.433496	學運
-4.438441	學院	-0.1836141
-3.376194	它	-0.3485603
-4.207293	它們	-0.2915736
-4.05724	宅	-0.3513696
-4.712932	宇	-0.2058934
-3.509233	守	-0.2867294
-5.433496	守候
-5.433496	守備
-5.433496	守分
-5.433496	守則
-5.433496	守勢
-5.433496	守望相助
-5.433496	守株待兔
-5.433496	守法
-5.433496	守衛
-5.433496	守護
-2.858533	安	-0.5624351
-5.433496	安人
-5.433496	安內
-5.433496	安全
-5.433496	安全感
-5.433496	安全距離
-5.433496	安分
-5.433496	安危
-5.433496	安和
-5.433496	安定
-5.433496	安寧
-5.433496	安康
-5.433496	安心
-5.433496	安慰
-5.433496	安打
-5.433496	安排
-5.433496	安插
-5.433496	安撫
-5.433496	安曼
-5.433496	安樂
-5.433496	安泰
-5.275057	安理會
-5.433496	安眠藥
-5.433496	安穩
-5.433496	安置
-5.433496	安葬
-3.884957	安裝	-0.3406664
-5.433496	安逸
-5.433496	安靈
-5.433496	安靜
-5.433496	安非他命
-5.433496	安頓
-5.433496	安養
-4.101735	宋	-0.3660906
-5.433496	宋詞
-3.474718	完	-0.3853005
-4.712932	完了	-0.1861704
-5.433496	完事
-5.433496	完備
-3.58777	完全	-0.2682087
-5.433496	完善
-5.433496	完好
-5.433496	完完全全
-5.433496	完工
-3.228229	完成	-0.4366234
-4.347039	完整	-0.379356
-4.207293	完畢	-0.244501
-5.433496	完美
-5.433496	完蛋
-3.914374	宏	-0.1721955
-5.433496	宏亮
-5.433496	宏偉壯觀
-5.433496	宏揚
-3.683716	宗	-0.2570672
-5.433496	宗人
-5.433496	宗師
-5.433496	宗教
-5.433496	宗旨
-3.16422	官	-0.483937
-5.433496	官人
-5.433496	官僚
-5.433496	官兵
-5.433496	官司
-5.433496	官名
-5.433496	官吏
-5.433496	官員
-5.433496	官商勾結
-4.271569	官方	-0.1949841
-5.433496	官架子
-5.433496	官校
-5.433496	官樣文章
-5.433496	官股
-5.433496	官能
-5.433496	官銜
-3.11323	定	-0.4050106
-5.433496	定下
-5.433496	定位
-5.433496	定價
-5.433496	定力
-5.433496	定向
-5.433496	定在
-5.433496	定奪
-5.163539	定存	-0.2001756
-5.433496	定局
-5.433496	定居
-5.433496	定性
-5.433496	定時
-5.433496	定時炸彈
-5.433496	定期
-5.433496	定本
-5.433496	定案
-5.433496	定然
-4.965303	定義	-0.3490792
-5.433496	定規
-5.433496	定論
-5.433496	定讞
-5.433496	定點
-5.433496	宛如
-5.433496	宛若
-3.432591	宜	-0.5477067
-5.433496	宜人
-5.433496	宜蘭縣
-3.303331	客	-0.4672773
-5.433496	客人
-5.433496	客家
-5.433496	客家人
-5.275057	客廳	-0.1990398
-5.433496	客戶
-5.433496	客籍
-5.433496	客觀
-5.433496	客運
-3.240953	宣	-0.7462013
-5.433496	宣傳
-5.433496	宣傳車
-5.433496	宣判
-5.433496	宣告
-5.433496	宣和
-5.433496	宣導
-5.433496	宣布
-5.433496	宣戰
-5.433496	宣洩
-5.433496	宣示
-5.433496	宣稱
-5.433496	宣言
-5.433496	宣講
-5.433496	宣讀
-3.509233	室	-0.4449175
-5.433496	室人
-5.433496	室內
-5.433496	室內樂
-5.433496	室友
-5.433496	室外
-5.275057	宥	-0.2101953
-3.807053	宮	-0.2529317
-5.433496	宮女
-5.433496	宮殿
-4.151315	宰	-0.293452
-5.433496	宰制
-5.433496	宰割
-5.433496	宰殺
-3.509233	害	-0.4916329
-5.433496	害人害己
-5.433496	害心
-5.433496	害怕
-5.433496	害民
-5.433496	害羞
-5.433496	害群之馬
-4.151315	宴	-0.3180328
-5.433496	宴客
-5.433496	宴會
-5.433496	宴請
-4.554352	宵	-0.6097189
-5.433496	宵小
-2.771513	家	-0.4717763
-5.433496	家世
-5.433496	家主
-5.433496	家人
-5.433496	家來
-5.433496	家公
-5.433496	家具
-5.433496	家務
-5.433496	家去
-5.433496	家商
-5.433496	家喻戶曉
-5.433496	家園
-5.433496	家堂
-5.433496	家學
-5.433496	家客
-5.433496	家家戶戶
-5.433496	家居
-5.433496	家屬
-5.433496	家庭
-5.433496	家庭主婦
-5.433496	家庭教育
-5.433496	家庭訪問
-5.433496	家慶
-5.433496	家政
-5.433496	家數
-5.433496	家族
-5.433496	家父
-5.433496	家產
-5.433496	家用
-5.433496	家用電腦
-5.433496	家畜
-5.433496	家當
-5.433496	家的
-5.433496	家眷
-5.433496	家禽
-5.433496	家裡
-5.433496	家計
-5.433496	家鄉
-5.433496	家長
-5.433496	家門
-4.554352	家電	-0.201949
-3.49742	容	-0.426725
-5.433496	容不下
-5.433496	容器
-5.433496	容忍
-3.741021	容易	-0.4035452
-5.433496	容留
-5.433496	容納
-4.554352	容許	-0.1974087
-5.433496	容量
-4.05724	宿	-0.4082795
-5.433496	宿命
-5.433496	宿舍
-4.554352	寂	-0.3370193
-4.712932	寂寞	-0.1942617
-5.433496	寂寥
-3.66618	寄	-0.2350463
-5.433496	寄予
-5.433496	寄人籬下
-5.433496	寄存
-5.433496	寄宿
-5.433496	寄放
-5.433496	寄望
-5.433496	寄生蟲
-5.433496	寄發
-5.433496	寄託
-3.394192	密	-0.458654
-3.884957	密切	-0.5306957
-5.433496	密地
-5.433496	密報
-5.433496	密室
-5.275057	密密	-0.1993921
-5.433496	密實
-5.433496	密封
-5.433496	密度
-5.433496	密探
-5.433496	密爾
-5.433496	密碼
-5.433496	密約
-5.433496	密訪
-5.433496	密閉
-5.433496	密集
-5.275057	寇	-0.2110154
-3.58777	富	-0.3158571
-5.433496	富可敵國
-5.433496	富商
-5.433496	富家
-5.433496	富強康樂
-5.433496	富有
-5.433496	富源
-5.433496	富翁
-5.433496	富裕
-5.433496	富豪
-5.433496	富貴
-5.433496	富麗堂皇
-4.016882	寒	-0.2605821
-5.433496	寒冬
-5.433496	寒冷
-5.433496	寒微
-5.433496	寒心
-5.433496	寒暄
-5.433496	寒流
-5.433496	寒風
-4.965303	寓	-0.2197927
-5.433496	寓所
-4.05724	察	-0.4652067
-5.433496	察覺
-5.433496	寡女
-5.433496	寡將
-5.433496	寡母
-5.433496	寢室
-5.433496	寥寥
-2.992241	實	-0.5399095
-5.433496	實力
-5.433496	實務
-3.761936	實在	-0.4230882
-5.433496	實地
-5.433496	實情
-5.433496	實惠
-5.433496	實戶
-5.433496	實收
-5.433496	實施
-5.433496	實業
-5.433496	實況
-4.207293	實現	-0.5680748
-5.433496	實用
-5.433496	實至名歸
-5.433496	實行
-5.433496	實質
-5.433496	實踐
-3.741021	實際	-0.3317696
-4.965303	實驗	-0.1970284
-5.433496	實體
-3.979959	寧	-0.3925855
-4.712932	寧可	-0.1980563
-5.433496	寧靜
-5.433496	寧願
-4.965303	寨	-0.1980312
-5.433496	寨子
-3.367468	審	-0.5858721
-5.433496	審判
-5.433496	審判長
-5.433496	審慎
-5.433496	審查
-5.433496	審核
-5.433496	審理
-5.433496	審稿
-5.433496	審美
-5.433496	審視
-5.433496	審計
-5.433496	審議
-3.403478	寫	-0.3503827
-5.433496	寫作
-5.433496	寫信
-5.433496	寫字
-5.433496	寫實
-5.433496	寫意
-5.275057	寫法	-0.2001629
-5.433496	寫生
-5.433496	寫稿
-3.761936	寬	-0.4140495
-5.433496	寬廣
-5.433496	寬心
-5.433496	寬恕
-5.433496	寬敞
-5.433496	寬闊
-5.433496	寬鬆
-4.101735	寮	-0.2616338
-5.275057	寰	-0.2086324
-4.712932	寵	-0.2461493
-5.433496	寵兒
-5.433496	寵愛
-5.433496	寵物
-3.412967	寶	-0.2728369
-5.433496	寶坊
-5.433496	寶寶
-5.433496	寶山
-5.433496	寶島
-5.433496	寶座
-5.433496	寶物
-5.433496	寶玉
-5.433496	寶相
-5.433496	寶石
-5.433496	寶藍色
-5.433496	寶貝
-5.433496	寶貴
-4.554352	寸	-0.2025825
-5.433496	寸步難行
-4.05724	寺	-0.2320821
-5.433496	寺廟
-3.521375	封	-0.3822819
-5.433496	封住
-5.433496	封包
-5.433496	封殺
-5.433496	封港
-5.433496	封鎖
-5.433496	封鎖現場
-5.433496	封閉
-5.433496	封關
-5.433496	封面
-3.617458	射	-0.3045599
-5.433496	射手
-5.433496	射擊
-5.433496	射殺
-5.433496	射箭
-5.433496	射頻
-2.563253	將	-0.2224275
-5.433496	將事
-3.979959	將來	-0.2485086
-5.433496	將出
-5.433496	將命
-5.433496	將官
-5.433496	將就
-5.433496	將帶
-5.433496	將晚
-5.433496	將次
-5.433496	將為
-5.433496	將無
-5.433496	將艾
-5.433496	將要
-5.433496	將軍
-4.712932	將近	-0.1983918
-5.433496	將領
-2.992241	專	-0.5904788
-5.433496	專人
-5.433496	專任
-5.433496	專利
-5.433496	專制
-5.433496	專司
-5.433496	專員
-5.433496	專家
-5.433496	專心
-5.433496	專戶
-5.433496	專才
-5.433496	專校
-5.433496	專案
-5.433496	專案小組
-5.433496	專業
-5.433496	專業人員
-5.433496	專業區
-5.433496	專機
-5.433496	專橫
-5.433496	專櫃
-5.433496	專欄
-5.433496	專款
-5.433496	專注
-5.433496	專用
-5.433496	專科
-5.433496	專科學校
-5.433496	專程
-5.433496	專精
-5.433496	專線
-5.433496	專職
-5.433496	專訪
-5.433496	專論
-5.433496	專責
-5.433496	專賣店
-5.433496	專輯
-5.433496	專長
-4.965303	專門	-0.1967078
-5.163539	專題	-0.3415957
-3.485921	尊	-0.7565244
-5.433496	尊嚴
-5.433496	尊崇
-5.433496	尊師重道
-5.433496	尊敬
-5.433496	尊稱
-5.433496	尊重
-3.559983	尋	-0.572679
-5.433496	尋常
-5.433496	尋找
-5.433496	尋求
-5.433496	尋獲
-5.433496	尋繹
-5.433496	尋覓
-2.693527	對	-0.2711353
-5.275057	對上	-0.1990955
-5.433496	對不是
-5.275057	對不起	-0.2109004
-5.163539	對付	-0.1989386
-5.433496	對分
-5.433496	對子
-5.433496	對岸
-5.433496	對峙
-5.433496	對待
-5.433496	對得起
-5.163539	對應	-0.2678352
-5.433496	對手
-5.433496	對抗
-3.70199	對方	-0.2547887
-3.546728	對於	-0.2431268
-5.433496	對比
-5.433496	對決
-5.433496	對流
-5.275057	對準	-0.199318
-5.433496	對照
-5.433496	對症下藥
-5.433496	對立
-4.965303	對等	-0.2784195
-5.433496	對策
-4.271569	對話	-0.5216225
-5.163539	對談	-0.1977272
-5.433496	對象
-5.433496	對質
-5.275057	對面	-0.1993328
-3.546728	導	-0.3349288
-5.433496	導向
-5.433496	導師
-5.433496	導引
-5.433496	導正
-5.433496	導演
-4.016882	導致	-0.1840708
-5.163539	導航	-0.2108411
-5.433496	導遊
-2.815263	小	-0.4020399
-5.433496	小丑
-5.433496	小事
-5.433496	小人
-5.433496	小伙子
-5.433496	小便
-5.433496	小倆口
-5.433496	小偷
-5.433496	小公
-5.433496	小冊子
-5.433496	小利
-5.433496	小劇場
-5.433496	小動作
-5.433496	小叔
-5.433496	小可
-5.433496	小吃
-5.433496	小吏
-5.433496	小型
-5.433496	小型股
-5.433496	小夜曲
-5.433496	小女
-5.433496	小妹
-5.433496	小姐
-5.433496	小姑
-5.433496	小孩
-4.347039	小學	-0.3691566
-5.433496	小學生
-5.433496	小官
-5.433496	小客車
-5.433496	小將
-5.163539	小小	-0.2540672
-5.433496	小巫見大巫
-5.433496	小市民
-5.433496	小平頭
-5.433496	小康
-5.433496	小弟
-4.05724	小心	-0.2385646
-5.433496	小心謹慎
-5.433496	小意思
-5.275057	小我	-0.1885137
-5.433496	小手
-5.433496	小抄
-3.807053	小時	-0.4192359
-5.433496	小時候
-5.433496	小曲
-5.433496	小月
-5.433496	小校
-5.433496	小毛頭
-5.433496	小球
-5.433496	小生
-4.151315	小的	-0.3483461
-5.433496	小看
-5.433496	小站
-5.433496	小童
-5.433496	小紅
-5.433496	小組
-5.433496	小耳朵
-5.433496	小腿
-5.433496	小至
-5.433496	小菜
-5.433496	小說
-5.433496	小說家
-5.433496	小貨車
-5.433496	小販
-5.433496	小過年
-5.433496	小量
-5.433496	小鈔
-5.433496	小隊
-5.433496	小題大作
-5.433496	小額
-5.433496	小鬼頭
-3.422668	少	-0.4563603
-5.275057	少不了	-0.1928519
-5.433496	少女
-5.433496	少年
-5.433496	少年法庭
-5.433496	少年犯罪
-5.433496	少康
-4.05724	少數	-0.1785972
-5.433496	少時
-4.271569	少有	-0.2763098
-5.433496	少見
-4.965303	少量	-0.198274
-4.016882	尖	-0.3435356
-5.433496	尖兵
-5.433496	尖刀
-5.433496	尖叫
-5.433496	尖峰
-5.433496	尖峰時間
-5.163539	尖銳	-0.198883
-3.367468	尚	-0.4152131
-5.433496	尚且
-5.433496	尚佳
-5.433496	尚可
-5.433496	尚志
-3.3851	尚未	-0.2555754
-3.979959	尤	-0.5041694
-5.163539	尤其	-0.5182471
-2.787124	就	-0.2867586
-5.433496	就中
-5.433496	就任
-5.433496	就使
-5.433496	就和
-5.433496	就地
-5.163539	就學	-0.1959094
-5.433496	就得
-3.453144	就是	-0.2352605
-5.433496	就業
-5.433496	就此
-5.433496	就此打住
-4.965303	就算	-0.1965717
-5.433496	就範
-5.433496	就緒
-5.433496	就職
-4.438441	就要	-0.2853157
-5.433496	就診
-4.554352	就讀	-0.1921397
-5.433496	就近
-5.433496	就醫
-4.712932	尷尬	-0.1878297
-5.275057	尹	-0.1990139
-4.207293	尺	-0.3690818
-5.433496	尺五
-5.433496	尺寸
-5.433496	尺碼
-3.914374	尼	-0.332183
-5.433496	尼泊爾
-3.70199	尾	-0.2648727
-5.433496	尾款
-5.433496	尾隨
-4.554352	尿	-0.2077561
-5.433496	尿液
-3.076352	局	-0.4098302
-5.433496	局勢
-5.433496	局外
-5.433496	局部
-5.433496	局面
-4.965303	屁	-0.1938751
-3.209816	居	-0.5122435
-5.433496	居中
-5.433496	居住
-5.433496	居住環境
-5.433496	居功
-5.433496	居士
-5.433496	居多
-5.433496	居家
-5.433496	居心
-5.433496	居心叵測
-5.433496	居所
-5.433496	居正
-5.433496	居民
-5.275057	居然	-0.1993365
-5.433496	居留
-5.433496	居第
-5.433496	居處
-5.433496	居間
-5.433496	居首
-5.433496	居高不下
-5.433496	居高臨下
-3.783909	屆	-0.5050642
-5.433496	屆時
-5.433496	屆滿
-5.433496	屈辱
-3.573654	屋	-0.334013
-5.433496	屋主
-5.433496	屋子
-5.433496	屋頂
-3.914374	屍	-0.3457657
-5.433496	屍骨
-5.433496	屍骨無存
-5.433496	屍體
-5.433496	屎
-3.884957	屏	-0.595292
-5.433496	屏東市
-5.433496	屏東縣
-5.433496	屏障
-5.433496	屏風
-4.712932	屑	-0.1925833
-3.281527	展	-0.5611479
-5.433496	展出
-5.433496	展售
-5.433496	展延
-5.433496	展望
-5.433496	展現
-4.438441	展示	-0.183481
-5.433496	展翅
-5.433496	展覽
-5.433496	展覽會
-3.509233	展開	-0.2434019
-5.433496	展露
-5.433496	屠宰場
-5.433496	屠宰稅
-5.433496	屠殺
-3.857407	屢	-0.2885245
-5.433496	屢屢
-5.433496	屢次
-5.433496	屢見不鮮
-3.485921	層	-0.3747863
-5.433496	層出不窮
-5.433496	層層
-5.433496	層峰
-5.433496	層樓
-4.554352	層次	-0.2320777
-5.433496	層級
-5.433496	層面
-5.163539	履	-0.4750825
-3.350524	屬	-0.2252426
-5.433496	屬下
-5.433496	屬員
-5.433496	屬地
-5.433496	屬實
-5.433496	屬性
-5.433496	屬意
-3.94593	屬於	-0.1925603
-4.965303	屯	-0.4049339
-3.076352	山	-0.2658779
-5.433496	山人
-5.433496	山勢
-5.433496	山區
