~o
<STREAMINFO> 1 1
<VECSIZE> 1<NULLD><USER><DIAGC>
~s "ST_sil_2_1"
<NUMMIXES> 1
<MIXTURE> 1 1.000000e+00
<MEAN> 1
 0.000000e+00
<VARIANCE> 1
 1.000000e+00
<GCONST> 1.837877e+00
~s "ST_sil_3_1"
<NUMMIXES> 1
<MIXTURE> 1 1.000000e+00
<MEAN> 1
 0.000000e+00
<VARIANCE> 1
 1.000000e+00
<GCONST> 1.837877e+00
~s "ST_sil_4_1"
<NUMMIXES> 1
<MIXTURE> 1 1.000000e+00
<MEAN> 1
 0.000000e+00
<VARIANCE> 1
 1.000000e+00
<GCONST> 1.837877e+00
~s "ST_CH_@_2_17"
<NUMMIXES> 1
<MIXTURE> 1 1.000000e+00
<MEAN> 1
 0.000000e+00
<VARIANCE> 1
 1.000000e+00
<GCONST> 1.837877e+00
~s "ST_CH_@_2_45"
<NUMMIXES> 1
<MIXTURE> 1 1.000000e+00
<MEAN> 1
 0.000000e+00
<VARIANCE> 1
 1.000000e+00
<GCONST> 1.837877e+00
~s "ST_CH_#_2_32"
<NUMMIXES> 1
<MIXTURE> 1 1.000000e+00
<MEAN> 1
 0.000000e+00
<VARIANCE> 1
 1.000000e+00
<GCONST> 1.837877e+00
~s "ST_CH_#_2_33"
<NUMMIXES> 1
<MIXTURE> 1 1.000000e+00
<MEAN> 1
 0.000000e+00
<VARIANCE> 1
 1.000000e+00
<GCONST> 1.837877e+00
~s "ST_CH_@c_2_2"
<NUMMIXES> 1
<MIXTURE> 1 1.000000e+00
<MEAN> 1
 0.000000e+00
<VARIANCE> 1
 1.000000e+00
<GCONST> 1.837877e+00
~s "ST_CH_@c_2_1"
<NUMMIXES> 1
<MIXTURE> 1 1.000000e+00
<MEAN> 1
 0.000000e+00
<VARIANCE> 1
 1.000000e+00
<GCONST> 1.837877e+00
~s "ST_CH_E_2_11"
<NUMMIXES> 1
<MIXTURE> 1 1.000000e+00
<MEAN> 1
 0.000000e+00
<VARIANCE> 1
 1.000000e+00
<GCONST> 1.837877e+00
~s "ST_CH_N#_2_13"
<NUMMIXES> 1
<MIXTURE> 1 1.000000e+00
<MEAN> 1
 0.000000e+00
<VARIANCE> 1
 1.000000e+00
<GCONST> 1.837877e+00
~s "ST_CH_N#_2_10"
<NUMMIXES> 1
<MIXTURE> 1 1.000000e+00
<MEAN> 1
 0.000000e+00
<VARIANCE> 1
 1.000000e+00
<GCONST> 1.837877e+00
~s "ST_CH_N#_2_12"
<NUMMIXES> 1
<MIXTURE> 1 1.000000e+00
<MEAN> 1
 0.000000e+00
<VARIANCE> 1
 1.000000e+00
<GCONST> 1.837877e+00
~s "ST_CH_N#_2_15"
<NUMMIXES> 1
<MIXTURE> 1 1.000000e+00
<MEAN> 1
 0.000000e+00
<VARIANCE> 1
 1.000000e+00
<GCONST> 1.837877e+00
~s "ST_CH_N#_2_14"
<NUMMIXES> 1
<MIXTURE> 1 1.000000e+00
<MEAN> 1
 0.000000e+00
<VARIANCE> 1
 1.000000e+00
<GCONST> 1.837877e+00
~s "ST_CH_N#_2_11"
<NUMMIXES> 1
<MIXTURE> 1 1.000000e+00
<MEAN> 1
 0.000000e+00
<VARIANCE> 1
 1.000000e+00
<GCONST> 1.837877e+00
~s "ST_CH_N#_2_16"
<NUMMIXES> 1
<MIXTURE> 1 1.000000e+00
<MEAN> 1
 0.000000e+00
<VARIANCE> 1
 1.000000e+00
<GCONST> 1.837877e+00
~s "ST_CH_U_2_2"
<NUMMIXES> 1
<MIXTURE> 1 1.000000e+00
<MEAN> 1
 0.000000e+00
<VARIANCE> 1
 1.000000e+00
<GCONST> 1.837877e+00
~s "ST_CH_U_2_1"
<NUMMIXES> 1
<MIXTURE> 1 1.000000e+00
<MEAN> 1
 0.000000e+00
<VARIANCE> 1
 1.000000e+00
<GCONST> 1.837877e+00
~s "ST_CH_Uc_2_7"
<NUMMIXES> 1
<MIXTURE> 1 1.000000e+00
<MEAN> 1
 0.000000e+00
<VARIANCE> 1
 1.000000e+00
<GCONST> 1.837877e+00
~s "ST_CH_Uc_2_6"
<NUMMIXES> 1
<MIXTURE> 1 1.000000e+00
<MEAN> 1
 0.000000e+00
<VARIANCE> 1
 1.000000e+00
<GCONST> 1.837877e+00
~s "ST_CH_Zc_2_5"
<NUMMIXES> 1
<MIXTURE> 1 1.000000e+00
<MEAN> 1
 0.000000e+00
<VARIANCE> 1
 1.000000e+00
<GCONST> 1.837877e+00
~s "ST_CH_Zc_2_13"
<NUMMIXES> 1
<MIXTURE> 1 1.000000e+00
<MEAN> 1
 0.000000e+00
<VARIANCE> 1
 1.000000e+00
<GCONST> 1.837877e+00
~s "ST_CH_Zc_2_14"
<NUMMIXES> 1
<MIXTURE> 1 1.000000e+00
<MEAN> 1
 0.000000e+00
<VARIANCE> 1
 1.000000e+00
<GCONST> 1.837877e+00
~s "ST_CH_Zc_2_6"
<NUMMIXES> 1
<MIXTURE> 1 1.000000e+00
<MEAN> 1
 0.000000e+00
<VARIANCE> 1
 1.000000e+00
<GCONST> 1.837877e+00
~s "ST_CH_Zc_2_15"
<NUMMIXES> 1
<MIXTURE> 1 1.000000e+00
<MEAN> 1
 0.000000e+00
<VARIANCE> 1
 1.000000e+00
<GCONST> 1.837877e+00
~s "ST_CH_Zc_2_3"
<NUMMIXES> 1
<MIXTURE> 1 1.000000e+00
<MEAN> 1
 0.000000e+00
<VARIANCE> 1
 1.000000e+00
<GCONST> 1.837877e+00
~s "ST_CH_Zc_2_9"
<NUMMIXES> 1
<MIXTURE> 1 1.000000e+00
<MEAN> 1
 0.000000e+00
<VARIANCE> 1
 1.000000e+00
<GCONST> 1.837877e+00
~s "ST_CH_Zc_2_7"
<NUMMIXES> 1
<MIXTURE> 1 1.000000e+00
<MEAN> 1
 0.000000e+00
<VARIANCE> 1
 1.000000e+00
<GCONST> 1.837877e+00
~s "ST_CH_Zc_2_4"
<NUMMIXES> 1
<MIXTURE> 1 1.000000e+00
<MEAN> 1
 0.000000e+00
<VARIANCE> 1
 1.000000e+00
<GCONST> 1.837877e+00
~s "ST_CH_Zc_2_16"
<NUMMIXES> 1
<MIXTURE> 1 1.000000e+00
<MEAN> 1
 0.000000e+00
<VARIANCE> 1
 1.000000e+00
<GCONST> 1.837877e+00
~s "ST_CH_Zc_2_8"
<NUMMIXES> 1
<MIXTURE> 1 1.000000e+00
<MEAN> 1
 0.000000e+00
<VARIANCE> 1
 1.000000e+00
<GCONST> 1.837877e+00
~s "ST_CH_Zc_2_12"
<NUMMIXES> 1
<MIXTURE> 1 1.000000e+00
<MEAN> 1
 0.000000e+00
<VARIANCE> 1
 1.000000e+00
<GCONST> 1.837877e+00
~s "ST_CH_a_2_13"
<NUMMIXES> 1
<MIXTURE> 1 1.000000e+00
<MEAN> 1
 0.000000e+00
<VARIANCE> 1
 1.000000e+00
<GCONST> 1.837877e+00
~s "ST_CH_b_2_4"
<NUMMIXES> 1
<MIXTURE> 1 1.000000e+00
<MEAN> 1
 0.000000e+00
<VARIANCE> 1
 1.000000e+00
<GCONST> 1.837877e+00
~s "ST_CH_b_2_9"
<NUMMIXES> 1
<MIXTURE> 1 1.000000e+00
<MEAN> 1
 0.000000e+00
<VARIANCE> 1
 1.000000e+00
<GCONST> 1.837877e+00
~s "ST_CH_b_2_3"
<NUMMIXES> 1
<MIXTURE> 1 1.000000e+00
<MEAN> 1
 0.000000e+00
<VARIANCE> 1
 1.000000e+00
<GCONST> 1.837877e+00
~s "ST_CH_d_2_4"
<NUMMIXES> 1
<MIXTURE> 1 1.000000e+00
<MEAN> 1
 0.000000e+00
<VARIANCE> 1
 1.000000e+00
<GCONST> 1.837877e+00
~s "ST_CH_d_2_5"
<NUMMIXES> 1
<MIXTURE> 1 1.000000e+00
<MEAN> 1
 0.000000e+00
<VARIANCE> 1
 1.000000e+00
<GCONST> 1.837877e+00
~s "ST_CH_d_2_3"
<NUMMIXES> 1
<MIXTURE> 1 1.000000e+00
<MEAN> 1
 0.000000e+00
<VARIANCE> 1
 1.000000e+00
<GCONST> 1.837877e+00
~s "ST_CH_dz_2_5"
<NUMMIXES> 1
<MIXTURE> 1 1.000000e+00
<MEAN> 1
 0.000000e+00
<VARIANCE> 1
 1.000000e+00
<GCONST> 1.837877e+00
~s "ST_CH_dz_2_7"
<NUMMIXES> 1
<MIXTURE> 1 1.000000e+00
<MEAN> 1
 0.000000e+00
<VARIANCE> 1
 1.000000e+00
<GCONST> 1.837877e+00
~s "ST_CH_dz_2_9"
<NUMMIXES> 1
<MIXTURE> 1 1.000000e+00
<MEAN> 1
 0.000000e+00
<VARIANCE> 1
 1.000000e+00
<GCONST> 1.837877e+00
~s "ST_CH_dz_2_4"
<NUMMIXES> 1
<MIXTURE> 1 1.000000e+00
<MEAN> 1
 0.000000e+00
<VARIANCE> 1
 1.000000e+00
<GCONST> 1.837877e+00
~s "ST_CH_dz_2_3"
<NUMMIXES> 1
<MIXTURE> 1 1.000000e+00
<MEAN> 1
 0.000000e+00
<VARIANCE> 1
 1.000000e+00
<GCONST> 1.837877e+00
~s "ST_CH_dz_2_6"
<NUMMIXES> 1
<MIXTURE> 1 1.000000e+00
<MEAN> 1
 0.000000e+00
<VARIANCE> 1
 1.000000e+00
<GCONST> 1.837877e+00
~s "ST_CH_dzc_2_3"
<NUMMIXES> 1
<MIXTURE> 1 1.000000e+00
<MEAN> 1
 0.000000e+00
<VARIANCE> 1
 1.000000e+00
<GCONST> 1.837877e+00
~s "ST_CH_dzi_2_5"
<NUMMIXES> 1
<MIXTURE> 1 1.000000e+00
<MEAN> 1
 0.000000e+00
<VARIANCE> 1
 1.000000e+00
<GCONST> 1.837877e+00
~s "ST_CH_dzi_2_4"
<NUMMIXES> 1
<MIXTURE> 1 1.000000e+00
<MEAN> 1
 0.000000e+00
<VARIANCE> 1
 1.000000e+00
<GCONST> 1.837877e+00
~s "ST_CH_e_2_6"
<NUMMIXES> 1
<MIXTURE> 1 1.000000e+00
<MEAN> 1
 0.000000e+00
<VARIANCE> 1
 1.000000e+00
<GCONST> 1.837877e+00
~s "ST_CH_f_2_4"
<NUMMIXES> 1
<MIXTURE> 1 1.000000e+00
<MEAN> 1
 0.000000e+00
<VARIANCE> 1
 1.000000e+00
<GCONST> 1.837877e+00
~s "ST_CH_f_2_5"
<NUMMIXES> 1
<MIXTURE> 1 1.000000e+00
<MEAN> 1
 0.000000e+00
<VARIANCE> 1
 1.000000e+00
<GCONST> 1.837877e+00
~s "ST_CH_f_2_3"
<NUMMIXES> 1
<MIXTURE> 1 1.000000e+00
<MEAN> 1
 0.000000e+00
<VARIANCE> 1
 1.000000e+00
<GCONST> 1.837877e+00
~s "ST_CH_f_2_1"
<NUMMIXES> 1
<MIXTURE> 1 1.000000e+00
<MEAN> 1
 0.000000e+00
<VARIANCE> 1
 1.000000e+00
<GCONST> 1.837877e+00
~s "ST_CH_f_2_7"
<NUMMIXES> 1
<MIXTURE> 1 1.000000e+00
<MEAN> 1
 0.000000e+00
<VARIANCE> 1
 1.000000e+00
<GCONST> 1.837877e+00
~s "ST_CH_f_2_2"
<NUMMIXES> 1
<MIXTURE> 1 1.000000e+00
<MEAN> 1
 0.000000e+00
<VARIANCE> 1
 1.000000e+00
<GCONST> 1.837877e+00
~s "ST_CH_f_2_6"
<NUMMIXES> 1
<MIXTURE> 1 1.000000e+00
<MEAN> 1
 0.000000e+00
<VARIANCE> 1
 1.000000e+00
<GCONST> 1.837877e+00
~s "ST_CH_g_2_4"
<NUMMIXES> 1
<MIXTURE> 1 1.000000e+00
<MEAN> 1
 0.000000e+00
<VARIANCE> 1
 1.000000e+00
<GCONST> 1.837877e+00
~s "ST_CH_g_2_5"
<NUMMIXES> 1
<MIXTURE> 1 1.000000e+00
<MEAN> 1
 0.000000e+00
<VARIANCE> 1
 1.000000e+00
<GCONST> 1.837877e+00
~s "ST_CH_h_2_6"
<NUMMIXES> 1
<MIXTURE> 1 1.000000e+00
<MEAN> 1
 0.000000e+00
<VARIANCE> 1
 1.000000e+00
<GCONST> 1.837877e+00
~s "ST_CH_h_2_10"
<NUMMIXES> 1
<MIXTURE> 1 1.000000e+00
<MEAN> 1
 0.000000e+00
<VARIANCE> 1
 1.000000e+00
<GCONST> 1.837877e+00
~s "ST_CH_h_2_8"
<NUMMIXES> 1
<MIXTURE> 1 1.000000e+00
<MEAN> 1
 0.000000e+00
<VARIANCE> 1
 1.000000e+00
<GCONST> 1.837877e+00
~s "ST_CH_h_2_2"
<NUMMIXES> 1
<MIXTURE> 1 1.000000e+00
<MEAN> 1
 0.000000e+00
<VARIANCE> 1
 1.000000e+00
<GCONST> 1.837877e+00
~s "ST_CH_h_2_14"
<NUMMIXES> 1
<MIXTURE> 1 1.000000e+00
<MEAN> 1
 0.000000e+00
<VARIANCE> 1
 1.000000e+00
<GCONST> 1.837877e+00
~s "ST_CH_h_2_4"
<NUMMIXES> 1
<MIXTURE> 1 1.000000e+00
<MEAN> 1
 0.000000e+00
<VARIANCE> 1
 1.000000e+00
<GCONST> 1.837877e+00
~s "ST_CH_h_2_9"
<NUMMIXES> 1
<MIXTURE> 1 1.000000e+00
<MEAN> 1
 0.000000e+00
<VARIANCE> 1
 1.000000e+00
<GCONST> 1.837877e+00
~s "ST_CH_i_2_21"
<NUMMIXES> 1
<MIXTURE> 1 1.000000e+00
<MEAN> 1
 0.000000e+00
<VARIANCE> 1
 1.000000e+00
<GCONST> 1.837877e+00
~s "ST_CH_i_2_63"
<NUMMIXES> 1
<MIXTURE> 1 1.000000e+00
<MEAN> 1
 0.000000e+00
<VARIANCE> 1
 1.000000e+00
<GCONST> 1.837877e+00
~s "ST_CH_i_2_13"
<NUMMIXES> 1
<MIXTURE> 1 1.000000e+00
<MEAN> 1
 0.000000e+00
<VARIANCE> 1
 1.000000e+00
<GCONST> 1.837877e+00
~s "ST_CH_k_2_5"
<NUMMIXES> 1
<MIXTURE> 1 1.000000e+00
<MEAN> 1
 0.000000e+00
<VARIANCE> 1
 1.000000e+00
<GCONST> 1.837877e+00
~s "ST_CH_k_2_3"
<NUMMIXES> 1
<MIXTURE> 1 1.000000e+00
<MEAN> 1
 0.000000e+00
<VARIANCE> 1
 1.000000e+00
<GCONST> 1.837877e+00
~s "ST_CH_k_2_4"
<NUMMIXES> 1
<MIXTURE> 1 1.000000e+00
<MEAN> 1
 0.000000e+00
<VARIANCE> 1
 1.000000e+00
<GCONST> 1.837877e+00
~s "ST_CH_k_2_7"
<NUMMIXES> 1
<MIXTURE> 1 1.000000e+00
<MEAN> 1
 0.000000e+00
<VARIANCE> 1
 1.000000e+00
<GCONST> 1.837877e+00
~s "ST_CH_k_2_2"
<NUMMIXES> 1
<MIXTURE> 1 1.000000e+00
<MEAN> 1
 0.000000e+00
<VARIANCE> 1
 1.000000e+00
<GCONST> 1.837877e+00
~s "ST_CH_k_2_6"
<NUMMIXES> 1
<MIXTURE> 1 1.000000e+00
<MEAN> 1
 0.000000e+00
<VARIANCE> 1
 1.000000e+00
<GCONST> 1.837877e+00
~s "ST_CH_k_2_1"
<NUMMIXES> 1
<MIXTURE> 1 1.000000e+00
<MEAN> 1
 0.000000e+00
<VARIANCE> 1
 1.000000e+00
<GCONST> 1.837877e+00
~s "ST_CH_k_2_8"
<NUMMIXES> 1
<MIXTURE> 1 1.000000e+00
<MEAN> 1
 0.000000e+00
<VARIANCE> 1
 1.000000e+00
<GCONST> 1.837877e+00
~s "ST_CH_l_2_15"
<NUMMIXES> 1
<MIXTURE> 1 1.000000e+00
<MEAN> 1
 0.000000e+00
<VARIANCE> 1
 1.000000e+00
<GCONST> 1.837877e+00
~s "ST_CH_m_2_4"
<NUMMIXES> 1
<MIXTURE> 1 1.000000e+00
<MEAN> 1
 0.000000e+00
<VARIANCE> 1
 1.000000e+00
<GCONST> 1.837877e+00
~s "ST_CH_m_2_7"
<NUMMIXES> 1
<MIXTURE> 1 1.000000e+00
<MEAN> 1
 0.000000e+00
<VARIANCE> 1
 1.000000e+00
<GCONST> 1.837877e+00
~s "ST_CH_m_2_8"
<NUMMIXES> 1
<MIXTURE> 1 1.000000e+00
<MEAN> 1
 0.000000e+00
<VARIANCE> 1
 1.000000e+00
<GCONST> 1.837877e+00
~s "ST_CH_m_2_10"
<NUMMIXES> 1
<MIXTURE> 1 1.000000e+00
<MEAN> 1
 0.000000e+00
<VARIANCE> 1
 1.000000e+00
<GCONST> 1.837877e+00
~s "ST_CH_m_2_5"
<NUMMIXES> 1
<MIXTURE> 1 1.000000e+00
<MEAN> 1
 0.000000e+00
<VARIANCE> 1
 1.000000e+00
<GCONST> 1.837877e+00
~s "ST_CH_m_2_9"
<NUMMIXES> 1
<MIXTURE> 1 1.000000e+00
<MEAN> 1
 0.000000e+00
<VARIANCE> 1
 1.000000e+00
<GCONST> 1.837877e+00
~s "ST_CH_m_2_3"
<NUMMIXES> 1
<MIXTURE> 1 1.000000e+00
<MEAN> 1
 0.000000e+00
<VARIANCE> 1
 1.000000e+00
<GCONST> 1.837877e+00
~s "ST_CH_m_2_2"
<NUMMIXES> 1
<MIXTURE> 1 1.000000e+00
<MEAN> 1
 0.000000e+00
<VARIANCE> 1
 1.000000e+00
<GCONST> 1.837877e+00
~s "ST_CH_n_2_7"
<NUMMIXES> 1
<MIXTURE> 1 1.000000e+00
<MEAN> 1
 0.000000e+00
<VARIANCE> 1
 1.000000e+00
<GCONST> 1.837877e+00
~s "ST_CH_n_2_4"
<NUMMIXES> 1
<MIXTURE> 1 1.000000e+00
<MEAN> 1
 0.000000e+00
<VARIANCE> 1
 1.000000e+00
<GCONST> 1.837877e+00
~s "ST_CH_n_2_5"
<NUMMIXES> 1
<MIXTURE> 1 1.000000e+00
<MEAN> 1
 0.000000e+00
<VARIANCE> 1
 1.000000e+00
<GCONST> 1.837877e+00
~s "ST_CH_n_2_6"
<NUMMIXES> 1
<MIXTURE> 1 1.000000e+00
<MEAN> 1
 0.000000e+00
<VARIANCE> 1
 1.000000e+00
<GCONST> 1.837877e+00
~s "ST_CH_n#_2_11"
<NUMMIXES> 1
<MIXTURE> 1 1.000000e+00
<MEAN> 1
 0.000000e+00
<VARIANCE> 1
 1.000000e+00
<GCONST> 1.837877e+00
~s "ST_CH_n#_2_24"
<NUMMIXES> 1
<MIXTURE> 1 1.000000e+00
<MEAN> 1
 0.000000e+00
<VARIANCE> 1
 1.000000e+00
<GCONST> 1.837877e+00
~s "ST_CH_o_2_26"
<NUMMIXES> 1
<MIXTURE> 1 1.000000e+00
<MEAN> 1
 0.000000e+00
<VARIANCE> 1
 1.000000e+00
<GCONST> 1.837877e+00
~s "ST_CH_o_2_28"
<NUMMIXES> 1
<MIXTURE> 1 1.000000e+00
<MEAN> 1
 0.000000e+00
<VARIANCE> 1
 1.000000e+00
<GCONST> 1.837877e+00
~s "ST_CH_o_2_21"
<NUMMIXES> 1
<MIXTURE> 1 1.000000e+00
<MEAN> 1
 0.000000e+00
<VARIANCE> 1
 1.000000e+00
<GCONST> 1.837877e+00
~s "ST_CH_o_2_23"
<NUMMIXES> 1
<MIXTURE> 1 1.000000e+00
<MEAN> 1
 0.000000e+00
<VARIANCE> 1
 1.000000e+00
<GCONST> 1.837877e+00
~s "ST_CH_o_2_25"
<NUMMIXES> 1
<MIXTURE> 1 1.000000e+00
<MEAN> 1
 0.000000e+00
<VARIANCE> 1
 1.000000e+00
<GCONST> 1.837877e+00
~s "ST_CH_o_2_27"
<NUMMIXES> 1
<MIXTURE> 1 1.000000e+00
<MEAN> 1
 0.000000e+00
<VARIANCE> 1
 1.000000e+00
<GCONST> 1.837877e+00
~s "ST_CH_o_2_22"
<NUMMIXES> 1
<MIXTURE> 1 1.000000e+00
<MEAN> 1
 0.000000e+00
<VARIANCE> 1
 1.000000e+00
<GCONST> 1.837877e+00
~s "ST_CH_o_2_24"
<NUMMIXES> 1
<MIXTURE> 1 1.000000e+00
<MEAN> 1
 0.000000e+00
<VARIANCE> 1
 1.000000e+00
<GCONST> 1.837877e+00
~s "ST_CH_p_2_3"
<NUMMIXES> 1
<MIXTURE> 1 1.000000e+00
<MEAN> 1
 0.000000e+00
<VARIANCE> 1
 1.000000e+00
<GCONST> 1.837877e+00
~s "ST_CH_p_2_1"
<NUMMIXES> 1
<MIXTURE> 1 1.000000e+00
<MEAN> 1
 0.000000e+00
<VARIANCE> 1
 1.000000e+00
<GCONST> 1.837877e+00
~s "ST_CH_p_2_2"
<NUMMIXES> 1
<MIXTURE> 1 1.000000e+00
<MEAN> 1
 0.000000e+00
<VARIANCE> 1
 1.000000e+00
<GCONST> 1.837877e+00
~s "ST_CH_p_2_4"
<NUMMIXES> 1
<MIXTURE> 1 1.000000e+00
<MEAN> 1
 0.000000e+00
<VARIANCE> 1
 1.000000e+00
<GCONST> 1.837877e+00
~s "ST_CH_s_2_6"
<NUMMIXES> 1
<MIXTURE> 1 1.000000e+00
<MEAN> 1
 0.000000e+00
<VARIANCE> 1
 1.000000e+00
<GCONST> 1.837877e+00
~s "ST_CH_s_2_4"
<NUMMIXES> 1
<MIXTURE> 1 1.000000e+00
<MEAN> 1
 0.000000e+00
<VARIANCE> 1
 1.000000e+00
<GCONST> 1.837877e+00
~s "ST_CH_s_2_2"
<NUMMIXES> 1
<MIXTURE> 1 1.000000e+00
<MEAN> 1
 0.000000e+00
<VARIANCE> 1
 1.000000e+00
<GCONST> 1.837877e+00
~s "ST_CH_s_2_3"
<NUMMIXES> 1
<MIXTURE> 1 1.000000e+00
<MEAN> 1
 0.000000e+00
<VARIANCE> 1
 1.000000e+00
<GCONST> 1.837877e+00
~s "ST_CH_s_2_8"
<NUMMIXES> 1
<MIXTURE> 1 1.000000e+00
<MEAN> 1
 0.000000e+00
<VARIANCE> 1
 1.000000e+00
<GCONST> 1.837877e+00
~s "ST_CH_s_2_5"
<NUMMIXES> 1
<MIXTURE> 1 1.000000e+00
<MEAN> 1
 0.000000e+00
<VARIANCE> 1
 1.000000e+00
<GCONST> 1.837877e+00
~s "ST_CH_sc_2_13"
<NUMMIXES> 1
<MIXTURE> 1 1.000000e+00
<MEAN> 1
 0.000000e+00
<VARIANCE> 1
 1.000000e+00
<GCONST> 1.837877e+00
~s "ST_CH_sc_2_14"
<NUMMIXES> 1
<MIXTURE> 1 1.000000e+00
<MEAN> 1
 0.000000e+00
<VARIANCE> 1
 1.000000e+00
<GCONST> 1.837877e+00
~s "ST_CH_sc_2_11"
<NUMMIXES> 1
<MIXTURE> 1 1.000000e+00
<MEAN> 1
 0.000000e+00
<VARIANCE> 1
 1.000000e+00
<GCONST> 1.837877e+00
~s "ST_CH_sc_2_9"
<NUMMIXES> 1
<MIXTURE> 1 1.000000e+00
<MEAN> 1
 0.000000e+00
<VARIANCE> 1
 1.000000e+00
<GCONST> 1.837877e+00
~s "ST_CH_sc_2_18"
<NUMMIXES> 1
<MIXTURE> 1 1.000000e+00
<MEAN> 1
 0.000000e+00
<VARIANCE> 1
 1.000000e+00
<GCONST> 1.837877e+00
~s "ST_CH_sc_2_5"
<NUMMIXES> 1
<MIXTURE> 1 1.000000e+00
<MEAN> 1
 0.000000e+00
<VARIANCE> 1
 1.000000e+00
<GCONST> 1.837877e+00
~s "ST_CH_sc_2_20"
<NUMMIXES> 1
<MIXTURE> 1 1.000000e+00
<MEAN> 1
 0.000000e+00
<VARIANCE> 1
 1.000000e+00
<GCONST> 1.837877e+00
~s "ST_CH_sc_2_8"
<NUMMIXES> 1
<MIXTURE> 1 1.000000e+00
<MEAN> 1
 0.000000e+00
<VARIANCE> 1
 1.000000e+00
<GCONST> 1.837877e+00
~s "ST_CH_sc_2_6"
<NUMMIXES> 1
<MIXTURE> 1 1.000000e+00
<MEAN> 1
 0.000000e+00
<VARIANCE> 1
 1.000000e+00
<GCONST> 1.837877e+00
~s "ST_CH_sc_2_19"
<NUMMIXES> 1
<MIXTURE> 1 1.000000e+00
<MEAN> 1
 0.000000e+00
<VARIANCE> 1
 1.000000e+00
<GCONST> 1.837877e+00
~s "ST_CH_si_2_16"
<NUMMIXES> 1
<MIXTURE> 1 1.000000e+00
<MEAN> 1
 0.000000e+00
<VARIANCE> 1
 1.000000e+00
<GCONST> 1.837877e+00
~s "ST_CH_si_2_15"
<NUMMIXES> 1
<MIXTURE> 1 1.000000e+00
<MEAN> 1
 0.000000e+00
<VARIANCE> 1
 1.000000e+00
<GCONST> 1.837877e+00
~s "ST_CH_t_2_4"
<NUMMIXES> 1
<MIXTURE> 1 1.000000e+00
<MEAN> 1
 0.000000e+00
<VARIANCE> 1
 1.000000e+00
<GCONST> 1.837877e+00
~s "ST_CH_t_2_3"
<NUMMIXES> 1
<MIXTURE> 1 1.000000e+00
<MEAN> 1
 0.000000e+00
<VARIANCE> 1
 1.000000e+00
<GCONST> 1.837877e+00
~s "ST_CH_ts_2_3"
<NUMMIXES> 1
<MIXTURE> 1 1.000000e+00
<MEAN> 1
 0.000000e+00
<VARIANCE> 1
 1.000000e+00
<GCONST> 1.837877e+00
~s "ST_CH_ts_2_5"
<NUMMIXES> 1
<MIXTURE> 1 1.000000e+00
<MEAN> 1
 0.000000e+00
<VARIANCE> 1
 1.000000e+00
<GCONST> 1.837877e+00
~s "ST_CH_ts_2_4"
<NUMMIXES> 1
<MIXTURE> 1 1.000000e+00
<MEAN> 1
 0.000000e+00
<VARIANCE> 1
 1.000000e+00
<GCONST> 1.837877e+00
~s "ST_CH_ts_2_1"
<NUMMIXES> 1
<MIXTURE> 1 1.000000e+00
<MEAN> 1
 0.000000e+00
<VARIANCE> 1
 1.000000e+00
<GCONST> 1.837877e+00
~s "ST_CH_ts_2_2"
<NUMMIXES> 1
<MIXTURE> 1 1.000000e+00
<MEAN> 1
 0.000000e+00
<VARIANCE> 1
 1.000000e+00
<GCONST> 1.837877e+00
~s "ST_CH_ts_2_6"
<NUMMIXES> 1
<MIXTURE> 1 1.000000e+00
<MEAN> 1
 0.000000e+00
<VARIANCE> 1
 1.000000e+00
<GCONST> 1.837877e+00
~s "ST_CH_tsc_2_4"
<NUMMIXES> 1
<MIXTURE> 1 1.000000e+00
<MEAN> 1
 0.000000e+00
<VARIANCE> 1
 1.000000e+00
<GCONST> 1.837877e+00
~s "ST_CH_tsc_2_5"
<NUMMIXES> 1
<MIXTURE> 1 1.000000e+00
<MEAN> 1
 0.000000e+00
<VARIANCE> 1
 1.000000e+00
<GCONST> 1.837877e+00
~s "ST_CH_tsc_2_6"
<NUMMIXES> 1
<MIXTURE> 1 1.000000e+00
<MEAN> 1
 0.000000e+00
<VARIANCE> 1
 1.000000e+00
<GCONST> 1.837877e+00
~s "ST_CH_tsc_2_1"
<NUMMIXES> 1
<MIXTURE> 1 1.000000e+00
<MEAN> 1
 0.000000e+00
<VARIANCE> 1
 1.000000e+00
<GCONST> 1.837877e+00
~s "ST_CH_tsc_2_2"
<NUMMIXES> 1
<MIXTURE> 1 1.000000e+00
<MEAN> 1
 0.000000e+00
<VARIANCE> 1
 1.000000e+00
<GCONST> 1.837877e+00
~s "ST_CH_tsc_2_7"
<NUMMIXES> 1
<MIXTURE> 1 1.000000e+00
<MEAN> 1
 0.000000e+00
<VARIANCE> 1
 1.000000e+00
<GCONST> 1.837877e+00
~s "ST_CH_tsc_2_3"
<NUMMIXES> 1
<MIXTURE> 1 1.000000e+00
<MEAN> 1
 0.000000e+00
<VARIANCE> 1
 1.000000e+00
<GCONST> 1.837877e+00
~s "ST_CH_tsc_2_8"
<NUMMIXES> 1
<MIXTURE> 1 1.000000e+00
<MEAN> 1
 0.000000e+00
<VARIANCE> 1
 1.000000e+00
<GCONST> 1.837877e+00
~s "ST_CH_tsi_2_6"
<NUMMIXES> 1
<MIXTURE> 1 1.000000e+00
<MEAN> 1
 0.000000e+00
<VARIANCE> 1
 1.000000e+00
<GCONST> 1.837877e+00
~s "ST_CH_tsi_2_11"
<NUMMIXES> 1
<MIXTURE> 1 1.000000e+00
<MEAN> 1
 0.000000e+00
<VARIANCE> 1
 1.000000e+00
<GCONST> 1.837877e+00
~s "ST_CH_tsi_2_2"
<NUMMIXES> 1
<MIXTURE> 1 1.000000e+00
<MEAN> 1
 0.000000e+00
<VARIANCE> 1
 1.000000e+00
<GCONST> 1.837877e+00
~s "ST_CH_tsi_2_4"
<NUMMIXES> 1
<MIXTURE> 1 1.000000e+00
<MEAN> 1
 0.000000e+00
<VARIANCE> 1
 1.000000e+00
<GCONST> 1.837877e+00
~s "ST_CH_u_2_26"
<NUMMIXES> 1
<MIXTURE> 1 1.000000e+00
<MEAN> 1
 0.000000e+00
<VARIANCE> 1
 1.000000e+00
<GCONST> 1.837877e+00
~s "ST_CH_u_2_29"
<NUMMIXES> 1
<MIXTURE> 1 1.000000e+00
<MEAN> 1
 0.000000e+00
<VARIANCE> 1
 1.000000e+00
<GCONST> 1.837877e+00
~s "ST_CH_u_2_22"
<NUMMIXES> 1
<MIXTURE> 1 1.000000e+00
<MEAN> 1
 0.000000e+00
<VARIANCE> 1
 1.000000e+00
<GCONST> 1.837877e+00
~s "ST_CH_u_2_28"
<NUMMIXES> 1
<MIXTURE> 1 1.000000e+00
<MEAN> 1
 0.000000e+00
<VARIANCE> 1
 1.000000e+00
<GCONST> 1.837877e+00
~s "ST_CH_u_2_24"
<NUMMIXES> 1
<MIXTURE> 1 1.000000e+00
<MEAN> 1
 0.000000e+00
<VARIANCE> 1
 1.000000e+00
<GCONST> 1.837877e+00
~s "ST_CH_u_2_25"
<NUMMIXES> 1
<MIXTURE> 1 1.000000e+00
<MEAN> 1
 0.000000e+00
<VARIANCE> 1
 1.000000e+00
<GCONST> 1.837877e+00
~s "ST_CH_u_2_23"
<NUMMIXES> 1
<MIXTURE> 1 1.000000e+00
<MEAN> 1
 0.000000e+00
<VARIANCE> 1
 1.000000e+00
<GCONST> 1.837877e+00
~s "ST_CH_u_2_27"
<NUMMIXES> 1
<MIXTURE> 1 1.000000e+00
<MEAN> 1
 0.000000e+00
<VARIANCE> 1
 1.000000e+00
<GCONST> 1.837877e+00
~s "ST_CH_y_2_6"
<NUMMIXES> 1
<MIXTURE> 1 1.000000e+00
<MEAN> 1
 0.000000e+00
<VARIANCE> 1
 1.000000e+00
<GCONST> 1.837877e+00
~s "ST_CH_y_2_8"
<NUMMIXES> 1
<MIXTURE> 1 1.000000e+00
<MEAN> 1
 0.000000e+00
<VARIANCE> 1
 1.000000e+00
<GCONST> 1.837877e+00
~s "ST_CH_a_3_31"
<NUMMIXES> 1
<MIXTURE> 1 1.000000e+00
<MEAN> 1
 0.000000e+00
<VARIANCE> 1
 1.000000e+00
<GCONST> 1.837877e+00
~s "ST_CH_Uc_4_11"
<NUMMIXES> 1
<MIXTURE> 1 1.000000e+00
<MEAN> 1
 0.000000e+00
<VARIANCE> 1
 1.000000e+00
<GCONST> 1.837877e+00
~s "ST_CH_Uc_4_12"
<NUMMIXES> 1
<MIXTURE> 1 1.000000e+00
<MEAN> 1
 0.000000e+00
<VARIANCE> 1
 1.000000e+00
<GCONST> 1.837877e+00
~s "ST_CH_Uc_4_9"
<NUMMIXES> 1
<MIXTURE> 1 1.000000e+00
<MEAN> 1
 0.000000e+00
<VARIANCE> 1
 1.000000e+00
<GCONST> 1.837877e+00
~s "ST_CH_Uc_4_20"
<NUMMIXES> 1
<MIXTURE> 1 1.000000e+00
<MEAN> 1
 0.000000e+00
<VARIANCE> 1
 1.000000e+00
<GCONST> 1.837877e+00
~s "ST_CH_Uc_4_10"
<NUMMIXES> 1
<MIXTURE> 1 1.000000e+00
<MEAN> 1
 0.000000e+00
<VARIANCE> 1
 1.000000e+00
<GCONST> 1.837877e+00
~s "ST_CH_Uc_4_8"
<NUMMIXES> 1
<MIXTURE> 1 1.000000e+00
<MEAN> 1
 0.000000e+00
<VARIANCE> 1
 1.000000e+00
<GCONST> 1.837877e+00
~s "ST_CH_Uc_4_4"
<NUMMIXES> 1
<MIXTURE> 1 1.000000e+00
<MEAN> 1
 0.000000e+00
<VARIANCE> 1
 1.000000e+00
<GCONST> 1.837877e+00
~s "ST_CH_Uc_4_23"
<NUMMIXES> 1
<MIXTURE> 1 1.000000e+00
<MEAN> 1
 0.000000e+00
<VARIANCE> 1
 1.000000e+00
<GCONST> 1.837877e+00
~s "ST_CH_Uc_4_17"
<NUMMIXES> 1
<MIXTURE> 1 1.000000e+00
<MEAN> 1
 0.000000e+00
<VARIANCE> 1
 1.000000e+00
<GCONST> 1.837877e+00
~s "ST_CH_Uc_4_6"
<NUMMIXES> 1
<MIXTURE> 1 1.000000e+00
<MEAN> 1
 0.000000e+00
<VARIANCE> 1
 1.000000e+00
<GCONST> 1.837877e+00
~s "ST_CH_Uc_4_7"
<NUMMIXES> 1
<MIXTURE> 1 1.000000e+00
<MEAN> 1
 0.000000e+00
<VARIANCE> 1
 1.000000e+00
<GCONST> 1.837877e+00
~s "ST_CH_Uc_4_16"
<NUMMIXES> 1
<MIXTURE> 1 1.000000e+00
<MEAN> 1
 0.000000e+00
<VARIANCE> 1
 1.000000e+00
<GCONST> 1.837877e+00
~s "ST_CH_Uc_4_21"
<NUMMIXES> 1
<MIXTURE> 1 1.000000e+00
<MEAN> 1
 0.000000e+00
<VARIANCE> 1
 1.000000e+00
<GCONST> 1.837877e+00
~s "ST_CH_Uc_4_13"
<NUMMIXES> 1
<MIXTURE> 1 1.000000e+00
<MEAN> 1
 0.000000e+00
<VARIANCE> 1
 1.000000e+00
<GCONST> 1.837877e+00
~s "ST_CH_i_2_14"
<NUMMIXES> 1
<MIXTURE> 1 1.000000e+00
<MEAN> 1
 0.000000e+00
<VARIANCE> 1
 1.000000e+00
<GCONST> 1.837877e+00
~s "ST_CH_i_2_12"
<NUMMIXES> 1
<MIXTURE> 1 1.000000e+00
<MEAN> 1
 0.000000e+00
<VARIANCE> 1
 1.000000e+00
<GCONST> 1.837877e+00
~s "ST_CH_i_2_15"
<NUMMIXES> 1
<MIXTURE> 1 1.000000e+00
<MEAN> 1
 0.000000e+00
<VARIANCE> 1
 1.000000e+00
<GCONST> 1.837877e+00
~s "ST_CH_i_2_16"
<NUMMIXES> 1
<MIXTURE> 1 1.000000e+00
<MEAN> 1
 0.000000e+00
<VARIANCE> 1
 1.000000e+00
<GCONST> 1.837877e+00
~s "ST_CH_i_2_18"
<NUMMIXES> 1
<MIXTURE> 1 1.000000e+00
<MEAN> 1
 0.000000e+00
<VARIANCE> 1
 1.000000e+00
<GCONST> 1.837877e+00
~s "ST_CH_i_2_19"
<NUMMIXES> 1
<MIXTURE> 1 1.000000e+00
<MEAN> 1
 0.000000e+00
<VARIANCE> 1
 1.000000e+00
<GCONST> 1.837877e+00
~s "ST_CH_a_4_27"
<NUMMIXES> 1
<MIXTURE> 1 1.000000e+00
<MEAN> 1
 0.000000e+00
<VARIANCE> 1
 1.000000e+00
<GCONST> 1.837877e+00
~s "ST_CH_a_4_32"
<NUMMIXES> 1
<MIXTURE> 1 1.000000e+00
<MEAN> 1
 0.000000e+00
<VARIANCE> 1
 1.000000e+00
<GCONST> 1.837877e+00
~s "ST_CH_a_4_30"
<NUMMIXES> 1
<MIXTURE> 1 1.000000e+00
<MEAN> 1
 0.000000e+00
<VARIANCE> 1
 1.000000e+00
<GCONST> 1.837877e+00
~s "ST_CH_a_4_23"
<NUMMIXES> 1
<MIXTURE> 1 1.000000e+00
<MEAN> 1
 0.000000e+00
<VARIANCE> 1
 1.000000e+00
<GCONST> 1.837877e+00
~s "ST_CH_a_4_19"
<NUMMIXES> 1
<MIXTURE> 1 1.000000e+00
<MEAN> 1
 0.000000e+00
<VARIANCE> 1
 1.000000e+00
<GCONST> 1.837877e+00
~s "ST_CH_a_4_5"
<NUMMIXES> 1
<MIXTURE> 1 1.000000e+00
<MEAN> 1
 0.000000e+00
<VARIANCE> 1
 1.000000e+00
<GCONST> 1.837877e+00
~s "ST_CH_a_4_21"
<NUMMIXES> 1
<MIXTURE> 1 1.000000e+00
<MEAN> 1
 0.000000e+00
<VARIANCE> 1
 1.000000e+00
<GCONST> 1.837877e+00
~s "ST_CH_dzi_4_2"
<NUMMIXES> 1
<MIXTURE> 1 1.000000e+00
<MEAN> 1
 0.000000e+00
<VARIANCE> 1
 1.000000e+00
<GCONST> 1.837877e+00
~s "ST_CH_d_4_7"
<NUMMIXES> 1
<MIXTURE> 1 1.000000e+00
<MEAN> 1
 0.000000e+00
<VARIANCE> 1
 1.000000e+00
<GCONST> 1.837877e+00
~s "ST_CH_d_4_9"
<NUMMIXES> 1
<MIXTURE> 1 1.000000e+00
<MEAN> 1
 0.000000e+00
<VARIANCE> 1
 1.000000e+00
<GCONST> 1.837877e+00
~s "ST_CH_d_4_2"
<NUMMIXES> 1
<MIXTURE> 1 1.000000e+00
<MEAN> 1
 0.000000e+00
<VARIANCE> 1
 1.000000e+00
<GCONST> 1.837877e+00
~s "ST_CH_e_4_6"
<NUMMIXES> 1
<MIXTURE> 1 1.000000e+00
<MEAN> 1
 0.000000e+00
<VARIANCE> 1
 1.000000e+00
<GCONST> 1.837877e+00
~s "ST_CH_i_4_30"
<NUMMIXES> 1
<MIXTURE> 1 1.000000e+00
<MEAN> 1
 0.000000e+00
<VARIANCE> 1
 1.000000e+00
<GCONST> 1.837877e+00
~s "ST_CH_i_4_29"
<NUMMIXES> 1
<MIXTURE> 1 1.000000e+00
<MEAN> 1
 0.000000e+00
<VARIANCE> 1
 1.000000e+00
<GCONST> 1.837877e+00
~s "ST_CH_i_4_23"
<NUMMIXES> 1
<MIXTURE> 1 1.000000e+00
<MEAN> 1
 0.000000e+00
<VARIANCE> 1
 1.000000e+00
<GCONST> 1.837877e+00
~s "ST_CH_i_4_27"
<NUMMIXES> 1
<MIXTURE> 1 1.000000e+00
<MEAN> 1
 0.000000e+00
<VARIANCE> 1
 1.000000e+00
<GCONST> 1.837877e+00
~s "ST_CH_i_4_41"
<NUMMIXES> 1
<MIXTURE> 1 1.000000e+00
<MEAN> 1
 0.000000e+00
<VARIANCE> 1
 1.000000e+00
<GCONST> 1.837877e+00
~s "ST_CH_i_4_28"
<NUMMIXES> 1
<MIXTURE> 1 1.000000e+00
<MEAN> 1
 0.000000e+00
<VARIANCE> 1
 1.000000e+00
<GCONST> 1.837877e+00
~s "ST_CH_i_4_26"
<NUMMIXES> 1
<MIXTURE> 1 1.000000e+00
<MEAN> 1
 0.000000e+00
<VARIANCE> 1
 1.000000e+00
<GCONST> 1.837877e+00
~s "ST_CH_i_4_31"
<NUMMIXES> 1
<MIXTURE> 1 1.000000e+00
<MEAN> 1
 0.000000e+00
<VARIANCE> 1
 1.000000e+00
<GCONST> 1.837877e+00
~s "ST_CH_i_4_43"
<NUMMIXES> 1
<MIXTURE> 1 1.000000e+00
<MEAN> 1
 0.000000e+00
<VARIANCE> 1
 1.000000e+00
<GCONST> 1.837877e+00
~s "ST_CH_@_3_11"
<NUMMIXES> 1
<MIXTURE> 1 1.000000e+00
<MEAN> 1
 0.000000e+00
<VARIANCE> 1
 1.000000e+00
<GCONST> 1.837877e+00
~s "ST_CH_Uc_3_4"
<NUMMIXES> 1
<MIXTURE> 1 1.000000e+00
<MEAN> 1
 0.000000e+00
<VARIANCE> 1
 1.000000e+00
<GCONST> 1.837877e+00
~s "ST_CH_E_3_6"
<NUMMIXES> 1
<MIXTURE> 1 1.000000e+00
<MEAN> 1
 0.000000e+00
<VARIANCE> 1
 1.000000e+00
<GCONST> 1.837877e+00
~s "ST_CH_E_3_9"
<NUMMIXES> 1
<MIXTURE> 1 1.000000e+00
<MEAN> 1
 0.000000e+00
<VARIANCE> 1
 1.000000e+00
<GCONST> 1.837877e+00
~s "ST_CH_E_3_4"
<NUMMIXES> 1
<MIXTURE> 1 1.000000e+00
<MEAN> 1
 0.000000e+00
<VARIANCE> 1
 1.000000e+00
<GCONST> 1.837877e+00
~s "ST_CH_E_3_7"
<NUMMIXES> 1
<MIXTURE> 1 1.000000e+00
<MEAN> 1
 0.000000e+00
<VARIANCE> 1
 1.000000e+00
<GCONST> 1.837877e+00
~s "ST_CH_E_3_11"
<NUMMIXES> 1
<MIXTURE> 1 1.000000e+00
<MEAN> 1
 0.000000e+00
<VARIANCE> 1
 1.000000e+00
<GCONST> 1.837877e+00
~s "ST_CH_E_3_8"
<NUMMIXES> 1
<MIXTURE> 1 1.000000e+00
<MEAN> 1
 0.000000e+00
<VARIANCE> 1
 1.000000e+00
<GCONST> 1.837877e+00
~s "ST_CH_u_4_40"
<NUMMIXES> 1
<MIXTURE> 1 1.000000e+00
<MEAN> 1
 0.000000e+00
<VARIANCE> 1
 1.000000e+00
<GCONST> 1.837877e+00
~s "ST_CH_u_4_50"
<NUMMIXES> 1
<MIXTURE> 1 1.000000e+00
<MEAN> 1
 0.000000e+00
<VARIANCE> 1
 1.000000e+00
<GCONST> 1.837877e+00
~s "ST_CH_u_4_54"
<NUMMIXES> 1
<MIXTURE> 1 1.000000e+00
<MEAN> 1
 0.000000e+00
<VARIANCE> 1
 1.000000e+00
<GCONST> 1.837877e+00
~s "ST_CH_u_4_42"
<NUMMIXES> 1
<MIXTURE> 1 1.000000e+00
<MEAN> 1
 0.000000e+00
<VARIANCE> 1
 1.000000e+00
<GCONST> 1.837877e+00
~s "ST_CH_u_4_18"
<NUMMIXES> 1
<MIXTURE> 1 1.000000e+00
<MEAN> 1
 0.000000e+00
<VARIANCE> 1
 1.000000e+00
<GCONST> 1.837877e+00
~s "ST_CH_u_4_34"
<NUMMIXES> 1
<MIXTURE> 1 1.000000e+00
<MEAN> 1
 0.000000e+00
<VARIANCE> 1
 1.000000e+00
<GCONST> 1.837877e+00
~s "ST_CH_i_2_29"
<NUMMIXES> 1
<MIXTURE> 1 1.000000e+00
<MEAN> 1
 0.000000e+00
<VARIANCE> 1
 1.000000e+00
<GCONST> 1.837877e+00
~s "ST_CH_i_2_28"
<NUMMIXES> 1
<MIXTURE> 1 1.000000e+00
<MEAN> 1
 0.000000e+00
<VARIANCE> 1
 1.000000e+00
<GCONST> 1.837877e+00
~s "ST_CH_i_2_20"
<NUMMIXES> 1
<MIXTURE> 1 1.000000e+00
<MEAN> 1
 0.000000e+00
<VARIANCE> 1
 1.000000e+00
<GCONST> 1.837877e+00
~s "ST_CH_i_2_27"
<NUMMIXES> 1
<MIXTURE> 1 1.000000e+00
<MEAN> 1
 0.000000e+00
<VARIANCE> 1
 1.000000e+00
<GCONST> 1.837877e+00
~s "ST_CH_i_2_23"
<NUMMIXES> 1
<MIXTURE> 1 1.000000e+00
<MEAN> 1
 0.000000e+00
<VARIANCE> 1
 1.000000e+00
<GCONST> 1.837877e+00
~s "ST_CH_i_2_26"
<NUMMIXES> 1
<MIXTURE> 1 1.000000e+00
<MEAN> 1
 0.000000e+00
<VARIANCE> 1
 1.000000e+00
<GCONST> 1.837877e+00
~s "ST_CH_i_2_24"
<NUMMIXES> 1
<MIXTURE> 1 1.000000e+00
<MEAN> 1
 0.000000e+00
<VARIANCE> 1
 1.000000e+00
<GCONST> 1.837877e+00
~s "ST_CH_i_2_22"
<NUMMIXES> 1
<MIXTURE> 1 1.000000e+00
<MEAN> 1
 0.000000e+00
<VARIANCE> 1
 1.000000e+00
<GCONST> 1.837877e+00
~s "ST_CH_si_3_4"
<NUMMIXES> 1
<MIXTURE> 1 1.000000e+00
<MEAN> 1
 0.000000e+00
<VARIANCE> 1
 1.000000e+00
<GCONST> 1.837877e+00
~s "ST_CH_si_3_7"
<NUMMIXES> 1
<MIXTURE> 1 1.000000e+00
<MEAN> 1
 0.000000e+00
<VARIANCE> 1
 1.000000e+00
<GCONST> 1.837877e+00
~s "ST_CH_si_3_2"
<NUMMIXES> 1
<MIXTURE> 1 1.000000e+00
<MEAN> 1
 0.000000e+00
<VARIANCE> 1
 1.000000e+00
<GCONST> 1.837877e+00
~s "ST_CH_si_4_2"
<NUMMIXES> 1
<MIXTURE> 1 1.000000e+00
<MEAN> 1
 0.000000e+00
<VARIANCE> 1
 1.000000e+00
<GCONST> 1.837877e+00
~s "ST_CH_u_3_35"
<NUMMIXES> 1
<MIXTURE> 1 1.000000e+00
<MEAN> 1
 0.000000e+00
<VARIANCE> 1
 1.000000e+00
<GCONST> 1.837877e+00
~s "ST_CH_u_3_57"
<NUMMIXES> 1
<MIXTURE> 1 1.000000e+00
<MEAN> 1
 0.000000e+00
<VARIANCE> 1
 1.000000e+00
<GCONST> 1.837877e+00
~s "ST_CH_u_3_62"
<NUMMIXES> 1
<MIXTURE> 1 1.000000e+00
<MEAN> 1
 0.000000e+00
<VARIANCE> 1
 1.000000e+00
<GCONST> 1.837877e+00
~s "ST_CH_u_3_39"
<NUMMIXES> 1
<MIXTURE> 1 1.000000e+00
<MEAN> 1
 0.000000e+00
<VARIANCE> 1
 1.000000e+00
<GCONST> 1.837877e+00
~s "ST_CH_u_3_22"
<NUMMIXES> 1
<MIXTURE> 1 1.000000e+00
<MEAN> 1
 0.000000e+00
<VARIANCE> 1
 1.000000e+00
<GCONST> 1.837877e+00
~s "ST_CH_u_3_71"
<NUMMIXES> 1
<MIXTURE> 1 1.000000e+00
<MEAN> 1
 0.000000e+00
<VARIANCE> 1
 1.000000e+00
<GCONST> 1.837877e+00
~s "ST_CH_u_3_11"
<NUMMIXES> 1
<MIXTURE> 1 1.000000e+00
<MEAN> 1
 0.000000e+00
<VARIANCE> 1
 1.000000e+00
<GCONST> 1.837877e+00
~s "ST_CH_dzc_4_5"
<NUMMIXES> 1
<MIXTURE> 1 1.000000e+00
<MEAN> 1
 0.000000e+00
<VARIANCE> 1
 1.000000e+00
<GCONST> 1.837877e+00
~s "ST_CH_dzi_3_5"
<NUMMIXES> 1
<MIXTURE> 1 1.000000e+00
<MEAN> 1
 0.000000e+00
<VARIANCE> 1
 1.000000e+00
<GCONST> 1.837877e+00
~s "ST_CH_dzi_3_2"
<NUMMIXES> 1
<MIXTURE> 1 1.000000e+00
<MEAN> 1
 0.000000e+00
<VARIANCE> 1
 1.000000e+00
<GCONST> 1.837877e+00
~s "ST_CH_N#_4_29"
<NUMMIXES> 1
<MIXTURE> 1 1.000000e+00
<MEAN> 1
 0.000000e+00
<VARIANCE> 1
 1.000000e+00
<GCONST> 1.837877e+00
~s "ST_CH_N#_4_28"
<NUMMIXES> 1
<MIXTURE> 1 1.000000e+00
<MEAN> 1
 0.000000e+00
<VARIANCE> 1
 1.000000e+00
<GCONST> 1.837877e+00
~s "ST_CH_N#_4_11"
<NUMMIXES> 1
<MIXTURE> 1 1.000000e+00
<MEAN> 1
 0.000000e+00
<VARIANCE> 1
 1.000000e+00
<GCONST> 1.837877e+00
~s "ST_CH_N#_4_10"
<NUMMIXES> 1
<MIXTURE> 1 1.000000e+00
<MEAN> 1
 0.000000e+00
<VARIANCE> 1
 1.000000e+00
<GCONST> 1.837877e+00
~s "ST_CH_N#_4_4"
<NUMMIXES> 1
<MIXTURE> 1 1.000000e+00
<MEAN> 1
 0.000000e+00
<VARIANCE> 1
 1.000000e+00
<GCONST> 1.837877e+00
~s "ST_CH_N#_4_21"
<NUMMIXES> 1
<MIXTURE> 1 1.000000e+00
<MEAN> 1
 0.000000e+00
<VARIANCE> 1
 1.000000e+00
<GCONST> 1.837877e+00
~s "ST_CH_N#_4_12"
<NUMMIXES> 1
<MIXTURE> 1 1.000000e+00
<MEAN> 1
 0.000000e+00
<VARIANCE> 1
 1.000000e+00
<GCONST> 1.837877e+00
~s "ST_CH_N#_4_31"
<NUMMIXES> 1
<MIXTURE> 1 1.000000e+00
<MEAN> 1
 0.000000e+00
<VARIANCE> 1
 1.000000e+00
<GCONST> 1.837877e+00
~s "ST_CH_N#_4_9"
<NUMMIXES> 1
<MIXTURE> 1 1.000000e+00
<MEAN> 1
 0.000000e+00
<VARIANCE> 1
 1.000000e+00
<GCONST> 1.837877e+00
~s "ST_CH_n#_3_26"
<NUMMIXES> 1
<MIXTURE> 1 1.000000e+00
<MEAN> 1
 0.000000e+00
<VARIANCE> 1
 1.000000e+00
<GCONST> 1.837877e+00
~s "ST_CH_n#_3_7"
<NUMMIXES> 1
<MIXTURE> 1 1.000000e+00
<MEAN> 1
 0.000000e+00
<VARIANCE> 1
 1.000000e+00
<GCONST> 1.837877e+00
~s "ST_CH_n#_3_18"
<NUMMIXES> 1
<MIXTURE> 1 1.000000e+00
<MEAN> 1
 0.000000e+00
<VARIANCE> 1
 1.000000e+00
<GCONST> 1.837877e+00
~s "ST_CH_n#_3_9"
<NUMMIXES> 1
<MIXTURE> 1 1.000000e+00
<MEAN> 1
 0.000000e+00
<VARIANCE> 1
 1.000000e+00
<GCONST> 1.837877e+00
~s "ST_CH_n#_3_8"
<NUMMIXES> 1
<MIXTURE> 1 1.000000e+00
<MEAN> 1
 0.000000e+00
<VARIANCE> 1
 1.000000e+00
<GCONST> 1.837877e+00
~s "ST_CH_n#_3_4"
<NUMMIXES> 1
<MIXTURE> 1 1.000000e+00
<MEAN> 1
 0.000000e+00
<VARIANCE> 1
 1.000000e+00
<GCONST> 1.837877e+00
~s "ST_CH_n#_3_21"
<NUMMIXES> 1
<MIXTURE> 1 1.000000e+00
<MEAN> 1
 0.000000e+00
<VARIANCE> 1
 1.000000e+00
<GCONST> 1.837877e+00
~s "ST_CH_n#_3_20"
<NUMMIXES> 1
<MIXTURE> 1 1.000000e+00
<MEAN> 1
 0.000000e+00
<VARIANCE> 1
 1.000000e+00
<GCONST> 1.837877e+00
~s "ST_CH_tsi_3_4"
<NUMMIXES> 1
<MIXTURE> 1 1.000000e+00
<MEAN> 1
 0.000000e+00
<VARIANCE> 1
 1.000000e+00
<GCONST> 1.837877e+00
~s "ST_CH_tsi_3_2"
<NUMMIXES> 1
<MIXTURE> 1 1.000000e+00
<MEAN> 1
 0.000000e+00
<VARIANCE> 1
 1.000000e+00
<GCONST> 1.837877e+00
~s "ST_CH_g_4_7"
<NUMMIXES> 1
<MIXTURE> 1 1.000000e+00
<MEAN> 1
 0.000000e+00
<VARIANCE> 1
 1.000000e+00
<GCONST> 1.837877e+00
~s "ST_CH_g_4_4"
<NUMMIXES> 1
<MIXTURE> 1 1.000000e+00
<MEAN> 1
 0.000000e+00
<VARIANCE> 1
 1.000000e+00
<GCONST> 1.837877e+00
~s "ST_CH_o_4_6"
<NUMMIXES> 1
<MIXTURE> 1 1.000000e+00
<MEAN> 1
 0.000000e+00
<VARIANCE> 1
 1.000000e+00
<GCONST> 1.837877e+00
~s "ST_CH_#_2_20"
<NUMMIXES> 1
<MIXTURE> 1 1.000000e+00
<MEAN> 1
 0.000000e+00
<VARIANCE> 1
 1.000000e+00
<GCONST> 1.837877e+00
~s "ST_CH_#_2_19"
<NUMMIXES> 1
<MIXTURE> 1 1.000000e+00
<MEAN> 1
 0.000000e+00
<VARIANCE> 1
 1.000000e+00
<GCONST> 1.837877e+00
~s "ST_CH_u_4_27"
<NUMMIXES> 1
<MIXTURE> 1 1.000000e+00
<MEAN> 1
 0.000000e+00
<VARIANCE> 1
 1.000000e+00
<GCONST> 1.837877e+00
~s "ST_CH_u_4_9"
<NUMMIXES> 1
<MIXTURE> 1 1.000000e+00
<MEAN> 1
 0.000000e+00
<VARIANCE> 1
 1.000000e+00
<GCONST> 1.837877e+00
~s "ST_CH_u_4_14"
<NUMMIXES> 1
<MIXTURE> 1 1.000000e+00
<MEAN> 1
 0.000000e+00
<VARIANCE> 1
 1.000000e+00
<GCONST> 1.837877e+00
~s "ST_CH_u_4_31"
<NUMMIXES> 1
<MIXTURE> 1 1.000000e+00
<MEAN> 1
 0.000000e+00
<VARIANCE> 1
 1.000000e+00
<GCONST> 1.837877e+00
~s "ST_CH_i_2_25"
<NUMMIXES> 1
<MIXTURE> 1 1.000000e+00
<MEAN> 1
 0.000000e+00
<VARIANCE> 1
 1.000000e+00
<GCONST> 1.837877e+00
~s "ST_CH_i_2_17"
<NUMMIXES> 1
<MIXTURE> 1 1.000000e+00
<MEAN> 1
 0.000000e+00
<VARIANCE> 1
 1.000000e+00
<GCONST> 1.837877e+00
~s "ST_CH_i_2_30"
<NUMMIXES> 1
<MIXTURE> 1 1.000000e+00
<MEAN> 1
 0.000000e+00
<VARIANCE> 1
 1.000000e+00
<GCONST> 1.837877e+00
~s "ST_CH_a_4_13"
<NUMMIXES> 1
<MIXTURE> 1 1.000000e+00
<MEAN> 1
 0.000000e+00
<VARIANCE> 1
 1.000000e+00
<GCONST> 1.837877e+00
~s "ST_CH_a_4_11"
<NUMMIXES> 1
<MIXTURE> 1 1.000000e+00
<MEAN> 1
 0.000000e+00
<VARIANCE> 1
 1.000000e+00
<GCONST> 1.837877e+00
~s "ST_CH_a_4_16"
<NUMMIXES> 1
<MIXTURE> 1 1.000000e+00
<MEAN> 1
 0.000000e+00
<VARIANCE> 1
 1.000000e+00
<GCONST> 1.837877e+00
~s "ST_CH_a_4_8"
<NUMMIXES> 1
<MIXTURE> 1 1.000000e+00
<MEAN> 1
 0.000000e+00
<VARIANCE> 1
 1.000000e+00
<GCONST> 1.837877e+00
~s "ST_CH_a_4_12"
<NUMMIXES> 1
<MIXTURE> 1 1.000000e+00
<MEAN> 1
 0.000000e+00
<VARIANCE> 1
 1.000000e+00
<GCONST> 1.837877e+00
~s "ST_CH_a_4_6"
<NUMMIXES> 1
<MIXTURE> 1 1.000000e+00
<MEAN> 1
 0.000000e+00
<VARIANCE> 1
 1.000000e+00
<GCONST> 1.837877e+00
~s "ST_CH_a_4_9"
<NUMMIXES> 1
<MIXTURE> 1 1.000000e+00
<MEAN> 1
 0.000000e+00
<VARIANCE> 1
 1.000000e+00
<GCONST> 1.837877e+00
~s "ST_CH_a_4_10"
<NUMMIXES> 1
<MIXTURE> 1 1.000000e+00
<MEAN> 1
 0.000000e+00
<VARIANCE> 1
 1.000000e+00
<GCONST> 1.837877e+00
~s "ST_CH_u_2_32"
<NUMMIXES> 1
<MIXTURE> 1 1.000000e+00
<MEAN> 1
 0.000000e+00
<VARIANCE> 1
 1.000000e+00
<GCONST> 1.837877e+00
~s "ST_CH_u_2_30"
<NUMMIXES> 1
<MIXTURE> 1 1.000000e+00
<MEAN> 1
 0.000000e+00
<VARIANCE> 1
 1.000000e+00
<GCONST> 1.837877e+00
~s "ST_CH_u_2_31"
<NUMMIXES> 1
<MIXTURE> 1 1.000000e+00
<MEAN> 1
 0.000000e+00
<VARIANCE> 1
 1.000000e+00
<GCONST> 1.837877e+00
~s "ST_CH_i_3_8"
<NUMMIXES> 1
<MIXTURE> 1 1.000000e+00
<MEAN> 1
 0.000000e+00
<VARIANCE> 1
 1.000000e+00
<GCONST> 1.837877e+00
~s "ST_CH_i_3_38"
<NUMMIXES> 1
<MIXTURE> 1 1.000000e+00
<MEAN> 1
 0.000000e+00
<VARIANCE> 1
 1.000000e+00
<GCONST> 1.837877e+00
~s "ST_CH_i_3_36"
<NUMMIXES> 1
<MIXTURE> 1 1.000000e+00
<MEAN> 1
 0.000000e+00
<VARIANCE> 1
 1.000000e+00
<GCONST> 1.837877e+00
~s "ST_CH_i_3_9"
<NUMMIXES> 1
<MIXTURE> 1 1.000000e+00
<MEAN> 1
 0.000000e+00
<VARIANCE> 1
 1.000000e+00
<GCONST> 1.837877e+00
~s "ST_CH_i_3_13"
<NUMMIXES> 1
<MIXTURE> 1 1.000000e+00
<MEAN> 1
 0.000000e+00
<VARIANCE> 1
 1.000000e+00
<GCONST> 1.837877e+00
~s "ST_CH_b_4_2"
<NUMMIXES> 1
<MIXTURE> 1 1.000000e+00
<MEAN> 1
 0.000000e+00
<VARIANCE> 1
 1.000000e+00
<GCONST> 1.837877e+00
~s "ST_CH_b_4_4"
<NUMMIXES> 1
<MIXTURE> 1 1.000000e+00
<MEAN> 1
 0.000000e+00
<VARIANCE> 1
 1.000000e+00
<GCONST> 1.837877e+00
~s "ST_CH_@_4_13"
<NUMMIXES> 1
<MIXTURE> 1 1.000000e+00
<MEAN> 1
 0.000000e+00
<VARIANCE> 1
 1.000000e+00
<GCONST> 1.837877e+00
~s "ST_CH_@_4_7"
<NUMMIXES> 1
<MIXTURE> 1 1.000000e+00
<MEAN> 1
 0.000000e+00
<VARIANCE> 1
 1.000000e+00
<GCONST> 1.837877e+00
~s "ST_CH_@_4_5"
<NUMMIXES> 1
<MIXTURE> 1 1.000000e+00
<MEAN> 1
 0.000000e+00
<VARIANCE> 1
 1.000000e+00
<GCONST> 1.837877e+00
~s "ST_CH_@_4_11"
<NUMMIXES> 1
<MIXTURE> 1 1.000000e+00
<MEAN> 1
 0.000000e+00
<VARIANCE> 1
 1.000000e+00
<GCONST> 1.837877e+00
~s "ST_CH_@_4_16"
<NUMMIXES> 1
<MIXTURE> 1 1.000000e+00
<MEAN> 1
 0.000000e+00
<VARIANCE> 1
 1.000000e+00
<GCONST> 1.837877e+00
~s "ST_CH_@_4_8"
<NUMMIXES> 1
<MIXTURE> 1 1.000000e+00
<MEAN> 1
 0.000000e+00
<VARIANCE> 1
 1.000000e+00
<GCONST> 1.837877e+00
~s "ST_CH_@_4_12"
<NUMMIXES> 1
<MIXTURE> 1 1.000000e+00
<MEAN> 1
 0.000000e+00
<VARIANCE> 1
 1.000000e+00
<GCONST> 1.837877e+00
~s "ST_CH_@_4_10"
<NUMMIXES> 1
<MIXTURE> 1 1.000000e+00
<MEAN> 1
 0.000000e+00
<VARIANCE> 1
 1.000000e+00
<GCONST> 1.837877e+00
~s "ST_CH_@_4_9"
<NUMMIXES> 1
<MIXTURE> 1 1.000000e+00
<MEAN> 1
 0.000000e+00
<VARIANCE> 1
 1.000000e+00
<GCONST> 1.837877e+00
~s "ST_CH_u_3_44"
<NUMMIXES> 1
<MIXTURE> 1 1.000000e+00
<MEAN> 1
 0.000000e+00
<VARIANCE> 1
 1.000000e+00
<GCONST> 1.837877e+00
~s "ST_CH_u_3_43"
<NUMMIXES> 1
<MIXTURE> 1 1.000000e+00
<MEAN> 1
 0.000000e+00
<VARIANCE> 1
 1.000000e+00
<GCONST> 1.837877e+00
~s "ST_CH_u_3_46"
<NUMMIXES> 1
<MIXTURE> 1 1.000000e+00
<MEAN> 1
 0.000000e+00
<VARIANCE> 1
 1.000000e+00
<GCONST> 1.837877e+00
~s "ST_CH_u_3_45"
<NUMMIXES> 1
<MIXTURE> 1 1.000000e+00
<MEAN> 1
 0.000000e+00
<VARIANCE> 1
 1.000000e+00
<GCONST> 1.837877e+00
~s "ST_CH_u_3_55"
<NUMMIXES> 1
<MIXTURE> 1 1.000000e+00
<MEAN> 1
 0.000000e+00
<VARIANCE> 1
 1.000000e+00
<GCONST> 1.837877e+00
~s "ST_CH_u_3_58"
<NUMMIXES> 1
<MIXTURE> 1 1.000000e+00
<MEAN> 1
 0.000000e+00
<VARIANCE> 1
 1.000000e+00
<GCONST> 1.837877e+00
~s "ST_CH_u_3_47"
<NUMMIXES> 1
<MIXTURE> 1 1.000000e+00
<MEAN> 1
 0.000000e+00
<VARIANCE> 1
 1.000000e+00
<GCONST> 1.837877e+00
~s "ST_CH_u_3_54"
<NUMMIXES> 1
<MIXTURE> 1 1.000000e+00
<MEAN> 1
 0.000000e+00
<VARIANCE> 1
 1.000000e+00
<GCONST> 1.837877e+00
~s "ST_CH_u_3_56"
<NUMMIXES> 1
<MIXTURE> 1 1.000000e+00
<MEAN> 1
 0.000000e+00
<VARIANCE> 1
 1.000000e+00
<GCONST> 1.837877e+00
~s "ST_CH_u_3_49"
<NUMMIXES> 1
<MIXTURE> 1 1.000000e+00
<MEAN> 1
 0.000000e+00
<VARIANCE> 1
 1.000000e+00
<GCONST> 1.837877e+00
~s "ST_CH_u_3_50"
<NUMMIXES> 1
<MIXTURE> 1 1.000000e+00
<MEAN> 1
 0.000000e+00
<VARIANCE> 1
 1.000000e+00
<GCONST> 1.837877e+00
~s "ST_CH_u_3_51"
<NUMMIXES> 1
<MIXTURE> 1 1.000000e+00
<MEAN> 1
 0.000000e+00
<VARIANCE> 1
 1.000000e+00
<GCONST> 1.837877e+00
~s "ST_CH_u_3_52"
<NUMMIXES> 1
<MIXTURE> 1 1.000000e+00
<MEAN> 1
 0.000000e+00
<VARIANCE> 1
 1.000000e+00
<GCONST> 1.837877e+00
~s "ST_CH_d_3_7"
<NUMMIXES> 1
<MIXTURE> 1 1.000000e+00
<MEAN> 1
 0.000000e+00
<VARIANCE> 1
 1.000000e+00
<GCONST> 1.837877e+00
~s "ST_CH_d_3_10"
<NUMMIXES> 1
<MIXTURE> 1 1.000000e+00
<MEAN> 1
 0.000000e+00
<VARIANCE> 1
 1.000000e+00
<GCONST> 1.837877e+00
~s "ST_CH_d_3_2"
<NUMMIXES> 1
<MIXTURE> 1 1.000000e+00
<MEAN> 1
 0.000000e+00
<VARIANCE> 1
 1.000000e+00
<GCONST> 1.837877e+00
~s "ST_CH_a_2_47"
<NUMMIXES> 1
<MIXTURE> 1 1.000000e+00
<MEAN> 1
 0.000000e+00
<VARIANCE> 1
 1.000000e+00
<GCONST> 1.837877e+00
~s "ST_CH_a_2_46"
<NUMMIXES> 1
<MIXTURE> 1 1.000000e+00
<MEAN> 1
 0.000000e+00
<VARIANCE> 1
 1.000000e+00
<GCONST> 1.837877e+00
~s "ST_CH_a_2_45"
<NUMMIXES> 1
<MIXTURE> 1 1.000000e+00
<MEAN> 1
 0.000000e+00
<VARIANCE> 1
 1.000000e+00
<GCONST> 1.837877e+00
~s "ST_CH_dz_4_4"
<NUMMIXES> 1
<MIXTURE> 1 1.000000e+00
<MEAN> 1
 0.000000e+00
<VARIANCE> 1
 1.000000e+00
<GCONST> 1.837877e+00
~s "ST_CH_dz_4_2"
<NUMMIXES> 1
<MIXTURE> 1 1.000000e+00
<MEAN> 1
 0.000000e+00
<VARIANCE> 1
 1.000000e+00
<GCONST> 1.837877e+00
~s "ST_CH_dz_4_5"
<NUMMIXES> 1
<MIXTURE> 1 1.000000e+00
<MEAN> 1
 0.000000e+00
<VARIANCE> 1
 1.000000e+00
<GCONST> 1.837877e+00
~s "ST_CH_i_4_34"
<NUMMIXES> 1
<MIXTURE> 1 1.000000e+00
<MEAN> 1
 0.000000e+00
<VARIANCE> 1
 1.000000e+00
<GCONST> 1.837877e+00
~s "ST_CH_i_4_51"
<NUMMIXES> 1
<MIXTURE> 1 1.000000e+00
<MEAN> 1
 0.000000e+00
<VARIANCE> 1
 1.000000e+00
<GCONST> 1.837877e+00
~s "ST_CH_i_4_25"
<NUMMIXES> 1
<MIXTURE> 1 1.000000e+00
<MEAN> 1
 0.000000e+00
<VARIANCE> 1
 1.000000e+00
<GCONST> 1.837877e+00
~s "ST_CH_#_2_24"
<NUMMIXES> 1
<MIXTURE> 1 1.000000e+00
<MEAN> 1
 0.000000e+00
<VARIANCE> 1
 1.000000e+00
<GCONST> 1.837877e+00
~s "ST_CH_#_3_16"
<NUMMIXES> 1
<MIXTURE> 1 1.000000e+00
<MEAN> 1
 0.000000e+00
<VARIANCE> 1
 1.000000e+00
<GCONST> 1.837877e+00
~s "ST_CH_o_2_6"
<NUMMIXES> 1
<MIXTURE> 1 1.000000e+00
<MEAN> 1
 0.000000e+00
<VARIANCE> 1
 1.000000e+00
<GCONST> 1.837877e+00
~s "ST_CH_o_3_5"
<NUMMIXES> 1
<MIXTURE> 1 1.000000e+00
<MEAN> 1
 0.000000e+00
<VARIANCE> 1
 1.000000e+00
<GCONST> 1.837877e+00
~s "ST_CH_a_4_35"
<NUMMIXES> 1
<MIXTURE> 1 1.000000e+00
<MEAN> 1
 0.000000e+00
<VARIANCE> 1
 1.000000e+00
<GCONST> 1.837877e+00
~s "ST_CH_a_4_25"
<NUMMIXES> 1
<MIXTURE> 1 1.000000e+00
<MEAN> 1
 0.000000e+00
<VARIANCE> 1
 1.000000e+00
<GCONST> 1.837877e+00
~s "ST_CH_a_4_20"
<NUMMIXES> 1
<MIXTURE> 1 1.000000e+00
<MEAN> 1
 0.000000e+00
<VARIANCE> 1
 1.000000e+00
<GCONST> 1.837877e+00
~s "ST_CH_a_4_22"
<NUMMIXES> 1
<MIXTURE> 1 1.000000e+00
<MEAN> 1
 0.000000e+00
<VARIANCE> 1
 1.000000e+00
<GCONST> 1.837877e+00
~s "ST_CH_a_4_28"
<NUMMIXES> 1
<MIXTURE> 1 1.000000e+00
<MEAN> 1
 0.000000e+00
<VARIANCE> 1
 1.000000e+00
<GCONST> 1.837877e+00
~s "ST_CH_a_4_15"
<NUMMIXES> 1
<MIXTURE> 1 1.000000e+00
<MEAN> 1
 0.000000e+00
<VARIANCE> 1
 1.000000e+00
<GCONST> 1.837877e+00
~s "ST_CH_a_4_3"
<NUMMIXES> 1
<MIXTURE> 1 1.000000e+00
<MEAN> 1
 0.000000e+00
<VARIANCE> 1
 1.000000e+00
<GCONST> 1.837877e+00
~s "ST_CH_a_4_7"
<NUMMIXES> 1
<MIXTURE> 1 1.000000e+00
<MEAN> 1
 0.000000e+00
<VARIANCE> 1
 1.000000e+00
<GCONST> 1.837877e+00
~s "ST_CH_a_4_14"
<NUMMIXES> 1
<MIXTURE> 1 1.000000e+00
<MEAN> 1
 0.000000e+00
<VARIANCE> 1
 1.000000e+00
<GCONST> 1.837877e+00
~s "ST_CH_dzc_3_6"
<NUMMIXES> 1
<MIXTURE> 1 1.000000e+00
<MEAN> 1
 0.000000e+00
<VARIANCE> 1
 1.000000e+00
<GCONST> 1.837877e+00
~s "ST_CH_dzc_3_5"
<NUMMIXES> 1
<MIXTURE> 1 1.000000e+00
<MEAN> 1
 0.000000e+00
<VARIANCE> 1
 1.000000e+00
<GCONST> 1.837877e+00
~s "ST_CH_dzc_3_7"
<NUMMIXES> 1
<MIXTURE> 1 1.000000e+00
<MEAN> 1
 0.000000e+00
<VARIANCE> 1
 1.000000e+00
<GCONST> 1.837877e+00
~s "ST_CH_y_3_8"
<NUMMIXES> 1
<MIXTURE> 1 1.000000e+00
<MEAN> 1
 0.000000e+00
<VARIANCE> 1
 1.000000e+00
<GCONST> 1.837877e+00
~s "ST_CH_N#_4_20"
<NUMMIXES> 1
<MIXTURE> 1 1.000000e+00
<MEAN> 1
 0.000000e+00
<VARIANCE> 1
 1.000000e+00
<GCONST> 1.837877e+00
~s "ST_CH_N#_4_15"
<NUMMIXES> 1
<MIXTURE> 1 1.000000e+00
<MEAN> 1
 0.000000e+00
<VARIANCE> 1
 1.000000e+00
<GCONST> 1.837877e+00
~s "ST_CH_N#_4_14"
<NUMMIXES> 1
<MIXTURE> 1 1.000000e+00
<MEAN> 1
 0.000000e+00
<VARIANCE> 1
 1.000000e+00
<GCONST> 1.837877e+00
~s "ST_CH_N#_4_3"
<NUMMIXES> 1
<MIXTURE> 1 1.000000e+00
<MEAN> 1
 0.000000e+00
<VARIANCE> 1
 1.000000e+00
<GCONST> 1.837877e+00
~s "ST_CH_N#_4_19"
<NUMMIXES> 1
<MIXTURE> 1 1.000000e+00
<MEAN> 1
 0.000000e+00
<VARIANCE> 1
 1.000000e+00
<GCONST> 1.837877e+00
~s "ST_CH_N#_4_2"
<NUMMIXES> 1
<MIXTURE> 1 1.000000e+00
<MEAN> 1
 0.000000e+00
<VARIANCE> 1
 1.000000e+00
<GCONST> 1.837877e+00
~s "ST_CH_N#_4_27"
<NUMMIXES> 1
<MIXTURE> 1 1.000000e+00
<MEAN> 1
 0.000000e+00
<VARIANCE> 1
 1.000000e+00
<GCONST> 1.837877e+00
~s "ST_CH_i_4_21"
<NUMMIXES> 1
<MIXTURE> 1 1.000000e+00
<MEAN> 1
 0.000000e+00
<VARIANCE> 1
 1.000000e+00
<GCONST> 1.837877e+00
~s "ST_CH_i_4_24"
<NUMMIXES> 1
<MIXTURE> 1 1.000000e+00
<MEAN> 1
 0.000000e+00
<VARIANCE> 1
 1.000000e+00
<GCONST> 1.837877e+00
~s "ST_CH_i_4_40"
<NUMMIXES> 1
<MIXTURE> 1 1.000000e+00
<MEAN> 1
 0.000000e+00
<VARIANCE> 1
 1.000000e+00
<GCONST> 1.837877e+00
~s "ST_CH_i_4_42"
<NUMMIXES> 1
<MIXTURE> 1 1.000000e+00
<MEAN> 1
 0.000000e+00
<VARIANCE> 1
 1.000000e+00
<GCONST> 1.837877e+00
~s "ST_CH_#_4_17"
<NUMMIXES> 1
<MIXTURE> 1 1.000000e+00
<MEAN> 1
 0.000000e+00
<VARIANCE> 1
 1.000000e+00
<GCONST> 1.837877e+00
~s "ST_CH_#_4_9"
<NUMMIXES> 1
<MIXTURE> 1 1.000000e+00
<MEAN> 1
 0.000000e+00
<VARIANCE> 1
 1.000000e+00
<GCONST> 1.837877e+00
~s "ST_CH_#_4_19"
<NUMMIXES> 1
<MIXTURE> 1 1.000000e+00
<MEAN> 1
 0.000000e+00
<VARIANCE> 1
 1.000000e+00
<GCONST> 1.837877e+00
~s "ST_CH_#_4_6"
<NUMMIXES> 1
<MIXTURE> 1 1.000000e+00
<MEAN> 1
 0.000000e+00
<VARIANCE> 1
 1.000000e+00
<GCONST> 1.837877e+00
~s "ST_CH_t_4_8"
<NUMMIXES> 1
<MIXTURE> 1 1.000000e+00
<MEAN> 1
 0.000000e+00
<VARIANCE> 1
 1.000000e+00
<GCONST> 1.837877e+00
~s "ST_CH_t_4_4"
<NUMMIXES> 1
<MIXTURE> 1 1.000000e+00
<MEAN> 1
 0.000000e+00
<VARIANCE> 1
 1.000000e+00
<GCONST> 1.837877e+00
~s "ST_CH_n#_3_12"
<NUMMIXES> 1
<MIXTURE> 1 1.000000e+00
<MEAN> 1
 0.000000e+00
<VARIANCE> 1
 1.000000e+00
<GCONST> 1.837877e+00
~s "ST_CH_n#_3_3"
<NUMMIXES> 1
<MIXTURE> 1 1.000000e+00
<MEAN> 1
 0.000000e+00
<VARIANCE> 1
 1.000000e+00
<GCONST> 1.837877e+00
~s "ST_CH_n#_3_25"
<NUMMIXES> 1
<MIXTURE> 1 1.000000e+00
<MEAN> 1
 0.000000e+00
<VARIANCE> 1
 1.000000e+00
<GCONST> 1.837877e+00
~s "ST_CH_o_4_12"
<NUMMIXES> 1
<MIXTURE> 1 1.000000e+00
<MEAN> 1
 0.000000e+00
<VARIANCE> 1
 1.000000e+00
<GCONST> 1.837877e+00
~s "ST_CH_o_4_2"
<NUMMIXES> 1
<MIXTURE> 1 1.000000e+00
<MEAN> 1
 0.000000e+00
<VARIANCE> 1
 1.000000e+00
<GCONST> 1.837877e+00
~s "ST_CH_o_4_13"
<NUMMIXES> 1
<MIXTURE> 1 1.000000e+00
<MEAN> 1
 0.000000e+00
<VARIANCE> 1
 1.000000e+00
<GCONST> 1.837877e+00
~s "ST_CH_o_4_5"
<NUMMIXES> 1
<MIXTURE> 1 1.000000e+00
<MEAN> 1
 0.000000e+00
<VARIANCE> 1
 1.000000e+00
<GCONST> 1.837877e+00
~s "ST_CH_tsc_4_3"
<NUMMIXES> 1
<MIXTURE> 1 1.000000e+00
<MEAN> 1
 0.000000e+00
<VARIANCE> 1
 1.000000e+00
<GCONST> 1.837877e+00
~s "ST_CH_b_3_8"
<NUMMIXES> 1
<MIXTURE> 1 1.000000e+00
<MEAN> 1
 0.000000e+00
<VARIANCE> 1
 1.000000e+00
<GCONST> 1.837877e+00
~s "ST_CH_b_3_6"
<NUMMIXES> 1
<MIXTURE> 1 1.000000e+00
<MEAN> 1
 0.000000e+00
<VARIANCE> 1
 1.000000e+00
<GCONST> 1.837877e+00
~s "ST_CH_b_3_3"
<NUMMIXES> 1
<MIXTURE> 1 1.000000e+00
<MEAN> 1
 0.000000e+00
<VARIANCE> 1
 1.000000e+00
<GCONST> 1.837877e+00
~s "ST_CH_N#_2_5"
<NUMMIXES> 1
<MIXTURE> 1 1.000000e+00
<MEAN> 1
 0.000000e+00
<VARIANCE> 1
 1.000000e+00
<GCONST> 1.837877e+00
~s "ST_CH_N#_2_8"
<NUMMIXES> 1
<MIXTURE> 1 1.000000e+00
<MEAN> 1
 0.000000e+00
<VARIANCE> 1
 1.000000e+00
<GCONST> 1.837877e+00
~s "ST_CH_N#_2_4"
<NUMMIXES> 1
<MIXTURE> 1 1.000000e+00
<MEAN> 1
 0.000000e+00
<VARIANCE> 1
 1.000000e+00
<GCONST> 1.837877e+00
~s "ST_CH_N#_2_6"
<NUMMIXES> 1
<MIXTURE> 1 1.000000e+00
<MEAN> 1
 0.000000e+00
<VARIANCE> 1
 1.000000e+00
<GCONST> 1.837877e+00
~s "ST_CH_N#_2_7"
<NUMMIXES> 1
<MIXTURE> 1 1.000000e+00
<MEAN> 1
 0.000000e+00
<VARIANCE> 1
 1.000000e+00
<GCONST> 1.837877e+00
~s "ST_CH_N#_2_9"
<NUMMIXES> 1
<MIXTURE> 1 1.000000e+00
<MEAN> 1
 0.000000e+00
<VARIANCE> 1
 1.000000e+00
<GCONST> 1.837877e+00
~s "ST_CH_a_3_25"
<NUMMIXES> 1
<MIXTURE> 1 1.000000e+00
<MEAN> 1
 0.000000e+00
<VARIANCE> 1
 1.000000e+00
<GCONST> 1.837877e+00
~s "ST_CH_a_3_77"
<NUMMIXES> 1
<MIXTURE> 1 1.000000e+00
<MEAN> 1
 0.000000e+00
<VARIANCE> 1
 1.000000e+00
<GCONST> 1.837877e+00
~s "ST_CH_a_3_82"
<NUMMIXES> 1
<MIXTURE> 1 1.000000e+00
<MEAN> 1
 0.000000e+00
<VARIANCE> 1
 1.000000e+00
<GCONST> 1.837877e+00
~s "ST_CH_a_3_76"
<NUMMIXES> 1
<MIXTURE> 1 1.000000e+00
<MEAN> 1
 0.000000e+00
<VARIANCE> 1
 1.000000e+00
<GCONST> 1.837877e+00
~s "ST_CH_a_3_80"
<NUMMIXES> 1
<MIXTURE> 1 1.000000e+00
<MEAN> 1
 0.000000e+00
<VARIANCE> 1
 1.000000e+00
<GCONST> 1.837877e+00
~s "ST_CH_U_3_2"
<NUMMIXES> 1
<MIXTURE> 1 1.000000e+00
<MEAN> 1
 0.000000e+00
<VARIANCE> 1
 1.000000e+00
<GCONST> 1.837877e+00
~s "ST_CH_U_3_1"
<NUMMIXES> 1
<MIXTURE> 1 1.000000e+00
<MEAN> 1
 0.000000e+00
<VARIANCE> 1
 1.000000e+00
<GCONST> 1.837877e+00
~s "ST_CH_U_3_3"
<NUMMIXES> 1
<MIXTURE> 1 1.000000e+00
<MEAN> 1
 0.000000e+00
<VARIANCE> 1
 1.000000e+00
<GCONST> 1.837877e+00
~s "ST_CH_f_4_2"
<NUMMIXES> 1
<MIXTURE> 1 1.000000e+00
<MEAN> 1
 0.000000e+00
<VARIANCE> 1
 1.000000e+00
<GCONST> 1.837877e+00
~s "ST_CH_f_4_3"
<NUMMIXES> 1
<MIXTURE> 1 1.000000e+00
<MEAN> 1
 0.000000e+00
<VARIANCE> 1
 1.000000e+00
<GCONST> 1.837877e+00
~s "ST_CH_m_4_4"
<NUMMIXES> 1
<MIXTURE> 1 1.000000e+00
<MEAN> 1
 0.000000e+00
<VARIANCE> 1
 1.000000e+00
<GCONST> 1.837877e+00
~s "ST_CH_sc_4_4"
<NUMMIXES> 1
<MIXTURE> 1 1.000000e+00
<MEAN> 1
 0.000000e+00
<VARIANCE> 1
 1.000000e+00
<GCONST> 1.837877e+00
~s "ST_CH_sc_4_5"
<NUMMIXES> 1
<MIXTURE> 1 1.000000e+00
<MEAN> 1
 0.000000e+00
<VARIANCE> 1
 1.000000e+00
<GCONST> 1.837877e+00
~s "ST_CH_sc_4_7"
<NUMMIXES> 1
<MIXTURE> 1 1.000000e+00
<MEAN> 1
 0.000000e+00
<VARIANCE> 1
 1.000000e+00
<GCONST> 1.837877e+00
~s "ST_CH_sc_4_2"
<NUMMIXES> 1
<MIXTURE> 1 1.000000e+00
<MEAN> 1
 0.000000e+00
<VARIANCE> 1
 1.000000e+00
<GCONST> 1.837877e+00
~s "ST_CH_sc_4_3"
<NUMMIXES> 1
<MIXTURE> 1 1.000000e+00
<MEAN> 1
 0.000000e+00
<VARIANCE> 1
 1.000000e+00
<GCONST> 1.837877e+00
~s "ST_CH_n#_3_24"
<NUMMIXES> 1
<MIXTURE> 1 1.000000e+00
<MEAN> 1
 0.000000e+00
<VARIANCE> 1
 1.000000e+00
<GCONST> 1.837877e+00
~s "ST_CH_n#_3_10"
<NUMMIXES> 1
<MIXTURE> 1 1.000000e+00
<MEAN> 1
 0.000000e+00
<VARIANCE> 1
 1.000000e+00
<GCONST> 1.837877e+00
~s "ST_CH_n#_3_1"
<NUMMIXES> 1
<MIXTURE> 1 1.000000e+00
<MEAN> 1
 0.000000e+00
<VARIANCE> 1
 1.000000e+00
<GCONST> 1.837877e+00
~s "ST_CH_n#_3_22"
<NUMMIXES> 1
<MIXTURE> 1 1.000000e+00
<MEAN> 1
 0.000000e+00
<VARIANCE> 1
 1.000000e+00
<GCONST> 1.837877e+00
~s "ST_CH_e_3_4"
<NUMMIXES> 1
<MIXTURE> 1 1.000000e+00
<MEAN> 1
 0.000000e+00
<VARIANCE> 1
 1.000000e+00
<GCONST> 1.837877e+00
~s "ST_CH_tsc_3_7"
<NUMMIXES> 1
<MIXTURE> 1 1.000000e+00
<MEAN> 1
 0.000000e+00
<VARIANCE> 1
 1.000000e+00
<GCONST> 1.837877e+00
~s "ST_CH_tsc_3_5"
<NUMMIXES> 1
<MIXTURE> 1 1.000000e+00
<MEAN> 1
 0.000000e+00
<VARIANCE> 1
 1.000000e+00
<GCONST> 1.837877e+00
~s "ST_CH_tsc_3_2"
<NUMMIXES> 1
<MIXTURE> 1 1.000000e+00
<MEAN> 1
 0.000000e+00
<VARIANCE> 1
 1.000000e+00
<GCONST> 1.837877e+00
~s "ST_CH_dz_3_7"
<NUMMIXES> 1
<MIXTURE> 1 1.000000e+00
<MEAN> 1
 0.000000e+00
<VARIANCE> 1
 1.000000e+00
<GCONST> 1.837877e+00
~s "ST_CH_dz_3_3"
<NUMMIXES> 1
<MIXTURE> 1 1.000000e+00
<MEAN> 1
 0.000000e+00
<VARIANCE> 1
 1.000000e+00
<GCONST> 1.837877e+00
~s "ST_CH_#_2_3"
<NUMMIXES> 1
<MIXTURE> 1 1.000000e+00
<MEAN> 1
 0.000000e+00
<VARIANCE> 1
 1.000000e+00
<GCONST> 1.837877e+00
~s "ST_CH_h_3_11"
<NUMMIXES> 1
<MIXTURE> 1 1.000000e+00
<MEAN> 1
 0.000000e+00
<VARIANCE> 1
 1.000000e+00
<GCONST> 1.837877e+00
~s "ST_CH_h_3_9"
<NUMMIXES> 1
<MIXTURE> 1 1.000000e+00
<MEAN> 1
 0.000000e+00
<VARIANCE> 1
 1.000000e+00
<GCONST> 1.837877e+00
~s "ST_CH_h_3_6"
<NUMMIXES> 1
<MIXTURE> 1 1.000000e+00
<MEAN> 1
 0.000000e+00
<VARIANCE> 1
 1.000000e+00
<GCONST> 1.837877e+00
~s "ST_CH_h_3_3"
<NUMMIXES> 1
<MIXTURE> 1 1.000000e+00
<MEAN> 1
 0.000000e+00
<VARIANCE> 1
 1.000000e+00
<GCONST> 1.837877e+00
~s "ST_CH_h_3_2"
<NUMMIXES> 1
<MIXTURE> 1 1.000000e+00
<MEAN> 1
 0.000000e+00
<VARIANCE> 1
 1.000000e+00
<GCONST> 1.837877e+00
~s "ST_CH_h_3_12"
<NUMMIXES> 1
<MIXTURE> 1 1.000000e+00
<MEAN> 1
 0.000000e+00
<VARIANCE> 1
 1.000000e+00
<GCONST> 1.837877e+00
~s "ST_CH_h_3_4"
<NUMMIXES> 1
<MIXTURE> 1 1.000000e+00
<MEAN> 1
 0.000000e+00
<VARIANCE> 1
 1.000000e+00
<GCONST> 1.837877e+00
~s "ST_CH_h_3_7"
<NUMMIXES> 1
<MIXTURE> 1 1.000000e+00
<MEAN> 1
 0.000000e+00
<VARIANCE> 1
 1.000000e+00
<GCONST> 1.837877e+00
~s "ST_CH_i_3_30"
<NUMMIXES> 1
<MIXTURE> 1 1.000000e+00
<MEAN> 1
 0.000000e+00
<VARIANCE> 1
 1.000000e+00
<GCONST> 1.837877e+00
~s "ST_CH_i_3_59"
<NUMMIXES> 1
<MIXTURE> 1 1.000000e+00
<MEAN> 1
 0.000000e+00
<VARIANCE> 1
 1.000000e+00
<GCONST> 1.837877e+00
~s "ST_CH_i_4_33"
<NUMMIXES> 1
<MIXTURE> 1 1.000000e+00
<MEAN> 1
 0.000000e+00
<VARIANCE> 1
 1.000000e+00
<GCONST> 1.837877e+00
~s "ST_CH_i_3_19"
<NUMMIXES> 1
<MIXTURE> 1 1.000000e+00
<MEAN> 1
 0.000000e+00
<VARIANCE> 1
 1.000000e+00
<GCONST> 1.837877e+00
~s "ST_CH_i_4_20"
<NUMMIXES> 1
<MIXTURE> 1 1.000000e+00
<MEAN> 1
 0.000000e+00
<VARIANCE> 1
 1.000000e+00
<GCONST> 1.837877e+00
~s "ST_CH_o_2_14"
<NUMMIXES> 1
<MIXTURE> 1 1.000000e+00
<MEAN> 1
 0.000000e+00
<VARIANCE> 1
 1.000000e+00
<GCONST> 1.837877e+00
~s "ST_CH_y_2_22"
<NUMMIXES> 1
<MIXTURE> 1 1.000000e+00
<MEAN> 1
 0.000000e+00
<VARIANCE> 1
 1.000000e+00
<GCONST> 1.837877e+00
~s "ST_CH_y_2_2"
<NUMMIXES> 1
<MIXTURE> 1 1.000000e+00
<MEAN> 1
 0.000000e+00
<VARIANCE> 1
 1.000000e+00
<GCONST> 1.837877e+00
~s "ST_CH_f_3_5"
<NUMMIXES> 1
<MIXTURE> 1 1.000000e+00
<MEAN> 1
 0.000000e+00
<VARIANCE> 1
 1.000000e+00
<GCONST> 1.837877e+00
~s "ST_CH_f_3_6"
<NUMMIXES> 1
<MIXTURE> 1 1.000000e+00
<MEAN> 1
 0.000000e+00
<VARIANCE> 1
 1.000000e+00
<GCONST> 1.837877e+00
~s "ST_CH_f_3_2"
<NUMMIXES> 1
<MIXTURE> 1 1.000000e+00
<MEAN> 1
 0.000000e+00
<VARIANCE> 1
 1.000000e+00
<GCONST> 1.837877e+00
~s "ST_CH_f_3_3"
<NUMMIXES> 1
<MIXTURE> 1 1.000000e+00
<MEAN> 1
 0.000000e+00
<VARIANCE> 1
 1.000000e+00
<GCONST> 1.837877e+00
~s "ST_CH_E_4_4"
<NUMMIXES> 1
<MIXTURE> 1 1.000000e+00
<MEAN> 1
 0.000000e+00
<VARIANCE> 1
 1.000000e+00
<GCONST> 1.837877e+00
~s "ST_CH_E_4_10"
<NUMMIXES> 1
<MIXTURE> 1 1.000000e+00
<MEAN> 1
 0.000000e+00
<VARIANCE> 1
 1.000000e+00
<GCONST> 1.837877e+00
~s "ST_CH_E_4_6"
<NUMMIXES> 1
<MIXTURE> 1 1.000000e+00
<MEAN> 1
 0.000000e+00
<VARIANCE> 1
 1.000000e+00
<GCONST> 1.837877e+00
~s "ST_CH_E_4_8"
<NUMMIXES> 1
<MIXTURE> 1 1.000000e+00
<MEAN> 1
 0.000000e+00
<VARIANCE> 1
 1.000000e+00
<GCONST> 1.837877e+00
~s "ST_CH_E_4_7"
<NUMMIXES> 1
<MIXTURE> 1 1.000000e+00
<MEAN> 1
 0.000000e+00
<VARIANCE> 1
 1.000000e+00
<GCONST> 1.837877e+00
~s "ST_CH_E_4_9"
<NUMMIXES> 1
<MIXTURE> 1 1.000000e+00
<MEAN> 1
 0.000000e+00
<VARIANCE> 1
 1.000000e+00
<GCONST> 1.837877e+00
~s "ST_CH_n#_4_3"
<NUMMIXES> 1
<MIXTURE> 1 1.000000e+00
<MEAN> 1
 0.000000e+00
<VARIANCE> 1
 1.000000e+00
<GCONST> 1.837877e+00
~s "ST_CH_n#_4_10"
<NUMMIXES> 1
<MIXTURE> 1 1.000000e+00
<MEAN> 1
 0.000000e+00
<VARIANCE> 1
 1.000000e+00
<GCONST> 1.837877e+00
~s "ST_CH_n#_4_11"
<NUMMIXES> 1
<MIXTURE> 1 1.000000e+00
<MEAN> 1
 0.000000e+00
<VARIANCE> 1
 1.000000e+00
<GCONST> 1.837877e+00
~s "ST_CH_n#_4_15"
<NUMMIXES> 1
<MIXTURE> 1 1.000000e+00
<MEAN> 1
 0.000000e+00
<VARIANCE> 1
 1.000000e+00
<GCONST> 1.837877e+00
~s "ST_CH_n#_4_17"
<NUMMIXES> 1
<MIXTURE> 1 1.000000e+00
<MEAN> 1
 0.000000e+00
<VARIANCE> 1
 1.000000e+00
<GCONST> 1.837877e+00
~s "ST_CH_n#_4_13"
<NUMMIXES> 1
<MIXTURE> 1 1.000000e+00
<MEAN> 1
 0.000000e+00
<VARIANCE> 1
 1.000000e+00
<GCONST> 1.837877e+00
~s "ST_CH_tsi_4_2"
<NUMMIXES> 1
<MIXTURE> 1 1.000000e+00
<MEAN> 1
 0.000000e+00
<VARIANCE> 1
 1.000000e+00
<GCONST> 1.837877e+00
~s "ST_CH_g_3_6"
<NUMMIXES> 1
<MIXTURE> 1 1.000000e+00
<MEAN> 1
 0.000000e+00
<VARIANCE> 1
 1.000000e+00
<GCONST> 1.837877e+00
~s "ST_CH_g_3_5"
<NUMMIXES> 1
<MIXTURE> 1 1.000000e+00
<MEAN> 1
 0.000000e+00
<VARIANCE> 1
 1.000000e+00
<GCONST> 1.837877e+00
~s "ST_CH_g_3_10"
<NUMMIXES> 1
<MIXTURE> 1 1.000000e+00
<MEAN> 1
 0.000000e+00
<VARIANCE> 1
 1.000000e+00
<GCONST> 1.837877e+00
~s "ST_CH_g_3_7"
<NUMMIXES> 1
<MIXTURE> 1 1.000000e+00
<MEAN> 1
 0.000000e+00
<VARIANCE> 1
 1.000000e+00
<GCONST> 1.837877e+00
~s "ST_CH_g_3_11"
<NUMMIXES> 1
<MIXTURE> 1 1.000000e+00
<MEAN> 1
 0.000000e+00
<VARIANCE> 1
 1.000000e+00
<GCONST> 1.837877e+00
~s "ST_CH_g_3_3"
<NUMMIXES> 1
<MIXTURE> 1 1.000000e+00
<MEAN> 1
 0.000000e+00
<VARIANCE> 1
 1.000000e+00
<GCONST> 1.837877e+00
~s "ST_CH_g_3_8"
<NUMMIXES> 1
<MIXTURE> 1 1.000000e+00
<MEAN> 1
 0.000000e+00
<VARIANCE> 1
 1.000000e+00
<GCONST> 1.837877e+00
~s "ST_CH_g_3_2"
<NUMMIXES> 1
<MIXTURE> 1 1.000000e+00
<MEAN> 1
 0.000000e+00
<VARIANCE> 1
 1.000000e+00
<GCONST> 1.837877e+00
~s "ST_CH_l_4_7"
<NUMMIXES> 1
<MIXTURE> 1 1.000000e+00
<MEAN> 1
 0.000000e+00
<VARIANCE> 1
 1.000000e+00
<GCONST> 1.837877e+00
~s "ST_CH_l_4_8"
<NUMMIXES> 1
<MIXTURE> 1 1.000000e+00
<MEAN> 1
 0.000000e+00
<VARIANCE> 1
 1.000000e+00
<GCONST> 1.837877e+00
~s "ST_CH_l_4_5"
<NUMMIXES> 1
<MIXTURE> 1 1.000000e+00
<MEAN> 1
 0.000000e+00
<VARIANCE> 1
 1.000000e+00
<GCONST> 1.837877e+00
~s "ST_CH_l_4_3"
<NUMMIXES> 1
<MIXTURE> 1 1.000000e+00
<MEAN> 1
 0.000000e+00
<VARIANCE> 1
 1.000000e+00
<GCONST> 1.837877e+00
~s "ST_CH_l_4_6"
<NUMMIXES> 1
<MIXTURE> 1 1.000000e+00
<MEAN> 1
 0.000000e+00
<VARIANCE> 1
 1.000000e+00
<GCONST> 1.837877e+00
~s "ST_CH_l_4_10"
<NUMMIXES> 1
<MIXTURE> 1 1.000000e+00
<MEAN> 1
 0.000000e+00
<VARIANCE> 1
 1.000000e+00
<GCONST> 1.837877e+00
~s "ST_CH_t_3_7"
<NUMMIXES> 1
<MIXTURE> 1 1.000000e+00
<MEAN> 1
 0.000000e+00
<VARIANCE> 1
 1.000000e+00
<GCONST> 1.837877e+00
~s "ST_CH_t_3_2"
<NUMMIXES> 1
<MIXTURE> 1 1.000000e+00
<MEAN> 1
 0.000000e+00
<VARIANCE> 1
 1.000000e+00
<GCONST> 1.837877e+00
~s "ST_CH_i_2_66"
<NUMMIXES> 1
<MIXTURE> 1 1.000000e+00
<MEAN> 1
 0.000000e+00
<VARIANCE> 1
 1.000000e+00
<GCONST> 1.837877e+00
~s "ST_CH_i_2_47"
<NUMMIXES> 1
<MIXTURE> 1 1.000000e+00
<MEAN> 1
 0.000000e+00
<VARIANCE> 1
 1.000000e+00
<GCONST> 1.837877e+00
~s "ST_CH_i_2_52"
<NUMMIXES> 1
<MIXTURE> 1 1.000000e+00
<MEAN> 1
 0.000000e+00
<VARIANCE> 1
 1.000000e+00
<GCONST> 1.837877e+00
~s "ST_CH_N#_3_22"
<NUMMIXES> 1
<MIXTURE> 1 1.000000e+00
<MEAN> 1
 0.000000e+00
<VARIANCE> 1
 1.000000e+00
<GCONST> 1.837877e+00
~s "ST_CH_N#_3_25"
<NUMMIXES> 1
<MIXTURE> 1 1.000000e+00
<MEAN> 1
 0.000000e+00
<VARIANCE> 1
 1.000000e+00
<GCONST> 1.837877e+00
~s "ST_CH_N#_3_20"
<NUMMIXES> 1
<MIXTURE> 1 1.000000e+00
<MEAN> 1
 0.000000e+00
<VARIANCE> 1
 1.000000e+00
<GCONST> 1.837877e+00
~s "ST_CH_N#_3_24"
<NUMMIXES> 1
<MIXTURE> 1 1.000000e+00
<MEAN> 1
 0.000000e+00
<VARIANCE> 1
 1.000000e+00
<GCONST> 1.837877e+00
~s "ST_CH_N#_3_23"
<NUMMIXES> 1
<MIXTURE> 1 1.000000e+00
<MEAN> 1
 0.000000e+00
<VARIANCE> 1
 1.000000e+00
<GCONST> 1.837877e+00
~s "ST_CH_h_4_2"
<NUMMIXES> 1
<MIXTURE> 1 1.000000e+00
<MEAN> 1
 0.000000e+00
<VARIANCE> 1
 1.000000e+00
<GCONST> 1.837877e+00
~s "ST_CH_@_4_3"
<NUMMIXES> 1
<MIXTURE> 1 1.000000e+00
<MEAN> 1
 0.000000e+00
<VARIANCE> 1
 1.000000e+00
<GCONST> 1.837877e+00
~s "ST_CH_k_4_2"
<NUMMIXES> 1
<MIXTURE> 1 1.000000e+00
<MEAN> 1
 0.000000e+00
<VARIANCE> 1
 1.000000e+00
<GCONST> 1.837877e+00
~s "ST_CH_k_4_4"
<NUMMIXES> 1
<MIXTURE> 1 1.000000e+00
<MEAN> 1
 0.000000e+00
<VARIANCE> 1
 1.000000e+00
<GCONST> 1.837877e+00
~s "ST_CH_k_4_3"
<NUMMIXES> 1
<MIXTURE> 1 1.000000e+00
<MEAN> 1
 0.000000e+00
<VARIANCE> 1
 1.000000e+00
<GCONST> 1.837877e+00
~s "ST_CH_k_4_1"
<NUMMIXES> 1
<MIXTURE> 1 1.000000e+00
<MEAN> 1
 0.000000e+00
<VARIANCE> 1
 1.000000e+00
<GCONST> 1.837877e+00
~s "ST_CH_@_2_31"
<NUMMIXES> 1
<MIXTURE> 1 1.000000e+00
<MEAN> 1
 0.000000e+00
<VARIANCE> 1
 1.000000e+00
<GCONST> 1.837877e+00
~s "ST_CH_@_2_32"
<NUMMIXES> 1
<MIXTURE> 1 1.000000e+00
<MEAN> 1
 0.000000e+00
<VARIANCE> 1
 1.000000e+00
<GCONST> 1.837877e+00
~s "ST_CH_@_2_26"
<NUMMIXES> 1
<MIXTURE> 1 1.000000e+00
<MEAN> 1
 0.000000e+00
<VARIANCE> 1
 1.000000e+00
<GCONST> 1.837877e+00
~s "ST_CH_@_2_29"
<NUMMIXES> 1
<MIXTURE> 1 1.000000e+00
<MEAN> 1
 0.000000e+00
<VARIANCE> 1
 1.000000e+00
<GCONST> 1.837877e+00
~s "ST_CH_@_2_30"
<NUMMIXES> 1
<MIXTURE> 1 1.000000e+00
<MEAN> 1
 0.000000e+00
<VARIANCE> 1
 1.000000e+00
<GCONST> 1.837877e+00
~s "ST_CH_@_2_27"
<NUMMIXES> 1
<MIXTURE> 1 1.000000e+00
<MEAN> 1
 0.000000e+00
<VARIANCE> 1
 1.000000e+00
<GCONST> 1.837877e+00
~s "ST_CH_y_3_7"
<NUMMIXES> 1
<MIXTURE> 1 1.000000e+00
<MEAN> 1
 0.000000e+00
<VARIANCE> 1
 1.000000e+00
<GCONST> 1.837877e+00
~s "ST_CH_y_3_9"
<NUMMIXES> 1
<MIXTURE> 1 1.000000e+00
<MEAN> 1
 0.000000e+00
<VARIANCE> 1
 1.000000e+00
<GCONST> 1.837877e+00
~s "ST_CH_y_3_1"
<NUMMIXES> 1
<MIXTURE> 1 1.000000e+00
<MEAN> 1
 0.000000e+00
<VARIANCE> 1
 1.000000e+00
<GCONST> 1.837877e+00
~s "ST_CH_y_3_3"
<NUMMIXES> 1
<MIXTURE> 1 1.000000e+00
<MEAN> 1
 0.000000e+00
<VARIANCE> 1
 1.000000e+00
<GCONST> 1.837877e+00
~s "ST_CH_y_3_12"
<NUMMIXES> 1
<MIXTURE> 1 1.000000e+00
<MEAN> 1
 0.000000e+00
<VARIANCE> 1
 1.000000e+00
<GCONST> 1.837877e+00
~s "ST_CH_y_3_10"
<NUMMIXES> 1
<MIXTURE> 1 1.000000e+00
<MEAN> 1
 0.000000e+00
<VARIANCE> 1
 1.000000e+00
<GCONST> 1.837877e+00
~s "ST_CH_y_3_13"
<NUMMIXES> 1
<MIXTURE> 1 1.000000e+00
<MEAN> 1
 0.000000e+00
<VARIANCE> 1
 1.000000e+00
<GCONST> 1.837877e+00
~s "ST_CH_y_3_4"
<NUMMIXES> 1
<MIXTURE> 1 1.000000e+00
<MEAN> 1
 0.000000e+00
<VARIANCE> 1
 1.000000e+00
<GCONST> 1.837877e+00
~s "ST_CH_y_3_6"
<NUMMIXES> 1
<MIXTURE> 1 1.000000e+00
<MEAN> 1
 0.000000e+00
<VARIANCE> 1
 1.000000e+00
<GCONST> 1.837877e+00
~s "ST_CH_i_4_19"
<NUMMIXES> 1
<MIXTURE> 1 1.000000e+00
<MEAN> 1
 0.000000e+00
<VARIANCE> 1
 1.000000e+00
<GCONST> 1.837877e+00
~s "ST_CH_i_4_39"
<NUMMIXES> 1
<MIXTURE> 1 1.000000e+00
<MEAN> 1
 0.000000e+00
<VARIANCE> 1
 1.000000e+00
<GCONST> 1.837877e+00
~s "ST_CH_u_4_44"
<NUMMIXES> 1
<MIXTURE> 1 1.000000e+00
<MEAN> 1
 0.000000e+00
<VARIANCE> 1
 1.000000e+00
<GCONST> 1.837877e+00
~s "ST_CH_u_4_26"
<NUMMIXES> 1
<MIXTURE> 1 1.000000e+00
<MEAN> 1
 0.000000e+00
<VARIANCE> 1
 1.000000e+00
<GCONST> 1.837877e+00
~s "ST_CH_u_4_24"
<NUMMIXES> 1
<MIXTURE> 1 1.000000e+00
<MEAN> 1
 0.000000e+00
<VARIANCE> 1
 1.000000e+00
<GCONST> 1.837877e+00
~s "ST_CH_u_4_23"
<NUMMIXES> 1
<MIXTURE> 1 1.000000e+00
<MEAN> 1
 0.000000e+00
<VARIANCE> 1
 1.000000e+00
<GCONST> 1.837877e+00
~s "ST_CH_u_4_33"
<NUMMIXES> 1
<MIXTURE> 1 1.000000e+00
<MEAN> 1
 0.000000e+00
<VARIANCE> 1
 1.000000e+00
<GCONST> 1.837877e+00
~s "ST_CH_u_4_43"
<NUMMIXES> 1
<MIXTURE> 1 1.000000e+00
<MEAN> 1
 0.000000e+00
<VARIANCE> 1
 1.000000e+00
<GCONST> 1.837877e+00
~s "ST_CH_u_4_21"
<NUMMIXES> 1
<MIXTURE> 1 1.000000e+00
<MEAN> 1
 0.000000e+00
<VARIANCE> 1
 1.000000e+00
<GCONST> 1.837877e+00
~s "ST_CH_u_4_36"
<NUMMIXES> 1
<MIXTURE> 1 1.000000e+00
<MEAN> 1
 0.000000e+00
<VARIANCE> 1
 1.000000e+00
<GCONST> 1.837877e+00
~s "ST_CH_u_4_1"
<NUMMIXES> 1
<MIXTURE> 1 1.000000e+00
<MEAN> 1
 0.000000e+00
<VARIANCE> 1
 1.000000e+00
<GCONST> 1.837877e+00
~s "ST_CH_a_3_30"
<NUMMIXES> 1
<MIXTURE> 1 1.000000e+00
<MEAN> 1
 0.000000e+00
<VARIANCE> 1
 1.000000e+00
<GCONST> 1.837877e+00
~s "ST_CH_a_3_28"
<NUMMIXES> 1
<MIXTURE> 1 1.000000e+00
<MEAN> 1
 0.000000e+00
<VARIANCE> 1
 1.000000e+00
<GCONST> 1.837877e+00
~s "ST_CH_a_3_29"
<NUMMIXES> 1
<MIXTURE> 1 1.000000e+00
<MEAN> 1
 0.000000e+00
<VARIANCE> 1
 1.000000e+00
<GCONST> 1.837877e+00
~s "ST_CH_a_3_26"
<NUMMIXES> 1
<MIXTURE> 1 1.000000e+00
<MEAN> 1
 0.000000e+00
<VARIANCE> 1
 1.000000e+00
<GCONST> 1.837877e+00
~s "ST_CH_s_4_5"
<NUMMIXES> 1
<MIXTURE> 1 1.000000e+00
<MEAN> 1
 0.000000e+00
<VARIANCE> 1
 1.000000e+00
<GCONST> 1.837877e+00
~s "ST_CH_s_4_2"
<NUMMIXES> 1
<MIXTURE> 1 1.000000e+00
<MEAN> 1
 0.000000e+00
<VARIANCE> 1
 1.000000e+00
<GCONST> 1.837877e+00
~s "ST_CH_s_4_4"
<NUMMIXES> 1
<MIXTURE> 1 1.000000e+00
<MEAN> 1
 0.000000e+00
<VARIANCE> 1
 1.000000e+00
<GCONST> 1.837877e+00
~s "ST_CH_s_3_3"
<NUMMIXES> 1
<MIXTURE> 1 1.000000e+00
<MEAN> 1
 0.000000e+00
<VARIANCE> 1
 1.000000e+00
<GCONST> 1.837877e+00
~s "ST_CH_s_3_2"
<NUMMIXES> 1
<MIXTURE> 1 1.000000e+00
<MEAN> 1
 0.000000e+00
<VARIANCE> 1
 1.000000e+00
<GCONST> 1.837877e+00
~s "ST_CH_s_3_4"
<NUMMIXES> 1
<MIXTURE> 1 1.000000e+00
<MEAN> 1
 0.000000e+00
<VARIANCE> 1
 1.000000e+00
<GCONST> 1.837877e+00
~s "ST_CH_s_3_1"
<NUMMIXES> 1
<MIXTURE> 1 1.000000e+00
<MEAN> 1
 0.000000e+00
<VARIANCE> 1
 1.000000e+00
<GCONST> 1.837877e+00
~s "ST_CH_u_4_37"
<NUMMIXES> 1
<MIXTURE> 1 1.000000e+00
<MEAN> 1
 0.000000e+00
<VARIANCE> 1
 1.000000e+00
<GCONST> 1.837877e+00
~s "ST_CH_u_4_38"
<NUMMIXES> 1
<MIXTURE> 1 1.000000e+00
<MEAN> 1
 0.000000e+00
<VARIANCE> 1
 1.000000e+00
<GCONST> 1.837877e+00
~s "ST_CH_i_2_48"
<NUMMIXES> 1
<MIXTURE> 1 1.000000e+00
<MEAN> 1
 0.000000e+00
<VARIANCE> 1
 1.000000e+00
<GCONST> 1.837877e+00
~s "ST_CH_i_2_57"
<NUMMIXES> 1
<MIXTURE> 1 1.000000e+00
<MEAN> 1
 0.000000e+00
<VARIANCE> 1
 1.000000e+00
<GCONST> 1.837877e+00
~s "ST_CH_i_2_10"
<NUMMIXES> 1
<MIXTURE> 1 1.000000e+00
<MEAN> 1
 0.000000e+00
<VARIANCE> 1
 1.000000e+00
<GCONST> 1.837877e+00
~s "ST_CH_i_2_36"
<NUMMIXES> 1
<MIXTURE> 1 1.000000e+00
<MEAN> 1
 0.000000e+00
<VARIANCE> 1
 1.000000e+00
<GCONST> 1.837877e+00
~s "ST_CH_i_2_6"
<NUMMIXES> 1
<MIXTURE> 1 1.000000e+00
<MEAN> 1
 0.000000e+00
<VARIANCE> 1
 1.000000e+00
<GCONST> 1.837877e+00
~s "ST_CH_i_2_71"
<NUMMIXES> 1
<MIXTURE> 1 1.000000e+00
<MEAN> 1
 0.000000e+00
<VARIANCE> 1
 1.000000e+00
<GCONST> 1.837877e+00
~s "ST_CH_sc_3_3"
<NUMMIXES> 1
<MIXTURE> 1 1.000000e+00
<MEAN> 1
 0.000000e+00
<VARIANCE> 1
 1.000000e+00
<GCONST> 1.837877e+00
~s "ST_CH_sc_3_2"
<NUMMIXES> 1
<MIXTURE> 1 1.000000e+00
<MEAN> 1
 0.000000e+00
<VARIANCE> 1
 1.000000e+00
<GCONST> 1.837877e+00
~s "ST_CH_sc_3_4"
<NUMMIXES> 1
<MIXTURE> 1 1.000000e+00
<MEAN> 1
 0.000000e+00
<VARIANCE> 1
 1.000000e+00
<GCONST> 1.837877e+00
~s "ST_CH_n_4_4"
<NUMMIXES> 1
<MIXTURE> 1 1.000000e+00
<MEAN> 1
 0.000000e+00
<VARIANCE> 1
 1.000000e+00
<GCONST> 1.837877e+00
~s "ST_CH_n_4_6"
<NUMMIXES> 1
<MIXTURE> 1 1.000000e+00
<MEAN> 1
 0.000000e+00
<VARIANCE> 1
 1.000000e+00
<GCONST> 1.837877e+00
~s "ST_CH_l_4_9"
<NUMMIXES> 1
<MIXTURE> 1 1.000000e+00
<MEAN> 1
 0.000000e+00
<VARIANCE> 1
 1.000000e+00
<GCONST> 1.837877e+00
~s "ST_CH_l_4_2"
<NUMMIXES> 1
<MIXTURE> 1 1.000000e+00
<MEAN> 1
 0.000000e+00
<VARIANCE> 1
 1.000000e+00
<GCONST> 1.837877e+00
~s "ST_CH_l_4_1"
<NUMMIXES> 1
<MIXTURE> 1 1.000000e+00
<MEAN> 1
 0.000000e+00
<VARIANCE> 1
 1.000000e+00
<GCONST> 1.837877e+00
~s "ST_CH_l_4_4"
<NUMMIXES> 1
<MIXTURE> 1 1.000000e+00
<MEAN> 1
 0.000000e+00
<VARIANCE> 1
 1.000000e+00
<GCONST> 1.837877e+00
~s "ST_CH_sc_3_6"
<NUMMIXES> 1
<MIXTURE> 1 1.000000e+00
<MEAN> 1
 0.000000e+00
<VARIANCE> 1
 1.000000e+00
<GCONST> 1.837877e+00
~s "ST_CH_sc_3_11"
<NUMMIXES> 1
<MIXTURE> 1 1.000000e+00
<MEAN> 1
 0.000000e+00
<VARIANCE> 1
 1.000000e+00
<GCONST> 1.837877e+00
~s "ST_CH_sc_3_9"
<NUMMIXES> 1
<MIXTURE> 1 1.000000e+00
<MEAN> 1
 0.000000e+00
<VARIANCE> 1
 1.000000e+00
<GCONST> 1.837877e+00
~s "ST_CH_sc_3_5"
<NUMMIXES> 1
<MIXTURE> 1 1.000000e+00
<MEAN> 1
 0.000000e+00
<VARIANCE> 1
 1.000000e+00
<GCONST> 1.837877e+00
~s "ST_CH_sc_3_8"
<NUMMIXES> 1
<MIXTURE> 1 1.000000e+00
<MEAN> 1
 0.000000e+00
<VARIANCE> 1
 1.000000e+00
<GCONST> 1.837877e+00
~s "ST_CH_sc_3_7"
<NUMMIXES> 1
<MIXTURE> 1 1.000000e+00
<MEAN> 1
 0.000000e+00
<VARIANCE> 1
 1.000000e+00
<GCONST> 1.837877e+00
~s "ST_CH_Uc_4_14"
<NUMMIXES> 1
<MIXTURE> 1 1.000000e+00
<MEAN> 1
 0.000000e+00
<VARIANCE> 1
 1.000000e+00
<GCONST> 1.837877e+00
~s "ST_CH_Uc_4_15"
<NUMMIXES> 1
<MIXTURE> 1 1.000000e+00
<MEAN> 1
 0.000000e+00
<VARIANCE> 1
 1.000000e+00
<GCONST> 1.837877e+00
~s "ST_CH_Uc_4_25"
<NUMMIXES> 1
<MIXTURE> 1 1.000000e+00
<MEAN> 1
 0.000000e+00
<VARIANCE> 1
 1.000000e+00
<GCONST> 1.837877e+00
~s "ST_CH_Uc_4_3"
<NUMMIXES> 1
<MIXTURE> 1 1.000000e+00
<MEAN> 1
 0.000000e+00
<VARIANCE> 1
 1.000000e+00
<GCONST> 1.837877e+00
~s "ST_CH_Uc_4_5"
<NUMMIXES> 1
<MIXTURE> 1 1.000000e+00
<MEAN> 1
 0.000000e+00
<VARIANCE> 1
 1.000000e+00
<GCONST> 1.837877e+00
~s "ST_CH_Uc_4_22"
<NUMMIXES> 1
<MIXTURE> 1 1.000000e+00
<MEAN> 1
 0.000000e+00
<VARIANCE> 1
 1.000000e+00
<GCONST> 1.837877e+00
~s "ST_CH_Uc_4_2"
<NUMMIXES> 1
<MIXTURE> 1 1.000000e+00
<MEAN> 1
 0.000000e+00
<VARIANCE> 1
 1.000000e+00
<GCONST> 1.837877e+00
~s "ST_CH_Uc_4_19"
<NUMMIXES> 1
<MIXTURE> 1 1.000000e+00
<MEAN> 1
 0.000000e+00
<VARIANCE> 1
 1.000000e+00
<GCONST> 1.837877e+00
~s "ST_CH_Zc_4_7"
<NUMMIXES> 1
<MIXTURE> 1 1.000000e+00
<MEAN> 1
 0.000000e+00
<VARIANCE> 1
 1.000000e+00
<GCONST> 1.837877e+00
~s "ST_CH_Zc_4_3"
<NUMMIXES> 1
<MIXTURE> 1 1.000000e+00
<MEAN> 1
 0.000000e+00
<VARIANCE> 1
 1.000000e+00
<GCONST> 1.837877e+00
~s "ST_CH_a_2_28"
<NUMMIXES> 1
<MIXTURE> 1 1.000000e+00
<MEAN> 1
 0.000000e+00
<VARIANCE> 1
 1.000000e+00
<GCONST> 1.837877e+00
~s "ST_CH_ts_3_4"
<NUMMIXES> 1
<MIXTURE> 1 1.000000e+00
<MEAN> 1
 0.000000e+00
<VARIANCE> 1
 1.000000e+00
<GCONST> 1.837877e+00
~s "ST_CH_sc_2_12"
<NUMMIXES> 1
<MIXTURE> 1 1.000000e+00
<MEAN> 1
 0.000000e+00
<VARIANCE> 1
 1.000000e+00
<GCONST> 1.837877e+00
~s "ST_CH_sc_2_15"
<NUMMIXES> 1
<MIXTURE> 1 1.000000e+00
<MEAN> 1
 0.000000e+00
<VARIANCE> 1
 1.000000e+00
<GCONST> 1.837877e+00
~s "ST_CH_sc_2_1"
<NUMMIXES> 1
<MIXTURE> 1 1.000000e+00
<MEAN> 1
 0.000000e+00
<VARIANCE> 1
 1.000000e+00
<GCONST> 1.837877e+00
~s "ST_CH_sc_2_21"
<NUMMIXES> 1
<MIXTURE> 1 1.000000e+00
<MEAN> 1
 0.000000e+00
<VARIANCE> 1
 1.000000e+00
<GCONST> 1.837877e+00
~s "ST_CH_sc_2_4"
<NUMMIXES> 1
<MIXTURE> 1 1.000000e+00
<MEAN> 1
 0.000000e+00
<VARIANCE> 1
 1.000000e+00
<GCONST> 1.837877e+00
~s "ST_CH_sc_2_10"
<NUMMIXES> 1
<MIXTURE> 1 1.000000e+00
<MEAN> 1
 0.000000e+00
<VARIANCE> 1
 1.000000e+00
<GCONST> 1.837877e+00
~s "ST_CH_sc_2_17"
<NUMMIXES> 1
<MIXTURE> 1 1.000000e+00
<MEAN> 1
 0.000000e+00
<VARIANCE> 1
 1.000000e+00
<GCONST> 1.837877e+00
~s "ST_CH_sc_2_7"
<NUMMIXES> 1
<MIXTURE> 1 1.000000e+00
<MEAN> 1
 0.000000e+00
<VARIANCE> 1
 1.000000e+00
<GCONST> 1.837877e+00
~s "ST_CH_d_4_3"
<NUMMIXES> 1
<MIXTURE> 1 1.000000e+00
<MEAN> 1
 0.000000e+00
<VARIANCE> 1
 1.000000e+00
<GCONST> 1.837877e+00
~s "ST_CH_u_3_24"
<NUMMIXES> 1
<MIXTURE> 1 1.000000e+00
<MEAN> 1
 0.000000e+00
<VARIANCE> 1
 1.000000e+00
<GCONST> 1.837877e+00
~s "ST_CH_u_3_29"
<NUMMIXES> 1
<MIXTURE> 1 1.000000e+00
<MEAN> 1
 0.000000e+00
<VARIANCE> 1
 1.000000e+00
<GCONST> 1.837877e+00
~s "ST_CH_u_3_26"
<NUMMIXES> 1
<MIXTURE> 1 1.000000e+00
<MEAN> 1
 0.000000e+00
<VARIANCE> 1
 1.000000e+00
<GCONST> 1.837877e+00
~s "ST_CH_u_3_75"
<NUMMIXES> 1
<MIXTURE> 1 1.000000e+00
<MEAN> 1
 0.000000e+00
<VARIANCE> 1
 1.000000e+00
<GCONST> 1.837877e+00
~s "ST_CH_u_3_76"
<NUMMIXES> 1
<MIXTURE> 1 1.000000e+00
<MEAN> 1
 0.000000e+00
<VARIANCE> 1
 1.000000e+00
<GCONST> 1.837877e+00
~s "ST_CH_@_4_17"
<NUMMIXES> 1
<MIXTURE> 1 1.000000e+00
<MEAN> 1
 0.000000e+00
<VARIANCE> 1
 1.000000e+00
<GCONST> 1.837877e+00
~s "ST_CH_@_4_1"
<NUMMIXES> 1
<MIXTURE> 1 1.000000e+00
<MEAN> 1
 0.000000e+00
<VARIANCE> 1
 1.000000e+00
<GCONST> 1.837877e+00
~s "ST_CH_k_3_4"
<NUMMIXES> 1
<MIXTURE> 1 1.000000e+00
<MEAN> 1
 0.000000e+00
<VARIANCE> 1
 1.000000e+00
<GCONST> 1.837877e+00
~s "ST_CH_k_3_1"
<NUMMIXES> 1
<MIXTURE> 1 1.000000e+00
<MEAN> 1
 0.000000e+00
<VARIANCE> 1
 1.000000e+00
<GCONST> 1.837877e+00
~s "ST_CH_k_3_5"
<NUMMIXES> 1
<MIXTURE> 1 1.000000e+00
<MEAN> 1
 0.000000e+00
<VARIANCE> 1
 1.000000e+00
<GCONST> 1.837877e+00
~s "ST_CH_k_3_3"
<NUMMIXES> 1
<MIXTURE> 1 1.000000e+00
<MEAN> 1
 0.000000e+00
<VARIANCE> 1
 1.000000e+00
<GCONST> 1.837877e+00
~s "ST_CH_k_3_2"
<NUMMIXES> 1
<MIXTURE> 1 1.000000e+00
<MEAN> 1
 0.000000e+00
<VARIANCE> 1
 1.000000e+00
<GCONST> 1.837877e+00
~s "ST_CH_n#_2_4"
<NUMMIXES> 1
<MIXTURE> 1 1.000000e+00
<MEAN> 1
 0.000000e+00
<VARIANCE> 1
 1.000000e+00
<GCONST> 1.837877e+00
~s "ST_CH_n#_2_6"
<NUMMIXES> 1
<MIXTURE> 1 1.000000e+00
<MEAN> 1
 0.000000e+00
<VARIANCE> 1
 1.000000e+00
<GCONST> 1.837877e+00
~s "ST_CH_n#_2_1"
<NUMMIXES> 1
<MIXTURE> 1 1.000000e+00
<MEAN> 1
 0.000000e+00
<VARIANCE> 1
 1.000000e+00
<GCONST> 1.837877e+00
~s "ST_CH_n#_2_8"
<NUMMIXES> 1
<MIXTURE> 1 1.000000e+00
<MEAN> 1
 0.000000e+00
<VARIANCE> 1
 1.000000e+00
<GCONST> 1.837877e+00
~s "ST_CH_n#_2_3"
<NUMMIXES> 1
<MIXTURE> 1 1.000000e+00
<MEAN> 1
 0.000000e+00
<VARIANCE> 1
 1.000000e+00
<GCONST> 1.837877e+00
~s "ST_CH_n#_2_5"
<NUMMIXES> 1
<MIXTURE> 1 1.000000e+00
<MEAN> 1
 0.000000e+00
<VARIANCE> 1
 1.000000e+00
<GCONST> 1.837877e+00
~s "ST_CH_n#_2_7"
<NUMMIXES> 1
<MIXTURE> 1 1.000000e+00
<MEAN> 1
 0.000000e+00
<VARIANCE> 1
 1.000000e+00
<GCONST> 1.837877e+00
~s "ST_CH_n#_2_2"
<NUMMIXES> 1
<MIXTURE> 1 1.000000e+00
<MEAN> 1
 0.000000e+00
<VARIANCE> 1
 1.000000e+00
<GCONST> 1.837877e+00
~s "ST_CH_#_4_3"
<NUMMIXES> 1
<MIXTURE> 1 1.000000e+00
<MEAN> 1
 0.000000e+00
<VARIANCE> 1
 1.000000e+00
<GCONST> 1.837877e+00
~s "ST_CH_#_4_4"
<NUMMIXES> 1
<MIXTURE> 1 1.000000e+00
<MEAN> 1
 0.000000e+00
<VARIANCE> 1
 1.000000e+00
<GCONST> 1.837877e+00
~s "ST_CH_a_4_17"
<NUMMIXES> 1
<MIXTURE> 1 1.000000e+00
<MEAN> 1
 0.000000e+00
<VARIANCE> 1
 1.000000e+00
<GCONST> 1.837877e+00
~s "ST_CH_a_4_31"
<NUMMIXES> 1
<MIXTURE> 1 1.000000e+00
<MEAN> 1
 0.000000e+00
<VARIANCE> 1
 1.000000e+00
<GCONST> 1.837877e+00
~s "ST_CH_a_4_2"
<NUMMIXES> 1
<MIXTURE> 1 1.000000e+00
<MEAN> 1
 0.000000e+00
<VARIANCE> 1
 1.000000e+00
<GCONST> 1.837877e+00
~s "ST_CH_a_4_24"
<NUMMIXES> 1
<MIXTURE> 1 1.000000e+00
<MEAN> 1
 0.000000e+00
<VARIANCE> 1
 1.000000e+00
<GCONST> 1.837877e+00
~s "ST_CH_y_4_7"
<NUMMIXES> 1
<MIXTURE> 1 1.000000e+00
<MEAN> 1
 0.000000e+00
<VARIANCE> 1
 1.000000e+00
<GCONST> 1.837877e+00
~s "ST_CH_y_4_5"
<NUMMIXES> 1
<MIXTURE> 1 1.000000e+00
<MEAN> 1
 0.000000e+00
<VARIANCE> 1
 1.000000e+00
<GCONST> 1.837877e+00
~s "ST_CH_y_4_8"
<NUMMIXES> 1
<MIXTURE> 1 1.000000e+00
<MEAN> 1
 0.000000e+00
<VARIANCE> 1
 1.000000e+00
<GCONST> 1.837877e+00
~s "ST_CH_y_4_9"
<NUMMIXES> 1
<MIXTURE> 1 1.000000e+00
<MEAN> 1
 0.000000e+00
<VARIANCE> 1
 1.000000e+00
<GCONST> 1.837877e+00
~s "ST_CH_N#_4_18"
<NUMMIXES> 1
<MIXTURE> 1 1.000000e+00
<MEAN> 1
 0.000000e+00
<VARIANCE> 1
 1.000000e+00
<GCONST> 1.837877e+00
~s "ST_CH_N#_4_13"
<NUMMIXES> 1
<MIXTURE> 1 1.000000e+00
<MEAN> 1
 0.000000e+00
<VARIANCE> 1
 1.000000e+00
<GCONST> 1.837877e+00
~s "ST_CH_N#_4_30"
<NUMMIXES> 1
<MIXTURE> 1 1.000000e+00
<MEAN> 1
 0.000000e+00
<VARIANCE> 1
 1.000000e+00
<GCONST> 1.837877e+00
~s "ST_CH_N#_4_1"
<NUMMIXES> 1
<MIXTURE> 1 1.000000e+00
<MEAN> 1
 0.000000e+00
<VARIANCE> 1
 1.000000e+00
<GCONST> 1.837877e+00
~s "ST_CH_u_2_20"
<NUMMIXES> 1
<MIXTURE> 1 1.000000e+00
<MEAN> 1
 0.000000e+00
<VARIANCE> 1
 1.000000e+00
<GCONST> 1.837877e+00
~s "ST_CH_u_2_18"
<NUMMIXES> 1
<MIXTURE> 1 1.000000e+00
<MEAN> 1
 0.000000e+00
<VARIANCE> 1
 1.000000e+00
<GCONST> 1.837877e+00
~s "ST_CH_u_2_19"
<NUMMIXES> 1
<MIXTURE> 1 1.000000e+00
<MEAN> 1
 0.000000e+00
<VARIANCE> 1
 1.000000e+00
<GCONST> 1.837877e+00
~s "ST_CH_u_2_21"
<NUMMIXES> 1
<MIXTURE> 1 1.000000e+00
<MEAN> 1
 0.000000e+00
<VARIANCE> 1
 1.000000e+00
<GCONST> 1.837877e+00
~s "ST_CH_u_2_48"
<NUMMIXES> 1
<MIXTURE> 1 1.000000e+00
<MEAN> 1
 0.000000e+00
<VARIANCE> 1
 1.000000e+00
<GCONST> 1.837877e+00
~s "ST_CH_o_3_4"
<NUMMIXES> 1
<MIXTURE> 1 1.000000e+00
<MEAN> 1
 0.000000e+00
<VARIANCE> 1
 1.000000e+00
<GCONST> 1.837877e+00
~s "ST_CH_N#_2_19"
<NUMMIXES> 1
<MIXTURE> 1 1.000000e+00
<MEAN> 1
 0.000000e+00
<VARIANCE> 1
 1.000000e+00
<GCONST> 1.837877e+00
~s "ST_CH_N#_2_18"
<NUMMIXES> 1
<MIXTURE> 1 1.000000e+00
<MEAN> 1
 0.000000e+00
<VARIANCE> 1
 1.000000e+00
<GCONST> 1.837877e+00
~s "ST_CH_N#_2_17"
<NUMMIXES> 1
<MIXTURE> 1 1.000000e+00
<MEAN> 1
 0.000000e+00
<VARIANCE> 1
 1.000000e+00
<GCONST> 1.837877e+00
~s "ST_CH_N#_2_20"
<NUMMIXES> 1
<MIXTURE> 1 1.000000e+00
<MEAN> 1
 0.000000e+00
<VARIANCE> 1
 1.000000e+00
<GCONST> 1.837877e+00
~s "ST_CH_i_2_45"
<NUMMIXES> 1
<MIXTURE> 1 1.000000e+00
<MEAN> 1
 0.000000e+00
<VARIANCE> 1
 1.000000e+00
<GCONST> 1.837877e+00
~s "ST_CH_i_2_61"
<NUMMIXES> 1
<MIXTURE> 1 1.000000e+00
<MEAN> 1
 0.000000e+00
<VARIANCE> 1
 1.000000e+00
<GCONST> 1.837877e+00
~s "ST_CH_i_2_54"
<NUMMIXES> 1
<MIXTURE> 1 1.000000e+00
<MEAN> 1
 0.000000e+00
<VARIANCE> 1
 1.000000e+00
<GCONST> 1.837877e+00
~s "ST_CH_i_2_49"
<NUMMIXES> 1
<MIXTURE> 1 1.000000e+00
<MEAN> 1
 0.000000e+00
<VARIANCE> 1
 1.000000e+00
<GCONST> 1.837877e+00
~s "ST_CH_i_2_60"
<NUMMIXES> 1
<MIXTURE> 1 1.000000e+00
<MEAN> 1
 0.000000e+00
<VARIANCE> 1
 1.000000e+00
<GCONST> 1.837877e+00
~s "ST_CH_i_2_51"
<NUMMIXES> 1
<MIXTURE> 1 1.000000e+00
<MEAN> 1
 0.000000e+00
<VARIANCE> 1
 1.000000e+00
<GCONST> 1.837877e+00
~s "ST_CH_i_2_53"
<NUMMIXES> 1
<MIXTURE> 1 1.000000e+00
<MEAN> 1
 0.000000e+00
<VARIANCE> 1
 1.000000e+00
<GCONST> 1.837877e+00
~s "ST_CH_l_3_6"
<NUMMIXES> 1
<MIXTURE> 1 1.000000e+00
<MEAN> 1
 0.000000e+00
<VARIANCE> 1
 1.000000e+00
<GCONST> 1.837877e+00
~s "ST_CH_l_3_8"
<NUMMIXES> 1
<MIXTURE> 1 1.000000e+00
<MEAN> 1
 0.000000e+00
<VARIANCE> 1
 1.000000e+00
<GCONST> 1.837877e+00
~s "ST_CH_l_3_5"
<NUMMIXES> 1
<MIXTURE> 1 1.000000e+00
<MEAN> 1
 0.000000e+00
<VARIANCE> 1
 1.000000e+00
<GCONST> 1.837877e+00
~s "ST_CH_l_3_3"
<NUMMIXES> 1
<MIXTURE> 1 1.000000e+00
<MEAN> 1
 0.000000e+00
<VARIANCE> 1
 1.000000e+00
<GCONST> 1.837877e+00
~s "ST_CH_p_4_5"
<NUMMIXES> 1
<MIXTURE> 1 1.000000e+00
<MEAN> 1
 0.000000e+00
<VARIANCE> 1
 1.000000e+00
<GCONST> 1.837877e+00
~s "ST_CH_p_4_3"
<NUMMIXES> 1
<MIXTURE> 1 1.000000e+00
<MEAN> 1
 0.000000e+00
<VARIANCE> 1
 1.000000e+00
<GCONST> 1.837877e+00
~s "ST_CH_h_4_1"
<NUMMIXES> 1
<MIXTURE> 1 1.000000e+00
<MEAN> 1
 0.000000e+00
<VARIANCE> 1
 1.000000e+00
<GCONST> 1.837877e+00
~s "ST_CH_E_4_3"
<NUMMIXES> 1
<MIXTURE> 1 1.000000e+00
<MEAN> 1
 0.000000e+00
<VARIANCE> 1
 1.000000e+00
<GCONST> 1.837877e+00
~s "ST_CH_E_4_1"
<NUMMIXES> 1
<MIXTURE> 1 1.000000e+00
<MEAN> 1
 0.000000e+00
<VARIANCE> 1
 1.000000e+00
<GCONST> 1.837877e+00
~s "ST_CH_E_4_11"
<NUMMIXES> 1
<MIXTURE> 1 1.000000e+00
<MEAN> 1
 0.000000e+00
<VARIANCE> 1
 1.000000e+00
<GCONST> 1.837877e+00
~s "ST_CH_E_4_5"
<NUMMIXES> 1
<MIXTURE> 1 1.000000e+00
<MEAN> 1
 0.000000e+00
<VARIANCE> 1
 1.000000e+00
<GCONST> 1.837877e+00
~s "ST_CH_E_4_2"
<NUMMIXES> 1
<MIXTURE> 1 1.000000e+00
<MEAN> 1
 0.000000e+00
<VARIANCE> 1
 1.000000e+00
<GCONST> 1.837877e+00
~s "ST_CH_o_3_22"
<NUMMIXES> 1
<MIXTURE> 1 1.000000e+00
<MEAN> 1
 0.000000e+00
<VARIANCE> 1
 1.000000e+00
<GCONST> 1.837877e+00
~s "ST_CH_o_3_17"
<NUMMIXES> 1
<MIXTURE> 1 1.000000e+00
<MEAN> 1
 0.000000e+00
<VARIANCE> 1
 1.000000e+00
<GCONST> 1.837877e+00
~s "ST_CH_o_3_19"
<NUMMIXES> 1
<MIXTURE> 1 1.000000e+00
<MEAN> 1
 0.000000e+00
<VARIANCE> 1
 1.000000e+00
<GCONST> 1.837877e+00
~s "ST_CH_o_3_21"
<NUMMIXES> 1
<MIXTURE> 1 1.000000e+00
<MEAN> 1
 0.000000e+00
<VARIANCE> 1
 1.000000e+00
<GCONST> 1.837877e+00
~s "ST_CH_o_3_20"
<NUMMIXES> 1
<MIXTURE> 1 1.000000e+00
<MEAN> 1
 0.000000e+00
<VARIANCE> 1
 1.000000e+00
<GCONST> 1.837877e+00
~s "ST_CH_o_3_18"
<NUMMIXES> 1
<MIXTURE> 1 1.000000e+00
<MEAN> 1
 0.000000e+00
<VARIANCE> 1
 1.000000e+00
<GCONST> 1.837877e+00
~s "ST_CH_dzc_4_3"
<NUMMIXES> 1
<MIXTURE> 1 1.000000e+00
<MEAN> 1
 0.000000e+00
<VARIANCE> 1
 1.000000e+00
<GCONST> 1.837877e+00
~s "ST_CH_Uc_4_24"
<NUMMIXES> 1
<MIXTURE> 1 1.000000e+00
<MEAN> 1
 0.000000e+00
<VARIANCE> 1
 1.000000e+00
<GCONST> 1.837877e+00
~s "ST_CH_Uc_4_18"
<NUMMIXES> 1
<MIXTURE> 1 1.000000e+00
<MEAN> 1
 0.000000e+00
<VARIANCE> 1
 1.000000e+00
<GCONST> 1.837877e+00
~s "ST_CH_Uc_4_1"
<NUMMIXES> 1
<MIXTURE> 1 1.000000e+00
<MEAN> 1
 0.000000e+00
<VARIANCE> 1
 1.000000e+00
<GCONST> 1.837877e+00
~s "ST_CH_e_2_3"
<NUMMIXES> 1
<MIXTURE> 1 1.000000e+00
<MEAN> 1
 0.000000e+00
<VARIANCE> 1
 1.000000e+00
<GCONST> 1.837877e+00
~s "ST_CH_e_2_5"
<NUMMIXES> 1
<MIXTURE> 1 1.000000e+00
<MEAN> 1
 0.000000e+00
<VARIANCE> 1
 1.000000e+00
<GCONST> 1.837877e+00
~s "ST_CH_e_2_4"
<NUMMIXES> 1
<MIXTURE> 1 1.000000e+00
<MEAN> 1
 0.000000e+00
<VARIANCE> 1
 1.000000e+00
<GCONST> 1.837877e+00
~s "ST_CH_e_2_1"
<NUMMIXES> 1
<MIXTURE> 1 1.000000e+00
<MEAN> 1
 0.000000e+00
<VARIANCE> 1
 1.000000e+00
<GCONST> 1.837877e+00
~s "ST_CH_e_2_2"
<NUMMIXES> 1
<MIXTURE> 1 1.000000e+00
<MEAN> 1
 0.000000e+00
<VARIANCE> 1
 1.000000e+00
<GCONST> 1.837877e+00
~s "ST_CH_t_4_6"
<NUMMIXES> 1
<MIXTURE> 1 1.000000e+00
<MEAN> 1
 0.000000e+00
<VARIANCE> 1
 1.000000e+00
<GCONST> 1.837877e+00
~s "ST_CH_t_4_5"
<NUMMIXES> 1
<MIXTURE> 1 1.000000e+00
<MEAN> 1
 0.000000e+00
<VARIANCE> 1
 1.000000e+00
<GCONST> 1.837877e+00
~s "ST_CH_g_4_5"
<NUMMIXES> 1
<MIXTURE> 1 1.000000e+00
<MEAN> 1
 0.000000e+00
<VARIANCE> 1
 1.000000e+00
<GCONST> 1.837877e+00
~s "ST_CH_g_4_1"
<NUMMIXES> 1
<MIXTURE> 1 1.000000e+00
<MEAN> 1
 0.000000e+00
<VARIANCE> 1
 1.000000e+00
<GCONST> 1.837877e+00
~s "ST_CH_#_2_23"
<NUMMIXES> 1
<MIXTURE> 1 1.000000e+00
<MEAN> 1
 0.000000e+00
<VARIANCE> 1
 1.000000e+00
<GCONST> 1.837877e+00
~s "ST_CH_#_3_15"
<NUMMIXES> 1
<MIXTURE> 1 1.000000e+00
<MEAN> 1
 0.000000e+00
<VARIANCE> 1
 1.000000e+00
<GCONST> 1.837877e+00
~s "ST_CH_#_4_14"
<NUMMIXES> 1
<MIXTURE> 1 1.000000e+00
<MEAN> 1
 0.000000e+00
<VARIANCE> 1
 1.000000e+00
<GCONST> 1.837877e+00
~s "ST_CH_#_2_22"
<NUMMIXES> 1
<MIXTURE> 1 1.000000e+00
<MEAN> 1
 0.000000e+00
<VARIANCE> 1
 1.000000e+00
<GCONST> 1.837877e+00
~s "ST_CH_n#_4_1"
<NUMMIXES> 1
<MIXTURE> 1 1.000000e+00
<MEAN> 1
 0.000000e+00
<VARIANCE> 1
 1.000000e+00
<GCONST> 1.837877e+00
~s "ST_CH_i_2_44"
<NUMMIXES> 1
<MIXTURE> 1 1.000000e+00
<MEAN> 1
 0.000000e+00
<VARIANCE> 1
 1.000000e+00
<GCONST> 1.837877e+00
~s "ST_CH_i_2_39"
<NUMMIXES> 1
<MIXTURE> 1 1.000000e+00
<MEAN> 1
 0.000000e+00
<VARIANCE> 1
 1.000000e+00
<GCONST> 1.837877e+00
~s "ST_CH_i_2_38"
<NUMMIXES> 1
<MIXTURE> 1 1.000000e+00
<MEAN> 1
 0.000000e+00
<VARIANCE> 1
 1.000000e+00
<GCONST> 1.837877e+00
~s "ST_CH_i_2_43"
<NUMMIXES> 1
<MIXTURE> 1 1.000000e+00
<MEAN> 1
 0.000000e+00
<VARIANCE> 1
 1.000000e+00
<GCONST> 1.837877e+00
~s "ST_CH_i_2_40"
<NUMMIXES> 1
<MIXTURE> 1 1.000000e+00
<MEAN> 1
 0.000000e+00
<VARIANCE> 1
 1.000000e+00
<GCONST> 1.837877e+00
~s "ST_CH_i_2_42"
<NUMMIXES> 1
<MIXTURE> 1 1.000000e+00
<MEAN> 1
 0.000000e+00
<VARIANCE> 1
 1.000000e+00
<GCONST> 1.837877e+00
~s "ST_CH_i_2_41"
<NUMMIXES> 1
<MIXTURE> 1 1.000000e+00
<MEAN> 1
 0.000000e+00
<VARIANCE> 1
 1.000000e+00
<GCONST> 1.837877e+00
~s "ST_CH_i_4_35"
<NUMMIXES> 1
<MIXTURE> 1 1.000000e+00
<MEAN> 1
 0.000000e+00
<VARIANCE> 1
 1.000000e+00
<GCONST> 1.837877e+00
~s "ST_CH_i_4_54"
<NUMMIXES> 1
<MIXTURE> 1 1.000000e+00
<MEAN> 1
 0.000000e+00
<VARIANCE> 1
 1.000000e+00
<GCONST> 1.837877e+00
~s "ST_CH_i_4_32"
<NUMMIXES> 1
<MIXTURE> 1 1.000000e+00
<MEAN> 1
 0.000000e+00
<VARIANCE> 1
 1.000000e+00
<GCONST> 1.837877e+00
~s "ST_CH_i_4_16"
<NUMMIXES> 1
<MIXTURE> 1 1.000000e+00
<MEAN> 1
 0.000000e+00
<VARIANCE> 1
 1.000000e+00
<GCONST> 1.837877e+00
~s "ST_CH_o_4_16"
<NUMMIXES> 1
<MIXTURE> 1 1.000000e+00
<MEAN> 1
 0.000000e+00
<VARIANCE> 1
 1.000000e+00
<GCONST> 1.837877e+00
~s "ST_CH_o_4_19"
<NUMMIXES> 1
<MIXTURE> 1 1.000000e+00
<MEAN> 1
 0.000000e+00
<VARIANCE> 1
 1.000000e+00
<GCONST> 1.837877e+00
~s "ST_CH_o_4_17"
<NUMMIXES> 1
<MIXTURE> 1 1.000000e+00
<MEAN> 1
 0.000000e+00
<VARIANCE> 1
 1.000000e+00
<GCONST> 1.837877e+00
~s "ST_CH_o_4_18"
<NUMMIXES> 1
<MIXTURE> 1 1.000000e+00
<MEAN> 1
 0.000000e+00
<VARIANCE> 1
 1.000000e+00
<GCONST> 1.837877e+00
~s "ST_CH_o_4_3"
<NUMMIXES> 1
<MIXTURE> 1 1.000000e+00
<MEAN> 1
 0.000000e+00
<VARIANCE> 1
 1.000000e+00
<GCONST> 1.837877e+00
~s "ST_CH_b_4_3"
<NUMMIXES> 1
<MIXTURE> 1 1.000000e+00
<MEAN> 1
 0.000000e+00
<VARIANCE> 1
 1.000000e+00
<GCONST> 1.837877e+00
~s "ST_CH_m_4_6"
<NUMMIXES> 1
<MIXTURE> 1 1.000000e+00
<MEAN> 1
 0.000000e+00
<VARIANCE> 1
 1.000000e+00
<GCONST> 1.837877e+00
~s "ST_CH_m_4_7"
<NUMMIXES> 1
<MIXTURE> 1 1.000000e+00
<MEAN> 1
 0.000000e+00
<VARIANCE> 1
 1.000000e+00
<GCONST> 1.837877e+00
~s "ST_CH_m_4_5"
<NUMMIXES> 1
<MIXTURE> 1 1.000000e+00
<MEAN> 1
 0.000000e+00
<VARIANCE> 1
 1.000000e+00
<GCONST> 1.837877e+00
~s "ST_CH_m_4_3"
<NUMMIXES> 1
<MIXTURE> 1 1.000000e+00
<MEAN> 1
 0.000000e+00
<VARIANCE> 1
 1.000000e+00
<GCONST> 1.837877e+00
~s "ST_CH_m_4_2"
<NUMMIXES> 1
<MIXTURE> 1 1.000000e+00
<MEAN> 1
 0.000000e+00
<VARIANCE> 1
 1.000000e+00
<GCONST> 1.837877e+00
~s "ST_CH_N#_2_2"
<NUMMIXES> 1
<MIXTURE> 1 1.000000e+00
<MEAN> 1
 0.000000e+00
<VARIANCE> 1
 1.000000e+00
<GCONST> 1.837877e+00
~s "ST_CH_N#_2_3"
<NUMMIXES> 1
<MIXTURE> 1 1.000000e+00
<MEAN> 1
 0.000000e+00
<VARIANCE> 1
 1.000000e+00
<GCONST> 1.837877e+00
~s "ST_CH_N#_2_1"
<NUMMIXES> 1
<MIXTURE> 1 1.000000e+00
<MEAN> 1
 0.000000e+00
<VARIANCE> 1
 1.000000e+00
<GCONST> 1.837877e+00
~s "ST_CH_#_2_30"
<NUMMIXES> 1
<MIXTURE> 1 1.000000e+00
<MEAN> 1
 0.000000e+00
<VARIANCE> 1
 1.000000e+00
<GCONST> 1.837877e+00
~s "ST_CH_#_2_31"
<NUMMIXES> 1
<MIXTURE> 1 1.000000e+00
<MEAN> 1
 0.000000e+00
<VARIANCE> 1
 1.000000e+00
<GCONST> 1.837877e+00
~s "ST_CH_si_3_9"
<NUMMIXES> 1
<MIXTURE> 1 1.000000e+00
<MEAN> 1
 0.000000e+00
<VARIANCE> 1
 1.000000e+00
<GCONST> 1.837877e+00
~s "ST_CH_si_3_1"
<NUMMIXES> 1
<MIXTURE> 1 1.000000e+00
<MEAN> 1
 0.000000e+00
<VARIANCE> 1
 1.000000e+00
<GCONST> 1.837877e+00
~s "ST_CH_si_3_6"
<NUMMIXES> 1
<MIXTURE> 1 1.000000e+00
<MEAN> 1
 0.000000e+00
<VARIANCE> 1
 1.000000e+00
<GCONST> 1.837877e+00
~s "ST_CH_si_3_8"
<NUMMIXES> 1
<MIXTURE> 1 1.000000e+00
<MEAN> 1
 0.000000e+00
<VARIANCE> 1
 1.000000e+00
<GCONST> 1.837877e+00
~s "ST_CH_si_3_3"
<NUMMIXES> 1
<MIXTURE> 1 1.000000e+00
<MEAN> 1
 0.000000e+00
<VARIANCE> 1
 1.000000e+00
<GCONST> 1.837877e+00
~s "ST_CH_si_3_5"
<NUMMIXES> 1
<MIXTURE> 1 1.000000e+00
<MEAN> 1
 0.000000e+00
<VARIANCE> 1
 1.000000e+00
<GCONST> 1.837877e+00
~s "ST_CH_y_3_11"
<NUMMIXES> 1
<MIXTURE> 1 1.000000e+00
<MEAN> 1
 0.000000e+00
<VARIANCE> 1
 1.000000e+00
<GCONST> 1.837877e+00
~s "ST_CH_y_3_5"
<NUMMIXES> 1
<MIXTURE> 1 1.000000e+00
<MEAN> 1
 0.000000e+00
<VARIANCE> 1
 1.000000e+00
<GCONST> 1.837877e+00
~s "ST_CH_i_4_14"
<NUMMIXES> 1
<MIXTURE> 1 1.000000e+00
<MEAN> 1
 0.000000e+00
<VARIANCE> 1
 1.000000e+00
<GCONST> 1.837877e+00
~s "ST_CH_i_4_47"
<NUMMIXES> 1
<MIXTURE> 1 1.000000e+00
<MEAN> 1
 0.000000e+00
<VARIANCE> 1
 1.000000e+00
<GCONST> 1.837877e+00
~s "ST_CH_i_4_12"
<NUMMIXES> 1
<MIXTURE> 1 1.000000e+00
<MEAN> 1
 0.000000e+00
<VARIANCE> 1
 1.000000e+00
<GCONST> 1.837877e+00
~s "ST_CH_i_4_18"
<NUMMIXES> 1
<MIXTURE> 1 1.000000e+00
<MEAN> 1
 0.000000e+00
<VARIANCE> 1
 1.000000e+00
<GCONST> 1.837877e+00
~s "ST_CH_i_4_8"
<NUMMIXES> 1
<MIXTURE> 1 1.000000e+00
<MEAN> 1
 0.000000e+00
<VARIANCE> 1
 1.000000e+00
<GCONST> 1.837877e+00
~s "ST_CH_i_4_13"
<NUMMIXES> 1
<MIXTURE> 1 1.000000e+00
<MEAN> 1
 0.000000e+00
<VARIANCE> 1
 1.000000e+00
<GCONST> 1.837877e+00
~s "ST_CH_i_4_9"
<NUMMIXES> 1
<MIXTURE> 1 1.000000e+00
<MEAN> 1
 0.000000e+00
<VARIANCE> 1
 1.000000e+00
<GCONST> 1.837877e+00
~s "ST_CH_i_4_38"
<NUMMIXES> 1
<MIXTURE> 1 1.000000e+00
<MEAN> 1
 0.000000e+00
<VARIANCE> 1
 1.000000e+00
<GCONST> 1.837877e+00
~s "ST_CH_i_4_5"
<NUMMIXES> 1
<MIXTURE> 1 1.000000e+00
<MEAN> 1
 0.000000e+00
<VARIANCE> 1
 1.000000e+00
<GCONST> 1.837877e+00
~s "ST_CH_i_4_17"
<NUMMIXES> 1
<MIXTURE> 1 1.000000e+00
<MEAN> 1
 0.000000e+00
<VARIANCE> 1
 1.000000e+00
<GCONST> 1.837877e+00
~s "ST_CH_i_4_10"
<NUMMIXES> 1
<MIXTURE> 1 1.000000e+00
<MEAN> 1
 0.000000e+00
<VARIANCE> 1
 1.000000e+00
<GCONST> 1.837877e+00
~s "ST_CH_i_4_11"
<NUMMIXES> 1
<MIXTURE> 1 1.000000e+00
<MEAN> 1
 0.000000e+00
<VARIANCE> 1
 1.000000e+00
<GCONST> 1.837877e+00
~s "ST_CH_o_4_21"
<NUMMIXES> 1
<MIXTURE> 1 1.000000e+00
<MEAN> 1
 0.000000e+00
<VARIANCE> 1
 1.000000e+00
<GCONST> 1.837877e+00
~s "ST_CH_i_3_52"
<NUMMIXES> 1
<MIXTURE> 1 1.000000e+00
<MEAN> 1
 0.000000e+00
<VARIANCE> 1
 1.000000e+00
<GCONST> 1.837877e+00
~s "ST_CH_i_3_58"
<NUMMIXES> 1
<MIXTURE> 1 1.000000e+00
<MEAN> 1
 0.000000e+00
<VARIANCE> 1
 1.000000e+00
<GCONST> 1.837877e+00
~s "ST_CH_i_3_16"
<NUMMIXES> 1
<MIXTURE> 1 1.000000e+00
<MEAN> 1
 0.000000e+00
<VARIANCE> 1
 1.000000e+00
<GCONST> 1.837877e+00
~s "ST_CH_i_3_41"
<NUMMIXES> 1
<MIXTURE> 1 1.000000e+00
<MEAN> 1
 0.000000e+00
<VARIANCE> 1
 1.000000e+00
<GCONST> 1.837877e+00
~s "ST_CH_i_3_7"
<NUMMIXES> 1
<MIXTURE> 1 1.000000e+00
<MEAN> 1
 0.000000e+00
<VARIANCE> 1
 1.000000e+00
<GCONST> 1.837877e+00
~s "ST_CH_i_3_64"
<NUMMIXES> 1
<MIXTURE> 1 1.000000e+00
<MEAN> 1
 0.000000e+00
<VARIANCE> 1
 1.000000e+00
<GCONST> 1.837877e+00
~s "ST_CH_d_4_8"
<NUMMIXES> 1
<MIXTURE> 1 1.000000e+00
<MEAN> 1
 0.000000e+00
<VARIANCE> 1
 1.000000e+00
<GCONST> 1.837877e+00
~s "ST_CH_d_4_4"
<NUMMIXES> 1
<MIXTURE> 1 1.000000e+00
<MEAN> 1
 0.000000e+00
<VARIANCE> 1
 1.000000e+00
<GCONST> 1.837877e+00
~s "ST_CH_n#_2_32"
<NUMMIXES> 1
<MIXTURE> 1 1.000000e+00
<MEAN> 1
 0.000000e+00
<VARIANCE> 1
 1.000000e+00
<GCONST> 1.837877e+00
~s "ST_CH_n#_2_34"
<NUMMIXES> 1
<MIXTURE> 1 1.000000e+00
<MEAN> 1
 0.000000e+00
<VARIANCE> 1
 1.000000e+00
<GCONST> 1.837877e+00
~s "ST_CH_n#_2_30"
<NUMMIXES> 1
<MIXTURE> 1 1.000000e+00
<MEAN> 1
 0.000000e+00
<VARIANCE> 1
 1.000000e+00
<GCONST> 1.837877e+00
~s "ST_CH_n#_2_39"
<NUMMIXES> 1
<MIXTURE> 1 1.000000e+00
<MEAN> 1
 0.000000e+00
<VARIANCE> 1
 1.000000e+00
<GCONST> 1.837877e+00
~s "ST_CH_n#_2_36"
<NUMMIXES> 1
<MIXTURE> 1 1.000000e+00
<MEAN> 1
 0.000000e+00
<VARIANCE> 1
 1.000000e+00
<GCONST> 1.837877e+00
~s "ST_CH_n#_2_38"
<NUMMIXES> 1
<MIXTURE> 1 1.000000e+00
<MEAN> 1
 0.000000e+00
<VARIANCE> 1
 1.000000e+00
<GCONST> 1.837877e+00
~s "ST_CH_n#_2_37"
<NUMMIXES> 1
<MIXTURE> 1 1.000000e+00
<MEAN> 1
 0.000000e+00
<VARIANCE> 1
 1.000000e+00
<GCONST> 1.837877e+00
~s "ST_CH_n#_2_33"
<NUMMIXES> 1
<MIXTURE> 1 1.000000e+00
<MEAN> 1
 0.000000e+00
<VARIANCE> 1
 1.000000e+00
<GCONST> 1.837877e+00
~s "ST_CH_n#_2_35"
<NUMMIXES> 1
<MIXTURE> 1 1.000000e+00
<MEAN> 1
 0.000000e+00
<VARIANCE> 1
 1.000000e+00
<GCONST> 1.837877e+00
~s "ST_CH_n#_2_31"
<NUMMIXES> 1
<MIXTURE> 1 1.000000e+00
<MEAN> 1
 0.000000e+00
<VARIANCE> 1
 1.000000e+00
<GCONST> 1.837877e+00
~s "ST_CH_m_3_11"
<NUMMIXES> 1
<MIXTURE> 1 1.000000e+00
<MEAN> 1
 0.000000e+00
<VARIANCE> 1
 1.000000e+00
<GCONST> 1.837877e+00
~s "ST_CH_m_3_3"
<NUMMIXES> 1
<MIXTURE> 1 1.000000e+00
<MEAN> 1
 0.000000e+00
<VARIANCE> 1
 1.000000e+00
<GCONST> 1.837877e+00
~s "ST_CH_m_3_12"
<NUMMIXES> 1
<MIXTURE> 1 1.000000e+00
<MEAN> 1
 0.000000e+00
<VARIANCE> 1
 1.000000e+00
<GCONST> 1.837877e+00
~s "ST_CH_m_3_6"
<NUMMIXES> 1
<MIXTURE> 1 1.000000e+00
<MEAN> 1
 0.000000e+00
<VARIANCE> 1
 1.000000e+00
<GCONST> 1.837877e+00
~s "ST_CH_u_4_39"
<NUMMIXES> 1
<MIXTURE> 1 1.000000e+00
<MEAN> 1
 0.000000e+00
<VARIANCE> 1
 1.000000e+00
<GCONST> 1.837877e+00
~s "ST_CH_b_4_6"
<NUMMIXES> 1
<MIXTURE> 1 1.000000e+00
<MEAN> 1
 0.000000e+00
<VARIANCE> 1
 1.000000e+00
<GCONST> 1.837877e+00
~s "ST_CH_b_4_1"
<NUMMIXES> 1
<MIXTURE> 1 1.000000e+00
<MEAN> 1
 0.000000e+00
<VARIANCE> 1
 1.000000e+00
<GCONST> 1.837877e+00
~s "ST_CH_#_2_2"
<NUMMIXES> 1
<MIXTURE> 1 1.000000e+00
<MEAN> 1
 0.000000e+00
<VARIANCE> 1
 1.000000e+00
<GCONST> 1.837877e+00
~s "ST_CH_#_2_1"
<NUMMIXES> 1
<MIXTURE> 1 1.000000e+00
<MEAN> 1
 0.000000e+00
<VARIANCE> 1
 1.000000e+00
<GCONST> 1.837877e+00
~s "ST_CH_l_3_7"
<NUMMIXES> 1
<MIXTURE> 1 1.000000e+00
<MEAN> 1
 0.000000e+00
<VARIANCE> 1
 1.000000e+00
<GCONST> 1.837877e+00
~s "ST_CH_l_3_1"
<NUMMIXES> 1
<MIXTURE> 1 1.000000e+00
<MEAN> 1
 0.000000e+00
<VARIANCE> 1
 1.000000e+00
<GCONST> 1.837877e+00
~s "ST_CH_l_3_4"
<NUMMIXES> 1
<MIXTURE> 1 1.000000e+00
<MEAN> 1
 0.000000e+00
<VARIANCE> 1
 1.000000e+00
<GCONST> 1.837877e+00
~s "ST_CH_l_3_2"
<NUMMIXES> 1
<MIXTURE> 1 1.000000e+00
<MEAN> 1
 0.000000e+00
<VARIANCE> 1
 1.000000e+00
<GCONST> 1.837877e+00
~s "ST_CH_u_2_37"
<NUMMIXES> 1
<MIXTURE> 1 1.000000e+00
<MEAN> 1
 0.000000e+00
<VARIANCE> 1
 1.000000e+00
<GCONST> 1.837877e+00
~s "ST_CH_u_2_42"
<NUMMIXES> 1
<MIXTURE> 1 1.000000e+00
<MEAN> 1
 0.000000e+00
<VARIANCE> 1
 1.000000e+00
<GCONST> 1.837877e+00
~s "ST_CH_u_2_38"
<NUMMIXES> 1
<MIXTURE> 1 1.000000e+00
<MEAN> 1
 0.000000e+00
<VARIANCE> 1
 1.000000e+00
<GCONST> 1.837877e+00
~s "ST_CH_u_2_4"
<NUMMIXES> 1
<MIXTURE> 1 1.000000e+00
<MEAN> 1
 0.000000e+00
<VARIANCE> 1
 1.000000e+00
<GCONST> 1.837877e+00
~s "ST_CH_n_4_2"
<NUMMIXES> 1
<MIXTURE> 1 1.000000e+00
<MEAN> 1
 0.000000e+00
<VARIANCE> 1
 1.000000e+00
<GCONST> 1.837877e+00
~s "ST_CH_n_4_5"
<NUMMIXES> 1
<MIXTURE> 1 1.000000e+00
<MEAN> 1
 0.000000e+00
<VARIANCE> 1
 1.000000e+00
<GCONST> 1.837877e+00
~s "ST_CH_n_4_3"
<NUMMIXES> 1
<MIXTURE> 1 1.000000e+00
<MEAN> 1
 0.000000e+00
<VARIANCE> 1
 1.000000e+00
<GCONST> 1.837877e+00
~s "ST_CH_n_4_1"
<NUMMIXES> 1
<MIXTURE> 1 1.000000e+00
<MEAN> 1
 0.000000e+00
<VARIANCE> 1
 1.000000e+00
<GCONST> 1.837877e+00
~s "ST_CH_a_4_34"
<NUMMIXES> 1
<MIXTURE> 1 1.000000e+00
<MEAN> 1
 0.000000e+00
<VARIANCE> 1
 1.000000e+00
<GCONST> 1.837877e+00
~s "ST_CH_a_4_29"
<NUMMIXES> 1
<MIXTURE> 1 1.000000e+00
<MEAN> 1
 0.000000e+00
<VARIANCE> 1
 1.000000e+00
<GCONST> 1.837877e+00
~s "ST_CH_a_4_18"
<NUMMIXES> 1
<MIXTURE> 1 1.000000e+00
<MEAN> 1
 0.000000e+00
<VARIANCE> 1
 1.000000e+00
<GCONST> 1.837877e+00
~s "ST_CH_a_4_26"
<NUMMIXES> 1
<MIXTURE> 1 1.000000e+00
<MEAN> 1
 0.000000e+00
<VARIANCE> 1
 1.000000e+00
<GCONST> 1.837877e+00
~s "ST_CH_a_4_4"
<NUMMIXES> 1
<MIXTURE> 1 1.000000e+00
<MEAN> 1
 0.000000e+00
<VARIANCE> 1
 1.000000e+00
<GCONST> 1.837877e+00
~s "ST_CH_i_3_31"
<NUMMIXES> 1
<MIXTURE> 1 1.000000e+00
<MEAN> 1
 0.000000e+00
<VARIANCE> 1
 1.000000e+00
<GCONST> 1.837877e+00
~s "ST_CH_i_3_61"
<NUMMIXES> 1
<MIXTURE> 1 1.000000e+00
<MEAN> 1
 0.000000e+00
<VARIANCE> 1
 1.000000e+00
<GCONST> 1.837877e+00
~s "ST_CH_i_3_32"
<NUMMIXES> 1
<MIXTURE> 1 1.000000e+00
<MEAN> 1
 0.000000e+00
<VARIANCE> 1
 1.000000e+00
<GCONST> 1.837877e+00
~s "ST_CH_i_3_34"
<NUMMIXES> 1
<MIXTURE> 1 1.000000e+00
<MEAN> 1
 0.000000e+00
<VARIANCE> 1
 1.000000e+00
<GCONST> 1.837877e+00
~s "ST_CH_i_3_40"
<NUMMIXES> 1
<MIXTURE> 1 1.000000e+00
<MEAN> 1
 0.000000e+00
<VARIANCE> 1
 1.000000e+00
<GCONST> 1.837877e+00
~s "ST_CH_i_3_33"
<NUMMIXES> 1
<MIXTURE> 1 1.000000e+00
<MEAN> 1
 0.000000e+00
<VARIANCE> 1
 1.000000e+00
<GCONST> 1.837877e+00
~s "ST_CH_#_2_16"
<NUMMIXES> 1
<MIXTURE> 1 1.000000e+00
<MEAN> 1
 0.000000e+00
<VARIANCE> 1
 1.000000e+00
<GCONST> 1.837877e+00
~s "ST_CH_#_3_12"
<NUMMIXES> 1
<MIXTURE> 1 1.000000e+00
<MEAN> 1
 0.000000e+00
<VARIANCE> 1
 1.000000e+00
<GCONST> 1.837877e+00
~s "ST_CH_#_3_13"
<NUMMIXES> 1
<MIXTURE> 1 1.000000e+00
<MEAN> 1
 0.000000e+00
<VARIANCE> 1
 1.000000e+00
<GCONST> 1.837877e+00
~s "ST_CH_#_2_17"
<NUMMIXES> 1
<MIXTURE> 1 1.000000e+00
<MEAN> 1
 0.000000e+00
<VARIANCE> 1
 1.000000e+00
<GCONST> 1.837877e+00
~s "ST_CH_i_2_65"
<NUMMIXES> 1
<MIXTURE> 1 1.000000e+00
<MEAN> 1
 0.000000e+00
<VARIANCE> 1
 1.000000e+00
<GCONST> 1.837877e+00
~s "ST_CH_i_2_46"
<NUMMIXES> 1
<MIXTURE> 1 1.000000e+00
<MEAN> 1
 0.000000e+00
<VARIANCE> 1
 1.000000e+00
<GCONST> 1.837877e+00
~s "ST_CH_i_2_50"
<NUMMIXES> 1
<MIXTURE> 1 1.000000e+00
<MEAN> 1
 0.000000e+00
<VARIANCE> 1
 1.000000e+00
<GCONST> 1.837877e+00
~s "ST_CH_sc_4_8"
<NUMMIXES> 1
<MIXTURE> 1 1.000000e+00
<MEAN> 1
 0.000000e+00
<VARIANCE> 1
 1.000000e+00
<GCONST> 1.837877e+00
~s "ST_CH_sc_4_6"
<NUMMIXES> 1
<MIXTURE> 1 1.000000e+00
<MEAN> 1
 0.000000e+00
<VARIANCE> 1
 1.000000e+00
<GCONST> 1.837877e+00
~s "ST_CH_sc_4_9"
<NUMMIXES> 1
<MIXTURE> 1 1.000000e+00
<MEAN> 1
 0.000000e+00
<VARIANCE> 1
 1.000000e+00
<GCONST> 1.837877e+00
~s "ST_CH_sc_4_1"
<NUMMIXES> 1
<MIXTURE> 1 1.000000e+00
<MEAN> 1
 0.000000e+00
<VARIANCE> 1
 1.000000e+00
<GCONST> 1.837877e+00
~s "ST_CH_sc_4_10"
<NUMMIXES> 1
<MIXTURE> 1 1.000000e+00
<MEAN> 1
 0.000000e+00
<VARIANCE> 1
 1.000000e+00
<GCONST> 1.837877e+00
~s "ST_CH_U_4_11"
<NUMMIXES> 1
<MIXTURE> 1 1.000000e+00
<MEAN> 1
 0.000000e+00
<VARIANCE> 1
 1.000000e+00
<GCONST> 1.837877e+00
~s "ST_CH_U_4_7"
<NUMMIXES> 1
<MIXTURE> 1 1.000000e+00
<MEAN> 1
 0.000000e+00
<VARIANCE> 1
 1.000000e+00
<GCONST> 1.837877e+00
~s "ST_CH_U_4_9"
<NUMMIXES> 1
<MIXTURE> 1 1.000000e+00
<MEAN> 1
 0.000000e+00
<VARIANCE> 1
 1.000000e+00
<GCONST> 1.837877e+00
~s "ST_CH_U_4_6"
<NUMMIXES> 1
<MIXTURE> 1 1.000000e+00
<MEAN> 1
 0.000000e+00
<VARIANCE> 1
 1.000000e+00
<GCONST> 1.837877e+00
~s "ST_CH_U_4_8"
<NUMMIXES> 1
<MIXTURE> 1 1.000000e+00
<MEAN> 1
 0.000000e+00
<VARIANCE> 1
 1.000000e+00
<GCONST> 1.837877e+00
~s "ST_CH_U_4_4"
<NUMMIXES> 1
<MIXTURE> 1 1.000000e+00
<MEAN> 1
 0.000000e+00
<VARIANCE> 1
 1.000000e+00
<GCONST> 1.837877e+00
~s "ST_CH_dzi_4_3"
<NUMMIXES> 1
<MIXTURE> 1 1.000000e+00
<MEAN> 1
 0.000000e+00
<VARIANCE> 1
 1.000000e+00
<GCONST> 1.837877e+00
~s "ST_CH_dzi_4_1"
<NUMMIXES> 1
<MIXTURE> 1 1.000000e+00
<MEAN> 1
 0.000000e+00
<VARIANCE> 1
 1.000000e+00
<GCONST> 1.837877e+00
~s "ST_CH_h_3_8"
<NUMMIXES> 1
<MIXTURE> 1 1.000000e+00
<MEAN> 1
 0.000000e+00
<VARIANCE> 1
 1.000000e+00
<GCONST> 1.837877e+00
~s "ST_CH_h_3_5"
<NUMMIXES> 1
<MIXTURE> 1 1.000000e+00
<MEAN> 1
 0.000000e+00
<VARIANCE> 1
 1.000000e+00
<GCONST> 1.837877e+00
~s "ST_CH_h_3_10"
<NUMMIXES> 1
<MIXTURE> 1 1.000000e+00
<MEAN> 1
 0.000000e+00
<VARIANCE> 1
 1.000000e+00
<GCONST> 1.837877e+00
~s "ST_CH_h_3_1"
<NUMMIXES> 1
<MIXTURE> 1 1.000000e+00
<MEAN> 1
 0.000000e+00
<VARIANCE> 1
 1.000000e+00
<GCONST> 1.837877e+00
~s "ST_CH_tsc_4_4"
<NUMMIXES> 1
<MIXTURE> 1 1.000000e+00
<MEAN> 1
 0.000000e+00
<VARIANCE> 1
 1.000000e+00
<GCONST> 1.837877e+00
~s "ST_CH_tsc_4_5"
<NUMMIXES> 1
<MIXTURE> 1 1.000000e+00
<MEAN> 1
 0.000000e+00
<VARIANCE> 1
 1.000000e+00
<GCONST> 1.837877e+00
~s "ST_CH_a_3_44"
<NUMMIXES> 1
<MIXTURE> 1 1.000000e+00
<MEAN> 1
 0.000000e+00
<VARIANCE> 1
 1.000000e+00
<GCONST> 1.837877e+00
~s "ST_CH_a_3_24"
<NUMMIXES> 1
<MIXTURE> 1 1.000000e+00
<MEAN> 1
 0.000000e+00
<VARIANCE> 1
 1.000000e+00
<GCONST> 1.837877e+00
~s "ST_CH_a_3_18"
<NUMMIXES> 1
<MIXTURE> 1 1.000000e+00
<MEAN> 1
 0.000000e+00
<VARIANCE> 1
 1.000000e+00
<GCONST> 1.837877e+00
~s "ST_CH_a_3_27"
<NUMMIXES> 1
<MIXTURE> 1 1.000000e+00
<MEAN> 1
 0.000000e+00
<VARIANCE> 1
 1.000000e+00
<GCONST> 1.837877e+00
~s "ST_CH_a_3_9"
<NUMMIXES> 1
<MIXTURE> 1 1.000000e+00
<MEAN> 1
 0.000000e+00
<VARIANCE> 1
 1.000000e+00
<GCONST> 1.837877e+00
~s "ST_CH_a_3_37"
<NUMMIXES> 1
<MIXTURE> 1 1.000000e+00
<MEAN> 1
 0.000000e+00
<VARIANCE> 1
 1.000000e+00
<GCONST> 1.837877e+00
~s "ST_CH_a_3_61"
<NUMMIXES> 1
<MIXTURE> 1 1.000000e+00
<MEAN> 1
 0.000000e+00
<VARIANCE> 1
 1.000000e+00
<GCONST> 1.837877e+00
~s "ST_CH_a_3_69"
<NUMMIXES> 1
<MIXTURE> 1 1.000000e+00
<MEAN> 1
 0.000000e+00
<VARIANCE> 1
 1.000000e+00
<GCONST> 1.837877e+00
~s "ST_CH_a_3_10"
<NUMMIXES> 1
<MIXTURE> 1 1.000000e+00
<MEAN> 1
 0.000000e+00
<VARIANCE> 1
 1.000000e+00
<GCONST> 1.837877e+00
~s "ST_CH_a_3_41"
<NUMMIXES> 1
<MIXTURE> 1 1.000000e+00
<MEAN> 1
 0.000000e+00
<VARIANCE> 1
 1.000000e+00
<GCONST> 1.837877e+00
~s "ST_CH_a_3_6"
<NUMMIXES> 1
<MIXTURE> 1 1.000000e+00
<MEAN> 1
 0.000000e+00
<VARIANCE> 1
 1.000000e+00
<GCONST> 1.837877e+00
~s "ST_CH_a_3_15"
<NUMMIXES> 1
<MIXTURE> 1 1.000000e+00
<MEAN> 1
 0.000000e+00
<VARIANCE> 1
 1.000000e+00
<GCONST> 1.837877e+00
~s "ST_CH_a_3_3"
<NUMMIXES> 1
<MIXTURE> 1 1.000000e+00
<MEAN> 1
 0.000000e+00
<VARIANCE> 1
 1.000000e+00
<GCONST> 1.837877e+00
~s "ST_CH_dz_4_3"
<NUMMIXES> 1
<MIXTURE> 1 1.000000e+00
<MEAN> 1
 0.000000e+00
<VARIANCE> 1
 1.000000e+00
<GCONST> 1.837877e+00
~s "ST_CH_dz_4_1"
<NUMMIXES> 1
<MIXTURE> 1 1.000000e+00
<MEAN> 1
 0.000000e+00
<VARIANCE> 1
 1.000000e+00
<GCONST> 1.837877e+00
~s "ST_CH_u_3_38"
<NUMMIXES> 1
<MIXTURE> 1 1.000000e+00
<MEAN> 1
 0.000000e+00
<VARIANCE> 1
 1.000000e+00
<GCONST> 1.837877e+00
~s "ST_CH_u_3_80"
<NUMMIXES> 1
<MIXTURE> 1 1.000000e+00
<MEAN> 1
 0.000000e+00
<VARIANCE> 1
 1.000000e+00
<GCONST> 1.837877e+00
~s "ST_CH_u_3_30"
<NUMMIXES> 1
<MIXTURE> 1 1.000000e+00
<MEAN> 1
 0.000000e+00
<VARIANCE> 1
 1.000000e+00
<GCONST> 1.837877e+00
~s "ST_CH_u_3_69"
<NUMMIXES> 1
<MIXTURE> 1 1.000000e+00
<MEAN> 1
 0.000000e+00
<VARIANCE> 1
 1.000000e+00
<GCONST> 1.837877e+00
~s "ST_CH_u_3_8"
<NUMMIXES> 1
<MIXTURE> 1 1.000000e+00
<MEAN> 1
 0.000000e+00
<VARIANCE> 1
 1.000000e+00
<GCONST> 1.837877e+00
~s "ST_CH_i_2_7"
<NUMMIXES> 1
<MIXTURE> 1 1.000000e+00
<MEAN> 1
 0.000000e+00
<VARIANCE> 1
 1.000000e+00
<GCONST> 1.837877e+00
~s "ST_CH_i_2_11"
<NUMMIXES> 1
<MIXTURE> 1 1.000000e+00
<MEAN> 1
 0.000000e+00
<VARIANCE> 1
 1.000000e+00
<GCONST> 1.837877e+00
~s "ST_CH_i_2_70"
<NUMMIXES> 1
<MIXTURE> 1 1.000000e+00
<MEAN> 1
 0.000000e+00
<VARIANCE> 1
 1.000000e+00
<GCONST> 1.837877e+00
~s "ST_CH_i_2_5"
<NUMMIXES> 1
<MIXTURE> 1 1.000000e+00
<MEAN> 1
 0.000000e+00
<VARIANCE> 1
 1.000000e+00
<GCONST> 1.837877e+00
~s "ST_CH_i_2_59"
<NUMMIXES> 1
<MIXTURE> 1 1.000000e+00
<MEAN> 1
 0.000000e+00
<VARIANCE> 1
 1.000000e+00
<GCONST> 1.837877e+00
~s "ST_CH_i_2_58"
<NUMMIXES> 1
<MIXTURE> 1 1.000000e+00
<MEAN> 1
 0.000000e+00
<VARIANCE> 1
 1.000000e+00
<GCONST> 1.837877e+00
~s "ST_CH_u_4_30"
<NUMMIXES> 1
<MIXTURE> 1 1.000000e+00
<MEAN> 1
 0.000000e+00
<VARIANCE> 1
 1.000000e+00
<GCONST> 1.837877e+00
~s "ST_CH_u_4_35"
<NUMMIXES> 1
<MIXTURE> 1 1.000000e+00
<MEAN> 1
 0.000000e+00
<VARIANCE> 1
 1.000000e+00
<GCONST> 1.837877e+00
~s "ST_CH_u_4_29"
<NUMMIXES> 1
<MIXTURE> 1 1.000000e+00
<MEAN> 1
 0.000000e+00
<VARIANCE> 1
 1.000000e+00
<GCONST> 1.837877e+00
~s "ST_CH_u_4_45"
<NUMMIXES> 1
<MIXTURE> 1 1.000000e+00
<MEAN> 1
 0.000000e+00
<VARIANCE> 1
 1.000000e+00
<GCONST> 1.837877e+00
~s "ST_CH_u_4_46"
<NUMMIXES> 1
<MIXTURE> 1 1.000000e+00
<MEAN> 1
 0.000000e+00
<VARIANCE> 1
 1.000000e+00
<GCONST> 1.837877e+00
~s "ST_CH_u_4_32"
<NUMMIXES> 1
<MIXTURE> 1 1.000000e+00
<MEAN> 1
 0.000000e+00
<VARIANCE> 1
 1.000000e+00
<GCONST> 1.837877e+00
~s "ST_CH_u_4_28"
<NUMMIXES> 1
<MIXTURE> 1 1.000000e+00
<MEAN> 1
 0.000000e+00
<VARIANCE> 1
 1.000000e+00
<GCONST> 1.837877e+00
~s "ST_CH_u_4_25"
<NUMMIXES> 1
<MIXTURE> 1 1.000000e+00
<MEAN> 1
 0.000000e+00
<VARIANCE> 1
 1.000000e+00
<GCONST> 1.837877e+00
~s "ST_CH_a_4_33"
<NUMMIXES> 1
<MIXTURE> 1 1.000000e+00
<MEAN> 1
 0.000000e+00
<VARIANCE> 1
 1.000000e+00
<GCONST> 1.837877e+00
~s "ST_CH_a_4_1"
<NUMMIXES> 1
<MIXTURE> 1 1.000000e+00
<MEAN> 1
 0.000000e+00
<VARIANCE> 1
